Sno,Weight
0,0.014212402
1,-0.0094494885
2,0.011172613
3,-0.017391862
4,0.011976244
5,-0.008323928
6,0.011703533
7,-0.014054894
8,-0.00094909396
9,0.006375885
10,-0.006262771
11,-0.012434191
12,-0.011074283
13,-0.016372634
14,-0.0071737287
15,0.0054594018
16,-0.004164613
17,-0.0054189605
18,0.007810159
19,0.016627528
20,0.008159182
21,-0.0018283349
22,0.00254317
23,0.0028544634
24,0.01459386
25,0.0035451706
26,-0.009413675
27,0.0112921735
28,0.007946864
29,-0.011476248
30,0.009824401
31,0.006080991
32,0.00077819324
33,-0.0037167685
34,0.0069107716
35,-0.009212033
36,0.007879579
37,-0.002858593
38,-0.00016085521
39,-0.0031651738
40,-0.005661142
41,0.007961774
42,-0.005566651
43,-0.000598337
44,-0.009950359
45,0.012478743
46,-0.01638456
47,0.0066198753
48,0.005042545
49,-0.007613985
50,-0.006651623
51,-0.016073886
52,-0.0026945623
53,0.009523791
54,-0.008361748
55,0.006597298
56,-0.009245464
57,0.0029156078
58,0.020159632
59,-0.004905461
60,-0.0014427211
61,0.014182415
62,-0.0108881425
63,-0.0012059738
64,-0.009252093
65,0.008813305
66,0.009430578
67,-0.0029033602
68,-0.012754831
69,-0.0030673128
70,-6.2872656e-05
71,-0.010737408
72,-0.0047935294
73,0.003277079
74,-0.017010195
75,0.005326543
76,0.0048801857
77,0.014074861
78,-0.018732106
79,0.0028728822
80,-0.014972046
81,-0.008799995
82,-0.008190986
83,-0.0010795
84,0.015945066
85,-0.0035166661
86,-0.014593234
87,0.004571152
88,0.0118315695
89,-0.0122477375
90,0.0011876714
91,-0.0011552838
92,-0.01788461
93,-0.011050803
94,0.012929501
95,0.004290487
96,0.005531845
97,-0.010783672
98,0.00018321506
99,0.0031787942
100,0.004879462
101,0.008066397
102,0.013409459
103,-0.0030732031
104,0.006589617
105,0.0048887637
106,-0.018762676
107,-0.00620737
108,0.018337889
109,-0.0111251995
110,-0.0038625586
111,0.0045357132
112,-0.0016647374
113,-0.0068376823
114,0.0021113737
115,-0.0075357985
116,-0.015773194
117,0.012234428
118,0.009653999
119,0.00065256946
120,0.013330411
121,0.0032871133
122,0.004312933
123,-0.00033107147
124,0.0040018754
125,-0.019906862
126,-0.009428652
127,-0.007526086
128,0.0054663206
129,0.002723446
130,-6.175338e-06
131,0.0007409115
132,-0.0056180027
133,-0.014120521
134,0.003485869
135,0.00464645
136,0.0028233007
137,-0.0024173644
138,0.007995019
139,0.006276913
140,0.0130869895
141,0.0029157358
142,-0.00096559443
143,-8.861955e-05
144,-0.011192049
145,0.0027929088
146,-0.0017766061
147,0.017612167
148,-0.0072088856
149,0.0006773136
150,0.008982972
151,-0.0065930923
152,0.01297478
153,0.0033138439
154,0.011178766
155,-0.008395267
156,0.00013176912
157,0.007974186
158,-0.010991138
159,0.013716739
160,0.009720452
161,0.008887328
162,-0.0047001243
163,-0.0036763565
164,-0.0036028654
165,0.00077046873
166,0.0071146097
167,0.011975953
168,0.0065830755
169,0.0041160625
170,0.017135935
171,-0.0072032134
172,0.0014697509
173,0.0037519222
174,-0.009084677
175,-0.012595603
176,0.008184373
177,0.01335272
178,-0.015290124
179,0.0017468524
180,0.0025469367
181,0.003985551
182,-0.0050542047
183,0.004055143
184,0.008205671
185,0.019506678
186,-0.012260495
187,0.0071551604
188,-0.007725532
189,-0.007859379
190,-0.008358139
191,0.0073575564
192,0.00064279017
193,0.006137284
194,-0.016151613
195,-0.008987542
196,-0.012256764
197,-0.004439421
198,0.009532238
199,0.014303443
200,0.009466469
201,0.007868067
202,0.0051988196
203,0.009834209
204,0.011699795
205,0.007430927
206,-0.013515335
207,0.012687836
208,0.0036460327
209,-0.00015389713
210,0.003505774
211,-0.0025919199
212,0.009277327
213,-0.0033591357
214,-0.011884799
215,-0.014262367
216,-0.008538356
217,-0.010714899
218,-0.003292641
219,-0.004901589
220,-0.011827908
221,-0.0065427762
222,0.010729468
223,-0.006722988
224,0.0064739953
225,-0.0027421152
226,-0.007030078
227,0.0012802985
228,0.008797948
229,0.0180651
230,0.009867524
231,0.013180043
232,-0.0043739947
233,0.012372981
234,-0.0015066636
235,0.0014246261
236,-0.009657209
237,0.0051144743
238,0.007504287
239,0.011077266
240,-0.0023406434
241,-0.0063391128
242,-0.0018585557
243,0.0135755455
244,-0.01478337
245,-0.01266045
246,0.0056550843
247,0.007921238
248,-0.009703176
249,0.007415217
250,-0.00082726777
251,0.018926613
252,0.0083677545
253,-0.0035000558
254,-0.0025990824
255,-0.011287072
256,-0.010603807
257,0.010985647
258,-0.0050861854
259,0.003948672
260,-0.0070709465
261,0.003935552
262,-0.0026295665
263,-0.0041521015
264,-0.007646338
265,0.0055556484
266,0.011558581
267,0.0029762336
268,0.008934976
269,0.0018691111
270,0.009396245
271,-0.010953602
272,0.01268403
273,0.01051384
274,-0.012078195
275,0.010781236
276,0.011223533
277,0.009703035
278,0.0037823347
279,0.0073760306
280,0.0012263183
281,-0.0019077833
282,0.0038412416
283,0.0099040205
284,0.015106926
285,0.009222776
286,0.005294244
287,0.009908892
288,0.00094634324
289,0.0059774052
290,-0.0044692894
291,0.0048738457
292,-0.007830531
293,0.0036694808
294,-0.01613599
295,0.009606734
296,0.008985387
297,-0.0068862145
298,0.012614596
299,-0.014782099
300,0.0070429314
301,0.015170499
302,-0.01747098
303,-0.012522887
304,-0.014115279
305,0.010331654
306,0.005879481
307,0.005399561
308,-0.018613448
309,-0.0051067774
310,0.010949214
311,0.0045759273
312,0.0061616823
313,-0.0010845404
314,0.004279897
315,0.00033517295
316,0.003776296
317,0.0012224641
318,0.012369042
319,0.012722528
320,-0.00067134283
321,0.011026015
322,-0.015025838
323,0.0064109005
324,0.006376626
325,-0.008640498
326,0.0065298574
327,-0.001596499
328,0.016352575
329,-0.014838569
330,-0.010226197
331,0.0032918812
332,0.0026958347
333,0.00045514695
334,-0.0054081692
335,-0.011138616
336,0.0026972354
337,0.010021269
338,-0.002169993
339,-0.01828181
340,0.0011803688
341,-0.010472506
342,-0.0136079965
343,-0.0045496235
344,0.0061696395
345,9.518128e-05
346,0.009355052
347,-0.015781593
348,0.002184613
349,0.0030993856
350,0.009632937
351,0.01014837
352,-0.010804566
353,-0.0132439835
354,0.0033553382
355,-8.9783825e-05
356,0.014790935
357,-0.006182625
358,0.0050451704
359,-0.0027312194
360,-0.013842714
361,-0.009936918
362,-0.002810948
363,-0.011239585
364,-0.015784055
365,-0.0052923025
366,0.009211072
367,0.006393488
368,-0.00081580505
369,0.009222568
370,0.014263783
371,-0.0024817733
372,0.0014755139
373,-0.0026005695
374,0.0009457782
375,0.005858201
376,-0.006222941
377,0.0033965793
378,-0.0054919217
379,0.013967277
380,0.0008787982
381,-0.00084747595
382,-0.0061480054
383,0.006374751
384,-0.0073906537
385,-0.004845385
386,-0.010170616
387,0.005006672
388,0.0019748688
389,-0.0007098487
390,-0.013913011
391,0.0066470914
392,0.004807268
393,0.011156756
394,-0.0061370153
395,-0.010239871
396,-0.008858419
397,-0.009477123
398,-0.008708194
399,0.0017144118
400,-0.004662856
401,-0.0011372028
402,0.00454207
403,0.002382603
404,0.013580655
405,-0.014794499
406,-0.002671031
407,-0.0035737162
408,0.017017124
409,-0.0017813811
410,0.0064302767
411,-0.007506714
412,0.012427528
413,-0.0018280693
414,-0.00426459
415,-0.007648437
416,-0.0035741383
417,0.0014165896
418,0.0075015654
419,-0.0055174828
420,-0.007977363
421,0.0064089946
422,-0.0006614336
423,-0.0015169213
424,-0.003752626
425,0.008633157
426,-0.0023310406
427,0.0027737615
428,0.01640473
429,-0.0043494804
430,0.010866343
431,0.0002959787
432,-0.012322459
433,0.00033715816
434,0.00097478
435,0.0071919584
436,-0.005571203
437,0.0009692153
438,-0.002573494
439,0.012971665
440,0.0002784062
441,0.0059792562
442,0.018325422
443,0.012994984
444,0.009672669
445,0.0030876487
446,-0.013805961
447,-6.2644745e-06
448,-0.012207281
449,-0.00399127
450,-0.00036697884
451,0.012090497
452,0.0059807394
453,-0.0075730574
454,-0.009270033
455,0.009580289
456,-0.0025141814
457,-0.0034597295
458,-0.003320334
459,0.00832838
460,-0.0061868946
461,0.002746243
462,0.008789827
463,0.003193436
464,0.0065229814
465,0.012871578
466,0.0059827063
467,-0.014112893
468,-0.014069419
469,-0.0050069783
470,-0.012532824
471,0.0016443895
472,0.00306982
473,0.0036340726
474,-0.0052972334
475,0.003976642
476,-0.007889165
477,-0.011006312
478,-0.008011727
479,-0.0013968124
480,0.0064789494
481,-0.0011921407
482,0.0013190879
483,0.0014415871
484,0.0074479934
485,0.0008339685
486,0.014727456
487,0.018776635
488,-0.008411532
489,0.006873246
490,-0.0105294455
491,-0.012604808
492,0.015318112
493,0.0049249455
494,-0.006901471
495,-0.00863593
496,0.0050386162
497,0.00094574754
498,-0.013180877
499,0.002591703
500,-0.0053424835
501,0.0036272423
502,-0.0020541504
503,-0.0071786135
504,0.00941688
505,0.0037908752
506,0.016703995
507,-0.0074188504
508,0.0013381841
509,-0.009224844
510,0.011028274
511,-0.00908672
512,-0.011360855
513,0.0017120892
514,0.0019295246
515,0.0041369842
516,0.008112505
517,-0.0030577118
518,-0.0011175679
519,-0.0008839845
520,0.0044792457
521,0.00024769743
522,0.01449857
523,0.009372551
524,-1.9578176e-05
525,-0.013390894
526,-0.004337286
527,0.009207088
528,-0.008194338
529,-0.0072177015
530,0.007413106
531,-0.002651222
532,-0.00012363115
533,-0.00017888569
534,-0.00270766
535,-0.011831024
536,-0.015058764
537,0.0092099225
538,-0.005776131
539,0.0045484826
540,-0.010786607
541,-0.0033920398
542,0.017364008
543,-0.009490851
544,-0.011881471
545,-0.009330547
546,0.0127377305
547,-0.0023604475
548,0.0054903
549,-0.0075555635
550,-0.016784905
551,-0.0049729124
552,0.014171886
553,-0.0040776045
554,0.01912769
555,0.0067019365
556,0.010579574
557,0.01246364
558,0.0035099036
559,-0.0026685435
560,0.0045846496
561,-0.013241616
562,-0.0014171939
563,0.016434161
564,0.0035791511
565,0.014104832
566,0.016985187
567,-0.0026287623
568,-0.00801446
569,-0.019824995
570,0.0010906652
571,0.008933563
572,-0.0032896479
573,-0.0032996694
574,0.01082203
575,-0.014289797
576,-0.004669409
577,-0.0007438933
578,0.009609889
579,-0.0075724376
580,-0.003207594
581,0.0036477456
582,-0.012879458
583,-0.0044560744
584,-0.00064622
585,-0.013901045
586,0.01216013
587,0.018056529
588,0.0040863855
589,-0.0036108596
590,-0.018632667
591,0.0034292333
592,-0.0014966675
593,0.015011928
594,0.0057495004
595,0.008304365
596,-0.0049167587
597,-0.00791977
598,0.0013169007
599,-0.00088105677
600,-8.206639e-05
601,0.014275788
602,0.0012051102
603,0.0072021745
604,-0.007195978
605,0.0030001816
606,0.00261316
607,-0.0017053826
608,0.011357297
609,-0.0018039546
610,-0.005897256
611,0.0022085803
612,-0.007994171
613,0.00071897125
614,0.009026413
615,-0.016034734
616,-0.013874501
617,-0.018821258
618,0.010014103
619,-0.0062830094
620,0.013623377
621,0.012598188
622,-0.0020327552
623,0.004298742
624,-0.0042764265
625,0.0044624107
626,-0.004595558
627,-0.012108297
628,-0.009690718
629,0.0037368862
630,0.009263029
631,-0.0060154623
632,0.011735123
633,-0.008712798
634,-0.008640201
635,-0.0026942927
636,-0.0064188275
637,0.013471832
638,-0.0066519505
639,-0.019521425
640,0.0011103532
641,0.0113467155
642,0.017920928
643,-0.00137303
644,-0.009912791
645,-0.006539922
646,0.012221826
647,-0.0049349894
648,0.008601815
649,-0.01290934
650,-0.016366074
651,0.01894975
652,-0.008370823
653,0.013335139
654,-0.0009985564
655,0.0027593467
656,-0.007940839
657,-0.0071433512
658,-0.0023276196
659,-0.012679388
660,0.0013082115
661,-0.0018667537
662,-0.0026178046
663,-0.018102996
664,0.0022389435
665,-0.013151195
666,0.008131378
667,0.0049120807
668,-0.006650536
669,-0.0031934762
670,-0.005095985
671,-0.0057865484
672,-0.000281008
673,-0.0025828762
674,-0.00527643
675,-0.0025439484
676,-0.0016222469
677,-0.007494996
678,-0.00011134556
679,-0.0005360927
680,-0.004597228
681,-0.009697484
682,0.012407404
683,-0.014677453
684,-0.010898747
685,-0.002265878
686,0.00041278062
687,-9.677092e-05
688,0.00041376465
689,-0.008660728
690,0.020286845
691,0.0045449613
692,-0.006818158
693,0.00944545
694,-0.0053369566
695,-0.0030031523
696,-0.0054161274
697,-0.0027674327
698,0.002216626
699,-0.014235995
700,0.017183406
701,-0.0018924384
702,-0.014785583
703,-0.00021327342
704,0.007998384
705,0.015931051
706,0.004018365
707,-0.0040281927
708,-0.0032088568
709,-0.0032924758
710,0.0016624252
711,-0.00970107
712,0.0005174668
713,-0.019674024
714,-0.010000043
715,0.00017110769
716,0.0039247335
717,0.014681431
718,-0.001860706
719,-0.015255748
720,-0.0016753691
721,0.008960668
722,0.005999573
723,-0.0011367408
724,-0.0027573663
725,0.006500172
726,-0.00013724297
727,-0.0033301322
728,-0.007827982
729,-0.0135464305
730,0.0034313411
731,0.015724374
732,-0.01703111
733,0.01732684
734,0.00019615986
735,0.003596728
736,-0.008058418
737,-0.002056441
738,0.016157674
739,-0.0016116994
740,-0.0060800007
741,-0.0020277353
742,0.005682771
743,0.010059997
744,-0.011401689
745,0.0050224722
746,0.018567681
747,-0.0031405108
748,0.016325586
749,0.00798163
750,0.008351843
751,0.0029881655
752,0.014994069
753,0.012868694
754,-0.005589888
755,0.0057116738
756,-0.008478831
757,-0.006958062
758,-0.018597342
759,-0.019032545
760,0.0056953337
761,0.0029142923
762,-0.006536063
763,-0.001429431
764,0.0011325453
765,-0.010538891
766,-0.008060232
767,0.0041953656
768,0.00081607245
769,-0.014242189
770,0.012130682
771,0.0020048844
772,-0.0051868362
773,-0.000700048
774,-0.005228846
775,0.003177977
776,0.00012061986
777,-0.0020715075
778,-0.00025043212
779,-0.0029490155
780,0.012335151
781,0.004396201
782,-0.0114183305
783,-0.0044702208
784,0.012709188
785,-0.0028165241
786,0.0050319587
787,-0.001968233
788,-0.0047858628
789,-0.004477139
790,0.005667181
791,-0.0042658476
792,-0.004018149
793,0.015039043
794,-0.01434888
795,-0.010624741
796,-0.005773159
797,-0.0009994206
798,-0.0035293149
799,-0.01185566
800,-0.016399948
801,-0.0026494365
802,-0.00030196126
803,-0.011440275
804,-0.016838502
805,0.010811407
806,0.003258742
807,0.0017903895
808,0.0066137225
809,0.0054456815
810,-0.012365303
811,-0.0030850833
812,0.0029220637
813,0.008204033
814,-0.0055235177
815,-0.017163254
816,-0.011613656
817,0.0061918823
818,0.010889779
819,-0.004453963
820,0.0024318076
821,-0.00069433684
822,-0.0036968037
823,-0.0051361294
824,0.004032488
825,-0.004899196
826,-0.012223378
827,-0.015149419
828,-0.0020459783
829,-0.00702837
830,-0.005661412
831,0.0016861133
832,0.003070784
833,-0.007324502
834,-0.013082425
835,0.0051327953
836,0.0058553857
837,0.012463816
838,-0.009289776
839,0.0025983113
840,0.0087988125
841,-0.010424846
842,-0.012127751
843,-0.0007899334
844,-0.0014169356
845,-0.01675965
846,0.006650025
847,0.011745504
848,0.0075055915
849,0.014621609
850,-0.0051690084
851,-0.00075703074
852,0.0014676754
853,-0.012609392
854,0.011748318
855,0.008366747
856,-0.0070232847
857,-0.00096329255
858,-0.015514718
859,-7.5293974e-05
860,0.0120760305
861,-0.00046248082
862,-0.010314164
863,0.004564254
864,-0.0072246343
865,-0.0041944236
866,-0.0061767003
867,-0.015008082
868,0.0062368447
869,-0.002791661
870,0.009101825
871,-0.0140028745
872,-0.0082953
873,-0.01324736
874,0.0071925265
875,-0.008818344
876,0.010712745
877,-0.0010009857
878,0.003068592
879,0.00157459
880,0.010674699
881,-0.014083162
882,0.018149965
883,-0.0034531672
884,0.00840715
885,-0.00073236844
886,0.009085541
887,-0.013164199
888,0.014845218
889,0.0036448368
890,0.01756164
891,-0.006576511
892,0.0114479335
893,0.00240147
894,0.014168263
895,0.017849978
896,-0.0071258442
897,-0.00028108162
898,0.008066006
899,-0.010837161
900,-0.013648989
901,-0.011423211
902,-0.0054633557
903,0.0077262023
904,0.004505911
905,-0.0029804471
906,0.004392518
907,0.0034226682
908,0.0004906268
909,0.009706355
910,-0.0013254297
911,-0.010122142
912,0.018865116
913,-0.009944374
914,-0.008913822
915,0.010970107
916,-0.0071668113
917,-0.00062853476
918,0.007863455
919,0.0030971149
920,-0.012037793
921,0.01433416
922,-0.002558874
923,-0.017984748
924,0.0029983884
925,-0.0073890574
926,-0.0006809202
927,-0.011272447
928,-0.0067128157
929,-0.0021418391
930,-0.0056877374
931,-0.008674508
932,-0.0032315378
933,0.0062852725
934,0.00075154076
935,0.00125163
936,-0.00041036206
937,-0.012830008
938,0.011603599
939,0.009981369
940,-0.01321655
941,0.0026793766
942,0.0010809938
943,-0.0020193714
944,-0.012050256
945,-0.0075464016
946,-0.0037685318
947,0.01966132
948,-0.0019139807
949,-0.016470054
950,-0.0023767918
951,0.0018872832
952,-0.00043664884
953,0.0022108501
954,0.014944161
955,0.0029028726
956,0.0046445904
957,0.012242741
958,-0.0024435432
959,0.010539945
960,-0.008823505
961,-0.012316476
962,-2.7132357e-05
963,0.0014737799
964,0.0028110985
965,-0.00783245
966,-0.0013370739
967,0.007965595
968,0.012642595
969,0.0076776333
970,0.0004669276
971,-0.006207414
972,-0.0055166497
973,0.0025320123
974,0.0029587867
975,-0.0048791883
976,0.0006729651
977,-0.007423393
978,-0.0029245496
979,0.005952144
980,0.003093151
981,0.005142107
982,-0.0071422886
983,0.009847526
984,-0.006793501
985,-0.009994569
986,0.004552015
987,0.0017081315
988,-0.010473005
989,0.00063148065
990,0.005620181
991,-0.0007444238
992,0.009002181
993,0.0037167496
994,0.0038521437
995,-0.0016716492
996,0.015128453
997,-0.0044723502
998,-0.0006838864
999,0.0032236732
1000,0.010050454
1001,0.00027335147
1002,0.0055374946
1003,-0.007554915
1004,-0.0062062973
1005,0.005117435
1006,0.0134749105
1007,0.005154555
1008,0.0088341385
1009,-0.002502944
1010,0.0088288225
1011,0.011804106
1012,0.0012830148
1013,-0.003106004
1014,-0.0069220257
1015,-0.0015524954
1016,5.6737248e-05
1017,-0.011754531
1018,0.005888471
1019,0.00683214
1020,-0.00047482149
1021,0.0011551926
1022,0.017381072
1023,-0.00046949348
1024,-0.0053534037
1025,-0.005284796
1026,0.00038034588
1027,0.0046617673
1028,0.0027038578
1029,0.01489309
1030,0.011529906
1031,0.010226211
1032,0.014229029
1033,0.009663838
1034,0.0005221332
1035,0.007966839
1036,0.008296769
1037,0.0047954423
1038,0.009695977
1039,0.0019858112
1040,-0.011823237
1041,0.0040617264
1042,-0.0022331944
1043,0.0013083006
1044,-0.0022568523
1045,0.01401938
1046,-0.004755007
1047,-0.008126961
1048,-0.010550189
1049,0.0028640945
1050,0.008371655
1051,0.0062272097
1052,-0.015626626
1053,-0.00072124694
1054,-0.013547156
1055,-0.0022342366
1056,-0.0057154098
1057,-0.006351808
1058,9.7941294e-05
1059,0.0132040195
1060,-0.010248092
1061,-0.0015854639
1062,-0.0034533415
1063,0.0015471041
1064,0.0044905324
1065,-0.009005161
1066,-0.0112786535
1067,-0.0039081774
1068,0.018728742
1069,0.005227368
1070,0.010643491
1071,0.013153524
1072,0.011933011
1073,0.017049307
1074,0.008844083
1075,0.004943245
1076,0.013286762
1077,-0.014374121
1078,-0.012849626
1079,0.0033593785
1080,0.009003213
1081,0.004084328
1082,-0.00051902124
1083,0.00908128
1084,0.010901941
1085,-0.0008557622
1086,-0.004814301
1087,-0.011423231
1088,-0.016653117
1089,0.0014818453
1090,-0.017218057
1091,-0.0017225995
1092,0.0040362338
1093,-0.0036554483
1094,-0.010055841
1095,0.013531725
1096,0.006008231
1097,-0.013980021
1098,0.003333141
1099,0.006516641
1100,0.007267516
1101,-0.012616699
1102,0.005818241
1103,-0.004121903
1104,0.005509827
1105,0.007542726
1106,0.0047426135
1107,-0.0015563506
1108,-0.018678453
1109,0.002632346
1110,0.0016697001
1111,0.006781674
1112,0.010773578
1113,-0.008481081
1114,-0.0024040071
1115,-0.0049290457
1116,-0.0021794548
1117,0.00915683
1118,0.005560179
1119,-0.0009749126
1120,-0.0003228227
1121,-0.006342853
1122,-0.009510681
1123,-0.0039315373
1124,-0.007592761
1125,-0.018567186
1126,5.7607136e-05
1127,0.018280575
1128,0.012554243
1129,0.0032589422
1130,0.0017203917
1131,0.013135026
1132,-0.0077832304
1133,-0.011296062
1134,-0.0010316353
1135,0.0027911947
1136,-0.00078963523
1137,0.015149276
1138,0.011919649
1139,0.00266498
1140,0.007834154
1141,-0.002338544
1142,0.0064676795
1143,-0.0020911903
1144,0.0011443776
1145,-0.011413813
1146,-6.8595364e-05
1147,-0.0013714533
1148,-0.0035493535
1149,0.013816763
1150,0.014741715
1151,0.0017867448
1152,0.012256879
1153,-0.0024973953
1154,0.008713154
1155,0.01409756
1156,0.014151716
1157,0.008596773
1158,0.0064997617
1159,-0.008823288
1160,0.017158411
1161,-0.0023895032
1162,-0.0029126455
1163,0.0060370327
1164,0.013061581
1165,0.0040818406
1166,0.0004977305
1167,0.008814593
1168,-0.0033551794
1169,0.008317648
1170,-0.0073637026
1171,0.005729742
1172,0.014084507
1173,0.01008787
1174,0.00916207
1175,0.0018431318
1176,-0.010880909
1177,-0.0035526908
1178,-0.0012951266
1179,6.7214845e-05
1180,-0.007264307
1181,0.0019859762
1182,-0.01675489
1183,-0.013844328
1184,0.01051926
1185,0.006703115
1186,-0.0055564665
1187,-0.0005445879
1188,0.010496957
1189,0.01706721
1190,0.0022756108
1191,-0.0035342446
1192,0.012067747
1193,-0.015713645
1194,0.007115782
1195,0.01909538
1196,0.0106320465
1197,0.007821775
1198,0.01884765
1199,-0.0021072729
1200,-0.005241807
1201,0.003859795
1202,-0.015235179
1203,-0.004891719
1204,-0.0015822346
1205,0.002607255
1206,0.006590464
1207,0.0043665455
1208,0.010820862
1209,-0.006656577
1210,0.0028369376
1211,0.0051312507
1212,0.0018025804
1213,-0.010403886
1214,0.009258834
1215,0.018700358
1216,0.005233092
1217,0.0075254715
1218,0.00026356336
1219,0.011502987
1220,0.0015298942
1221,0.0036789833
1222,-0.0127855595
1223,0.00937494
1224,0.00597265
1225,-0.0010521299
1226,-0.003631736
1227,0.016191239
1228,-0.006726208
1229,0.0030343563
1230,0.009800601
1231,0.0147813065
1232,0.00991405
1233,0.0059246127
1234,0.010939036
1235,0.0036061823
1236,-0.0012713745
1237,-0.008774852
1238,0.008058732
1239,0.007695899
1240,0.009767092
1241,0.00090613944
1242,0.0016811034
1243,-0.0036016305
1244,-0.018098917
1245,0.0059078257
1246,-0.0030709377
1247,-0.002237176
1248,0.0014498831
1249,-0.010401257
1250,-0.0033962773
1251,-0.001620519
1252,0.006366134
1253,0.006671004
1254,-0.007418821
1255,0.0010895544
1256,0.009751455
1257,-0.0032028316
1258,-0.019936673
1259,-0.0037311702
1260,0.010471432
1261,0.004470162
1262,0.008874527
1263,-0.0024116538
1264,0.008740757
1265,0.0048608235
1266,0.012071393
1267,0.00023623362
1268,0.0082358
1269,-0.008604143
1270,5.0270217e-05
1271,-0.002601463
1272,0.019096978
1273,-0.0033845422
1274,0.016548738
1275,-0.013168923
1276,0.012369424
1277,0.0031710665
1278,0.017655576
1279,-0.0016130935
1280,0.0025899874
1281,0.010207684
1282,-0.010080233
1283,-0.005356606
1284,0.00018275992
1285,-0.00051849
1286,7.9492886e-05
1287,0.003996236
1288,0.01324654
1289,0.016442347
1290,-0.0016703864
1291,-0.0057744947
1292,0.0038846887
1293,-0.0018184097
1294,0.0018320474
1295,-0.0077974163
1296,0.00061917154
1297,-0.01882516
1298,-0.0031218198
1299,0.016749965
1300,0.004124112
1301,0.014303345
1302,0.0043102126
1303,-0.009389104
1304,-0.00110898
1305,-0.017186921
1306,-0.0022918934
1307,-0.00021840549
1308,-0.009948326
1309,-0.0071570687
1310,-0.0020270888
1311,-0.006091995
1312,-0.0030533816
1313,-0.009406103
1314,-0.0029205235
1315,0.004213533
1316,-0.012120775
1317,0.017522164
1318,0.00013587813
1319,-0.012822824
1320,-0.0010505357
1321,-0.014492666
1322,-0.011439758
1323,-0.006015041
1324,-0.012703607
1325,0.0030415147
1326,0.004733987
1327,-0.00674751
1328,-0.008092183
1329,-0.0017883062
1330,0.004021381
1331,0.0047715004
1332,-0.018172087
1333,-0.0014331389
1334,0.001063669
1335,-0.006105734
1336,-0.003799261
1337,-0.006789979
1338,-0.0047095
1339,-0.01239089
1340,0.0029360743
1341,-0.00065338344
1342,-0.0068023535
1343,0.014720372
1344,-0.0020412167
1345,-0.00048719003
1346,-0.011287784
1347,0.0035175884
1348,0.01705544
1349,0.01428097
1350,-0.01132908
1351,-0.0057331473
1352,0.0027287113
1353,-0.017705418
1354,0.010489868
1355,-0.0011397345
1356,0.011370172
1357,-0.0023488703
1358,0.011224129
1359,-0.014342393
1360,0.010250361
1361,-0.00271983
1362,0.0006024599
1363,-0.0018707605
1364,-0.015273253
1365,0.0018581015
1366,0.007840333
1367,0.00017971295
1368,-0.006566414
1369,-0.018161818
1370,-0.0019643533
1371,0.01302044
1372,0.012881059
1373,0.0024572115
1374,-0.006112152
1375,-0.0049107336
1376,0.019637717
1377,-0.00549579
1378,0.0146839935
1379,-0.009624994
1380,0.004270102
1381,0.004525553
1382,-0.01961138
1383,-0.009474491
1384,0.008697978
1385,-0.0036581617
1386,0.005801902
1387,0.008471502
1388,-0.00910437
1389,-0.0048479876
1390,-0.013795482
1391,0.0036116936
1392,0.0047510946
1393,0.015730824
1394,0.0116473185
1395,0.0031196426
1396,-0.009419925
1397,2.8257924e-05
1398,0.018202066
1399,-0.0022363877
1400,-0.0046679964
1401,0.006409937
1402,-0.00029003937
1403,-0.008493781
1404,-0.0022088455
1405,-0.0128029715
1406,0.0055681625
1407,0.010675843
1408,-0.0009960034
1409,0.008667383
1410,-0.0013559547
1411,0.017791783
1412,-0.007806649
1413,0.00312349
1414,-0.0037741398
1415,0.0032971909
1416,-0.004431337
1417,-0.006159127
1418,-0.0007466427
1419,-0.0052863485
1420,-0.0124117695
1421,-0.0021134368
1422,0.0009976951
1423,0.018656943
1424,0.0026091852
1425,-0.008421607
1426,-0.00011270187
1427,-0.013863061
1428,0.0063140867
1429,0.012556042
1430,-0.014776172
1431,-0.016044373
1432,0.004666855
1433,0.0022739843
1434,-0.011654948
1435,0.011660715
1436,0.0013338078
1437,0.0056132213
1438,-0.00012818714
1439,-0.010328405
1440,-0.0045214235
1441,-0.016413191
1442,0.009688917
1443,0.010341301
1444,-0.006506231
1445,0.012400712
1446,0.012461414
1447,0.005449085
1448,-0.0010473416
1449,0.0069174008
1450,-0.0056873537
1451,0.0026431107
1452,-0.005364885
1453,0.0017271497
1454,-0.00015006577
1455,-0.0002850736
1456,0.006540725
1457,-0.004101275
1458,0.012906983
1459,-0.003940789
1460,0.0026077793
1461,-0.016679484
1462,-0.0032532753
1463,0.010065867
1464,0.0061608623
1465,0.0050921952
1466,0.0017321318
1467,0.014454124
1468,-0.0011978834
1469,0.010597366
1470,-0.0021299934
1471,-0.014218634
1472,0.0094100265
1473,0.008276484
1474,0.01200883
1475,-0.017592847
1476,0.0043322425
1477,0.005912232
1478,-0.01060966
1479,0.010434846
1480,-0.004085696
1481,-0.01391287
1482,-0.011764182
1483,-0.00416846
1484,0.0037950529
1485,-0.0019354719
1486,-0.005356099
1487,0.0028047794
1488,-0.0055698603
1489,0.014372685
1490,0.0061111557
1491,0.0034510219
1492,0.006879798
1493,-0.00033272436
1494,0.0057419357
1495,0.0077704466
1496,-0.0031341973
1497,-0.014966771
1498,0.0003632687
1499,0.015146588
1500,-0.0026362047
1501,0.0033412846
1502,-0.0075460565
1503,0.0046382905
1504,-0.002198517
1505,0.013318673
1506,0.012280812
1507,-0.0023463867
1508,-0.0074244156
1509,-0.0017559719
1510,0.0037396746
1511,-0.0033304202
1512,0.013372926
1513,-0.0014396372
1514,-0.00026974545
1515,-0.005000207
1516,-0.0096592475
1517,0.0036587093
1518,0.00661253
1519,0.0070388177
1520,-0.001318044
1521,-0.0021650528
1522,0.009115083
1523,-0.015700396
1524,-0.007982871
1525,-0.014573993
1526,-0.0027218717
1527,-0.011427033
1528,-0.014720655
1529,-0.0025147563
1530,-0.005820326
1531,-0.017905293
1532,0.001266376
1533,-0.017997358
1534,-0.013204247
1535,-0.0019108533
1536,-0.014851329
1537,0.011905713
1538,0.00616949
1539,-0.015741576
1540,-0.009238761
1541,-0.01021217
1542,0.017829137
1543,-0.008608585
1544,-0.0046231877
1545,0.00031400885
1546,-0.019705437
1547,0.0041554994
1548,0.014990178
1549,0.0025346228
1550,-0.00014366391
1551,0.0020203223
1552,7.563885e-05
1553,-0.008989745
1554,-0.003435983
1555,-0.004115511
1556,-0.010098034
1557,-0.0139967
1558,-0.015482913
1559,0.0058799884
1560,-0.0108771855
1561,-0.00034254062
1562,-0.0032446412
1563,0.013405819
1564,-0.011504116
1565,0.010486221
1566,0.005233575
1567,-0.0060996288
1568,0.016280638
1569,-0.0036524306
1570,-0.002940092
1571,0.0030119338
1572,-0.0060849153
1573,0.01506121
1574,-0.0061465427
1575,-0.0064536124
1576,-0.0126474695
1577,-0.009628888
1578,-0.012306778
1579,-0.002138638
1580,0.008862731
1581,-0.0016598254
1582,0.005616779
1583,-0.005294423
1584,-0.00338228
1585,0.013328889
1586,-0.0013691256
1587,-0.0016308153
1588,-0.00484226
1589,-0.0023693286
1590,0.0047540898
1591,-0.004597366
1592,0.004305532
1593,-0.0101177
1594,-0.0020440118
1595,-0.006923304
1596,0.005962543
1597,0.013521188
1598,-0.0008429132
1599,0.0001499935
1600,0.007220275
1601,-0.009818379
1602,-0.010283453
1603,-0.012508707
1604,-0.00049197645
1605,0.0017261454
1606,0.007447755
1607,0.010025364
1608,-0.008092344
1609,-0.0003551653
1610,-0.01715099
1611,0.013615791
1612,0.011436255
1613,-0.004307535
1614,-0.016041594
1615,0.010448362
1616,-0.007007728
1617,-0.003713445
1618,-0.0023758383
1619,0.005652913
1620,0.00819616
1621,0.00523268
1622,-0.009180448
1623,-0.0010652638
1624,-0.0042148004
1625,0.0066145896
1626,-0.00925713
1627,-0.0048484793
1628,0.002047471
1629,0.0022072084
1630,-0.0030983437
1631,0.00472454
1632,0.009789101
1633,0.0026147452
1634,0.005220574
1635,-0.009810886
1636,-0.017064227
1637,-0.012581595
1638,0.016348535
1639,-0.018625034
1640,-0.010205316
1641,0.00889161
1642,-0.0035214971
1643,-0.0063591823
1644,-0.0041462807
1645,0.0038958224
1646,0.0016729627
1647,0.0091299135
1648,-2.9367096e-05
1649,-0.011913136
1650,-0.0002456013
1651,-7.9405625e-05
1652,0.0071837422
1653,-0.009459709
1654,-0.0003397791
1655,0.002602837
1656,0.00038915506
1657,0.012548076
1658,-0.0009246799
1659,-0.011898716
1660,0.005513963
1661,-0.008613428
1662,0.013775955
1663,0.00074638746
1664,0.00033067825
1665,-0.0058655464
1666,-0.0006100405
1667,0.013445328
1668,-0.014908767
1669,0.013976414
1670,-0.00696936
1671,0.010516128
1672,0.0077344524
1673,0.017076446
1674,0.011598844
1675,-0.0022431859
1676,-0.004365296
1677,-0.0024328828
1678,-0.00013472006
1679,0.0031125322
1680,0.003543732
1681,0.0011930985
1682,-0.0043937345
1683,-0.0028920695
1684,0.003629559
1685,0.0047301645
1686,0.019391319
1687,-0.0063557383
1688,0.0055768136
1689,-0.010868359
1690,-0.00011719465
1691,0.008667979
1692,0.013204713
1693,-0.0029229524
1694,0.0018885396
1695,-0.007495342
1696,-0.011097395
1697,0.006022812
1698,0.0020834506
1699,-0.003766564
1700,0.011930569
1701,-0.013044954
1702,0.015209404
1703,0.003401257
1704,-0.008867822
1705,0.014624902
1706,-0.0076921103
1707,0.0069046924
1708,-0.009883086
1709,-0.00080784364
1710,0.011420418
1711,0.009654596
1712,0.0016970477
1713,0.011045142
1714,0.017305924
1715,-0.009358853
1716,-0.004628208
1717,0.0019047639
1718,-0.014714333
1719,-0.0021556162
1720,0.0041372282
1721,0.015252526
1722,0.011915254
1723,-0.0042878552
1724,0.0006810167
1725,-0.004687123
1726,0.0067952513
1727,-0.0064119613
1728,0.00061158487
1729,0.0027642765
1730,-0.00063884776
1731,0.003452249
1732,-0.0017142682
1733,0.003686322
1734,0.0020784868
1735,0.007888212
1736,-0.008868775
1737,-0.008460332
1738,0.009717906
1739,-0.004099115
1740,-0.0039254567
1741,-0.006482287
1742,-0.0035006488
1743,0.002910988
1744,0.015118693
1745,-0.0014506074
1746,-0.017267784
1747,0.0029250975
1748,0.0025059467
1749,0.0013171919
1750,0.00056184334
1751,0.0086663915
1752,0.008306375
1753,0.0033540528
1754,0.0075745457
1755,0.00039260756
1756,0.0089403875
1757,-0.013844313
1758,0.002038414
1759,0.007894119
1760,-0.007207648
1761,0.015996004
1762,-0.017452197
1763,-0.0020361685
1764,0.0011253207
1765,-0.009728554
1766,-0.006835819
1767,0.011290514
1768,0.0020390819
1769,-0.018377934
1770,-0.013059222
1771,-0.0043026325
1772,-0.0004943564
1773,-0.004624083
1774,-0.019223664
1775,0.012755881
1776,0.012790425
1777,0.009761964
1778,0.00013555532
1779,0.01283942
1780,-0.011740806
1781,-0.011386001
1782,0.017286262
1783,-0.017685374
1784,0.014489121
1785,-0.006116357
1786,0.004786072
1787,-0.000342103
1788,-6.0917846e-05
1789,0.0010796144
1790,-0.0026414143
1791,-0.01238023
1792,-0.0124700675
1793,0.008809355
1794,0.01229714
1795,-0.0035708488
1796,-0.011103108
1797,0.008368587
1798,-0.0016212991
1799,0.013405229
1800,0.00659631
1801,0.0005505296
1802,-0.0042403713
1803,0.013386269
1804,0.0071484777
1805,0.009007194
1806,-0.0019619013
1807,-0.006022088
1808,0.008605362
1809,-0.005046501
1810,0.008583046
1811,-0.009241154
1812,-0.014018001
1813,0.019337192
1814,0.0006511166
1815,-0.012282376
1816,0.017430535
1817,-0.0027015181
1818,0.0018642817
1819,0.0070208358
1820,0.00707623
1821,-0.018323837
1822,-0.004321803
1823,-0.014505055
1824,-0.0042226557
1825,-0.0066108215
1826,-0.008050192
1827,0.008120877
1828,0.0032178992
1829,0.0034333302
1830,-0.007986379
1831,-0.0036361117
1832,0.004384873
1833,0.012097974
1834,0.013958162
1835,-0.00856653
1836,0.009412497
1837,0.014592381
1838,-0.0001542666
1839,0.00024553182
1840,-0.0018130782
1841,-0.0029354675
1842,0.0007405399
1843,-0.00018772781
1844,0.0036487728
1845,-0.0041298377
1846,-0.012472378
1847,0.008749072
1848,-0.00965658
1849,-0.0050505134
1850,-0.010925078
1851,-0.007984163
1852,-0.009905798
1853,0.0024659105
1854,-0.0051992554
1855,0.009073677
1856,-0.008548002
1857,0.016248971
1858,-0.0055595357
1859,-0.009918311
1860,-0.008093222
1861,-0.0022229266
1862,-0.013040991
1863,0.0018876842
1864,-0.0068357335
1865,0.006108086
1866,0.003213144
1867,-0.0034211152
1868,0.012294793
1869,0.0006924543
1870,-0.0013872877
1871,-0.004275838
1872,-0.0016015051
1873,-0.004144708
1874,-0.005486461
1875,0.0060850414
1876,0.0041032466
1877,0.011085481
1878,0.004261097
1879,-0.0022037916
1880,0.015273475
1881,-0.00039183887
1882,-0.00893447
1883,-0.00017973584
1884,-0.010218735
1885,-0.005748984
1886,-0.007032497
1887,0.00059655163
1888,-0.016012918
1889,0.012238631
1890,-0.0009623423
1891,0.015194859
1892,-0.005984279
1893,-0.0035589237
1894,0.0016510249
1895,-0.012342876
1896,0.014014212
1897,0.008617025
1898,0.0010705449
1899,-0.0142060965
1900,0.011678078
1901,-0.0011182888
1902,0.003846216
1903,0.005373997
1904,0.0035510606
1905,0.014767587
1906,0.00083116785
1907,0.009055126
1908,0.0057793087
1909,-0.0034961784
1910,-0.014229605
1911,-0.0059351423
1912,-0.016245345
1913,0.012652559
1914,0.013859571
1915,0.015356445
1916,-0.008947955
1917,0.01225547
1918,-0.0065852446
1919,-0.010665557
1920,0.016673079
1921,-0.014373369
1922,-0.00438609
1923,0.0006573815
1924,-0.008225142
1925,-0.0009801044
1926,-0.0048406324
1927,-0.009390977
1928,0.006267439
1929,0.0144327255
1930,0.0159014
1931,0.01632866
1932,0.0027214207
1933,-0.009452877
1934,-0.01237636
1935,0.0027020616
1936,0.004698215
1937,-0.00022707999
1938,-0.011057654
1939,-0.0057633244
1940,-0.00061374885
1941,-0.013144958
1942,-0.018093126
1943,-0.003953904
1944,-0.0030594643
1945,0.013743244
1946,0.0010049443
1947,0.011039711
1948,-0.0054436885
1949,-0.0048902044
1950,0.014988578
1951,-0.0034420388
1952,0.009151482
1953,0.016170098
1954,-0.017265664
1955,-0.011408512
1956,-0.0019914582
1957,-0.0051427833
1958,0.002774335
1959,-0.008209204
1960,-0.0019253029
1961,-0.014838062
1962,0.0022626743
1963,-0.009636745
1964,0.012212126
1965,0.0044675726
1966,0.0021608986
1967,0.010472768
1968,-0.001426815
1969,-0.0054233787
1970,0.012705051
1971,0.0002690756
1972,-0.0013462936
1973,0.016588926
1974,-0.005489156
1975,0.011097635
1976,-0.004288126
1977,0.016844293
1978,-0.00661906
1979,0.018739583
1980,-0.0065916604
1981,-0.01550359
1982,-0.0033831352
1983,0.0025145563
1984,0.0087504275
1985,0.0061838315
1986,0.00973233
1987,0.0037409738
1988,0.009478763
1989,0.009421637
1990,0.004442862
1991,-0.0090338765
1992,0.016251424
1993,-0.0079336455
1994,-0.0057513183
1995,-0.003850376
1996,-0.0008637316
1997,-0.002738002
1998,0.008962303
1999,-0.0014639754
2000,0.0034080541
2001,0.0018264079
2002,-0.0032021478
2003,0.011756149
2004,-0.001679978
2005,-0.008942759
2006,-0.010035523
2007,-0.0012290573
2008,-0.009307025
2009,-0.0036452115
2010,0.014997014
2011,0.010900659
2012,0.00902536
2013,0.0058412747
2014,6.808072e-05
2015,0.008939026
2016,0.0049318564
2017,0.014075722
2018,0.0021116084
2019,-0.009535162
2020,-0.007439364
2021,0.005182352
2022,0.010708577
2023,0.0006885278
2024,-0.0037401314
2025,-0.003113403
2026,-0.00409601
2027,0.009254512
2028,-0.002052676
2029,0.0074671195
2030,-0.004562616
2031,-0.0044521187
2032,0.015238202
2033,-0.010902023
2034,-0.009946791
2035,0.017680125
2036,0.007500383
2037,-0.0030210412
2038,0.011354349
2039,0.0192435
2040,-0.005539805
2041,-0.012225969
2042,-0.0017728793
2043,-0.012488133
2044,-0.008582104
2045,-0.0018854376
2046,0.0050855246
2047,0.010750502
2048,-0.0041397465
2049,-0.0031021528
2050,-0.0018780979
2051,0.006827418
2052,-0.013878449
2053,0.008688096
2054,-0.0013359155
2055,-0.014993846
2056,0.005541044
2057,0.011744097
2058,0.014060343
2059,-0.008936853
2060,-0.014053602
2061,0.003715729
2062,0.0056772167
2063,0.009777223
2064,-0.008623053
2065,-0.00015223482
2066,0.016693713
2067,-0.007678443
2068,-0.012234961
2069,-0.0063772066
2070,-0.010753517
2071,-0.0035425453
2072,0.0013044593
2073,0.001634807
2074,-0.016279109
2075,-0.0079151485
2076,-0.0032759162
2077,-0.007521831
2078,0.010656959
2079,-0.015857136
2080,-0.002942895
2081,-0.013326638
2082,0.02390536
2083,0.0058068493
2084,-0.010629536
2085,0.0016244503
2086,-0.0024870755
2087,-0.0048278375
2088,-0.0029202148
2089,0.0051171416
2090,-0.008786535
2091,-0.0019107708
2092,0.008518486
2093,0.0002996598
2094,-0.0099406
2095,0.00060673506
2096,0.0045955176
2097,-0.0025350593
2098,-0.007297762
2099,-0.018891528
2100,0.006859336
2101,-0.009232533
2102,-0.0033451275
2103,0.025724376
2104,-0.0012339932
2105,-0.006674432
2106,0.008747219
2107,-0.0037591709
2108,-0.0063917832
2109,-0.0104760025
2110,0.0028317308
2111,0.0031850317
2112,-0.008514559
2113,0.018140245
2114,-0.008307472
2115,-0.0073280362
2116,0.0107207345
2117,0.0059055802
2118,0.0034314552
2119,-0.014232134
2120,0.00011370479
2121,0.006502965
2122,-0.013712931
2123,-0.008820864
2124,0.002967748
2125,0.0060726996
2126,0.0046565155
2127,-0.0036581296
2128,0.0114060985
2129,0.0015336522
2130,-0.015106727
2131,0.00229179
2132,0.012861173
2133,-0.0008871175
2134,-0.0031671626
2135,-0.00423755
2136,0.00084699964
2137,0.0031991685
2138,-0.008245947
2139,0.003671712
2140,-0.0073886174
2141,-0.009844647
2142,-0.0054210136
2143,-0.008085156
2144,0.009639119
2145,-0.0047692303
2146,0.010060332
2147,-0.0039940644
2148,-0.0032073536
2149,0.0024157527
2150,-0.007934208
2151,0.0028920115
2152,-0.019741917
2153,-0.0057071135
2154,0.008620849
2155,0.010465506
2156,-0.00049743947
2157,0.0021065057
2158,0.0031358034
2159,0.01150564
2160,-0.0034870931
2161,0.005465989
2162,-0.005370289
2163,0.0069925142
2164,0.0029300402
2165,0.00023095787
2166,0.010495237
2167,-0.011483678
2168,-0.014102642
2169,-0.006921958
2170,-0.008221477
2171,-0.009520546
2172,0.000544986
2173,0.002777428
2174,0.01216039
2175,0.007077919
2176,-0.010094537
2177,0.0030155794
2178,0.007493943
2179,-0.00876043
2180,-0.007131076
2181,-0.010663954
2182,-0.010340927
2183,-0.0027717906
2184,-0.010690285
2185,-0.0054608556
2186,0.013639625
2187,0.010450038
2188,0.0013590633
2189,-0.013428451
2190,-0.004302919
2191,0.0014615563
2192,-0.0027920334
2193,-0.008513127
2194,-0.0094059715
2195,-0.009132165
2196,0.018224545
2197,-0.0006056286
2198,0.012795041
2199,-0.011385532
2200,-0.012313028
2201,0.01151334
2202,-0.0077385306
2203,0.0027367324
2204,0.007554533
2205,7.274036e-05
2206,0.016851071
2207,-0.01875804
2208,0.009140117
2209,-0.004057696
2210,-0.0030876142
2211,0.008883638
2212,0.001092301
2213,0.0084795
2214,-0.017639942
2215,-0.01210488
2216,0.0015820849
2217,0.0028500918
2218,0.001009511
2219,-0.0062878155
2220,0.0047775377
2221,-0.0010438957
2222,-0.007599269
2223,-0.009530521
2224,0.011763739
2225,0.013183687
2226,0.011950743
2227,0.0043747537
2228,0.007567853
2229,0.014768776
2230,0.0065454184
2231,-0.0028428389
2232,-0.01915461
2233,-0.014882234
2234,0.002373815
2235,-0.006956049
2236,-0.0020754144
2237,0.006968607
2238,0.00532137
2239,0.009809207
2240,0.006759381
2241,-0.009044642
2242,0.002715263
2243,0.009304773
2244,0.008335168
2245,-0.00082042057
2246,-0.002661544
2247,-0.0040249974
2248,0.009815393
2249,0.00075275643
2250,-0.0061147884
2251,0.014805101
2252,0.0037041912
2253,-0.012307796
2254,0.0052740355
2255,-0.0034263586
2256,-0.009102127
2257,-0.0054648793
2258,0.010147336
2259,-0.0007244465
2260,0.0075184163
2261,0.013480157
2262,-0.00362298
2263,0.010030575
2264,-0.01596127
2265,-0.014159339
2266,0.0075166016
2267,0.006155071
2268,-0.0031955189
2269,-0.012430289
2270,-0.010555355
2271,-0.002473373
2272,0.0031036953
2273,-0.0044786
2274,-0.0042000967
2275,0.0048875795
2276,0.0076520145
2277,0.00067856547
2278,-0.005210632
2279,-0.0037033777
2280,-0.00720074
2281,-0.0107805915
2282,0.002638821
2283,-0.001801801
2284,0.0021740228
2285,0.0004940997
2286,-0.016499594
2287,0.0026943742
2288,0.006586743
2289,-0.0036362836
2290,-0.008542657
2291,0.004771195
2292,-0.0028261936
2293,0.003308715
2294,0.009353947
2295,0.010440282
2296,5.599708e-05
2297,-0.0016704445
2298,-0.00092873693
2299,-0.012139403
2300,0.0046214066
2301,0.010512339
2302,0.0025000742
2303,0.013732278
2304,0.008833103
2305,0.004451796
2306,0.0009957383
2307,-0.0012446308
2308,0.011236815
2309,-0.0028654854
2310,-0.018780917
2311,0.009235153
2312,-0.0015021748
2313,-0.009321486
2314,0.014111148
2315,-0.0068311086
2316,-0.016321495
2317,0.015088541
2318,0.0038977321
2319,0.0114178285
2320,0.0033452157
2321,0.010228892
2322,0.0028398177
2323,-0.00787396
2324,-0.0022389991
2325,-0.009656967
2326,-0.0007258566
2327,0.014662428
2328,-0.004080427
2329,-0.005377359
2330,-0.00076033233
2331,0.008401379
2332,-0.003990151
2333,-0.0016746912
2334,0.0029757544
2335,0.014376641
2336,0.0022848328
2337,-0.014056663
2338,0.006663017
2339,-0.019407067
2340,-0.004631453
2341,-0.01031387
2342,-7.723097e-05
2343,0.01648772
2344,-0.0028849319
2345,0.0018593401
2346,0.0009503546
2347,-0.0006288448
2348,-0.00087440346
2349,0.0034365235
2350,0.0029047562
2351,0.0023220845
2352,0.01339749
2353,0.0033574377
2354,0.00083780923
2355,0.0015700122
2356,0.013959197
2357,0.0017686861
2358,0.0064975256
2359,-0.0006468624
2360,-0.00033548172
2361,0.010422775
2362,0.014536586
2363,0.006978955
2364,-0.013182751
2365,0.010092166
2366,0.003928453
2367,-0.00018890915
2368,0.0094788615
2369,-0.0039143832
2370,-0.009229084
2371,-0.014166055
2372,-0.010255577
2373,0.0035929112
2374,0.006021504
2375,0.005860574
2376,0.004719895
2377,0.006341365
2378,-0.00948096
2379,-0.00933598
2380,0.00547257
2381,0.0063181347
2382,0.0086978115
2383,-0.006823957
2384,-0.005989481
2385,-0.0008184627
2386,0.0150324525
2387,-0.015376734
2388,-3.0041987e-05
2389,-0.014261562
2390,-0.010985372
2391,0.009935701
2392,0.006655739
2393,-0.01006948
2394,-0.0058352966
2395,0.016142286
2396,0.0020630946
2397,-0.018232297
2398,0.01064978
2399,-0.005523874
2400,0.006000239
2401,0.009462748
2402,0.004729948
2403,0.01532644
2404,-0.0049945945
2405,-0.003011243
2406,-0.0022182378
2407,-0.0013420501
2408,0.0153883295
2409,-0.005026146
2410,-0.0031347205
2411,-0.00999786
2412,0.0137107065
2413,0.006096008
2414,0.018528353
2415,-0.011734711
2416,0.005175686
2417,-0.008264598
2418,0.007682688
2419,-0.014877734
2420,-0.0066818264
2421,0.002859909
2422,0.0026143861
2423,0.0005983961
2424,-0.005172803
2425,0.016925357
2426,-0.011928246
2427,-0.0070913895
2428,0.0003097923
2429,0.018218858
2430,0.0023673382
2431,-0.012127662
2432,-0.018307269
2433,0.008425353
2434,0.0053014215
2435,0.006235375
2436,0.012311612
2437,0.010056445
2438,0.015382572
2439,-0.008506619
2440,0.014978702
2441,0.0017745331
2442,0.00667129
2443,0.018721344
2444,0.004906594
2445,0.0067055007
2446,-0.0025000984
2447,-0.0011368331
2448,-0.015334229
2449,0.01669842
2450,0.010489505
2451,0.0018559499
2452,0.006243453
2453,0.0057633603
2454,-0.003980911
2455,-0.007347167
2456,-0.0096603865
2457,-0.0025336707
2458,0.002413031
2459,-0.0069865026
2460,0.008925507
2461,0.011294979
2462,0.0048704557
2463,0.006035708
2464,0.011227475
2465,-9.2413786e-05
2466,0.014209366
2467,-0.0034599896
2468,-0.0009927173
2469,0.0063185515
2470,0.005087739
2471,0.005208563
2472,-0.0095230555
2473,-0.00028886858
2474,0.01743111
2475,-0.0094208475
2476,-0.0056637875
2477,0.0026174018
2478,-0.004754022
2479,-0.0025135686
2480,-0.014626649
2481,-0.0042079124
2482,-0.0044979467
2483,0.00240614
2484,0.007641681
2485,-0.014625988
2486,0.001896314
2487,-0.012932421
2488,-0.004699054
2489,-0.0132965455
2490,0.00068710133
2491,0.0009691123
2492,-0.004627931
2493,0.005230061
2494,0.0017518793
2495,1.016591e-05
2496,-0.002612455
2497,-0.001511139
2498,0.006036498
2499,-0.003977877
2500,-0.014683791
2501,-0.0034056983
2502,-0.0022600845
2503,0.011812517
2504,0.0104527455
2505,-0.00772988
2506,-0.0023920569
2507,0.0064158835
2508,0.007675537
2509,-0.0024792147
2510,-0.013573774
2511,0.01403219
2512,-0.008854346
2513,-0.0065759686
2514,-0.002641426
2515,0.002427825
2516,0.0019818689
2517,-0.00045618258
2518,0.0052966294
2519,-0.007944647
2520,0.00023954269
2521,0.006186212
2522,0.008302272
2523,0.013749203
2524,0.006606702
2525,0.008992465
2526,0.007606956
2527,0.009185135
2528,-0.007391684
2529,0.010355956
2530,0.019378856
2531,-2.6129506e-05
2532,0.010730822
2533,0.013413065
2534,-0.005167894
2535,0.005825327
2536,-0.002719065
2537,-0.0049940133
2538,0.018985318
2539,0.008509341
2540,-0.0011168839
2541,-0.009667716
2542,-0.00529518
2543,0.0064099003
2544,0.006308963
2545,0.0068713306
2546,-0.0038740588
2547,-0.004171774
2548,0.016980289
2549,-0.0031750305
2550,-0.0067487485
2551,-0.007714248
2552,0.009276818
2553,0.006102901
2554,0.004220425
2555,0.0049679973
2556,0.010248736
2557,0.0019136826
2558,-0.0026796737
2559,-0.0050448324
2560,-0.001428314
2561,0.006694859
2562,-0.0085776495
2563,-0.0030545099
2564,0.012303794
2565,0.0033291758
2566,0.008443329
2567,0.005629037
2568,0.003239683
2569,-0.008777667
2570,0.00071337144
2571,0.009462203
2572,0.0052572014
2573,0.017710596
2574,-0.005694812
2575,0.017590657
2576,-0.0027177923
2577,-0.0038018762
2578,0.017230835
2579,0.007174525
2580,0.0014560795
2581,-0.0070771193
2582,-0.0045431904
2583,-0.004795159
2584,0.005913046
2585,0.007134383
2586,0.017617825
2587,-0.0069665415
2588,0.009392863
2589,-0.0053383284
2590,0.011710119
2591,-0.0032172152
2592,0.0067095575
2593,-0.0076072277
2594,-0.014286127
2595,-0.0151420925
2596,-0.006712311
2597,-0.0075319526
2598,-0.006996738
2599,-0.0071658045
2600,-0.011743185
2601,0.009602659
2602,0.0018138044
2603,0.0049410523
2604,-0.006939371
2605,-0.011304338
2606,0.0123410225
2607,-0.012328876
2608,0.013012139
2609,-0.0030381922
2610,0.00548578
2611,-0.0141936485
2612,-0.018027768
2613,0.009311136
2614,0.004159783
2615,-0.005401619
2616,0.00038916914
2617,-0.014617271
2618,0.008302726
2619,0.019981967
2620,-0.009121015
2621,0.0026646382
2622,0.00012820195
2623,-0.008599772
2624,0.011963907
2625,0.0064978795
2626,-0.0062979055
2627,0.0034996895
2628,0.00017617826
2629,-0.009397594
2630,-0.0043840352
2631,0.0057883197
2632,0.007341974
2633,-0.011529268
2634,0.0035143169
2635,-0.009299394
2636,-0.0038419669
2637,-0.00741876
2638,0.0045763194
2639,0.014713368
2640,-0.0014705393
2641,-0.0051918356
2642,0.0039272653
2643,0.007668356
2644,-0.0016144289
2645,-0.008622446
2646,-0.00058278104
2647,0.013795244
2648,-0.008504147
2649,0.010056131
2650,-0.00094694045
2651,-0.0069331657
2652,0.0013708258
2653,0.0016857446
2654,0.0054786894
2655,-0.013214725
2656,0.01772094
2657,0.005187305
2658,0.0025249969
2659,-0.012179865
2660,0.005015508
2661,0.0031442274
2662,0.0008858047
2663,0.0023216547
2664,0.006287829
2665,-0.0051925485
2666,0.020651067
2667,-0.0021000186
2668,-0.0035540361
2669,-0.018783044
2670,-0.011332376
2671,0.003323775
2672,-0.011685617
2673,0.00905192
2674,-0.008021988
2675,-0.0003664683
2676,-0.0047478057
2677,-0.016213566
2678,0.01029703
2679,0.013498922
2680,-0.0046829283
2681,-0.017385
2682,-0.0068280967
2683,-0.005378104
2684,0.0028420417
2685,0.0014954538
2686,-0.0018291839
2687,0.00046091198
2688,0.004286089
2689,-6.83182e-05
2690,0.004806397
2691,-0.0106166005
2692,0.00055913086
2693,-0.006381769
2694,-0.018671542
2695,-0.007921252
2696,0.0019147057
2697,0.01298318
2698,0.008102118
2699,0.013086239
2700,-0.009768725
2701,-0.0066745104
2702,-0.005289969
2703,-0.0109149255
2704,-0.006964199
2705,0.014644574
2706,0.01730606
2707,0.013365274
2708,0.013949293
2709,0.0008890865
2710,0.0016342871
2711,0.0015191485
2712,0.017316151
2713,0.0031635
2714,0.0072527574
2715,0.010261207
2716,0.0037622321
2717,-0.0062577394
2718,0.011189107
2719,0.0051884972
2720,-0.0023944553
2721,-0.011691476
2722,0.0012708055
2723,-0.008023185
2724,-0.0011140804
2725,0.013144873
2726,-0.014612583
2727,-0.0027738498
2728,-0.0034899972
2729,0.00085341797
2730,0.004367267
2731,0.013227102
2732,0.011567147
2733,0.012591412
2734,-0.0016313038
2735,-0.007284923
2736,-0.0142344795
2737,0.012554471
2738,-0.0021094317
2739,-0.0033786788
2740,0.010422039
2741,-0.0068203225
2742,-0.001630451
2743,0.0025545899
2744,0.0025041283
2745,0.0020684325
2746,-0.005381597
2747,-0.016774585
2748,-0.0022307439
2749,0.0052859588
2750,0.0010176994
2751,0.014150233
2752,0.011410598
2753,-0.003463095
2754,-0.0018067089
2755,0.008243574
2756,-0.010614558
2757,0.0042687543
2758,-0.013744663
2759,-0.009989789
2760,0.00993674
2761,0.018471073
2762,-0.003623082
2763,-0.0011786981
2764,-0.011495762
2765,-0.012771293
2766,0.0099890195
2767,-0.005463702
2768,0.007599631
2769,-0.0055325525
2770,-0.010295676
2771,0.018618932
2772,0.004799677
2773,-0.011376095
2774,-0.016468234
2775,0.0069876737
2776,-0.014435457
2777,-0.01102899
2778,0.01945183
2779,-0.010110572
2780,0.0129887005
2781,0.00019253168
2782,-0.0033214819
2783,0.011573121
2784,0.007915934
2785,0.0057606674
2786,0.010979639
2787,-0.011468768
2788,-0.011125489
2789,0.0075299414
2790,0.010792986
2791,0.0048170364
2792,0.016506076
2793,0.0067440122
2794,-0.0063741747
2795,0.0118471375
2796,0.0037483838
2797,0.002656563
2798,0.0011620045
2799,-0.0072479914
2800,-0.016098596
2801,0.0051773344
2802,0.0011610917
2803,-0.0190219
2804,-0.0042798067
2805,0.005846898
2806,-0.0008837029
2807,-5.012656e-05
2808,0.004136181
2809,-0.0066514034
2810,0.002919854
2811,0.005161227
2812,-0.005632515
2813,-0.0016265183
2814,0.0014648361
2815,-0.002148792
2816,-0.0037668222
2817,-0.0063535776
2818,0.016283894
2819,0.016230416
2820,-0.003412588
2821,0.0050303633
2822,0.0034380036
2823,-0.007476036
2824,0.011228866
2825,-0.01739998
2826,0.01160352
2827,-0.009763801
2828,-0.003877549
2829,-0.0013949221
2830,0.0015790043
2831,-0.00028969062
2832,-0.003215566
2833,-0.009908217
2834,0.0115363635
2835,0.002537027
2836,-0.0036399872
2837,0.006273161
2838,0.00970083
2839,0.003815966
2840,-0.002391568
2841,0.0056312005
2842,-0.0032403907
2843,-0.0016083547
2844,-0.0004095248
2845,0.0028861936
2846,-0.00057921995
2847,0.0056637586
2848,-0.019068021
2849,-3.901293e-05
2850,0.0026544235
2851,-0.012555499
2852,0.0005089607
2853,0.00559785
2854,-0.007705364
2855,-0.0041376394
2856,-0.0070429468
2857,-0.0042727357
2858,-0.0018178537
2859,0.004777505
2860,-0.0075007416
2861,0.0051223873
2862,-0.008019712
2863,0.0009007115
2864,-0.0016601821
2865,-0.009905858
2866,0.0062477672
2867,-0.0059856586
2868,-0.0070968405
2869,-0.003679536
2870,-0.010392772
2871,-0.007957089
2872,0.006256051
2873,-0.009620024
2874,0.0091951145
2875,0.0062861773
2876,0.0017064007
2877,0.0059876884
2878,0.0057790093
2879,0.004597127
2880,2.5505859e-05
2881,0.003281641
2882,0.0005058297
2883,-0.0030102916
2884,-0.005471775
2885,0.004593556
2886,0.0052914317
2887,0.0045050853
2888,0.0012946223
2889,0.009105338
2890,-0.0035000313
2891,-0.017541183
2892,-0.0026895353
2893,-0.009511289
2894,-0.009121097
2895,0.0059741237
2896,0.0013180922
2897,-0.008244812
2898,0.004430403
2899,0.0039896592
2900,-0.004681271
2901,-0.014513856
2902,-0.0015141489
2903,0.008396993
2904,-0.00034764345
2905,0.009887803
2906,0.0076317163
2907,-0.012659284
2908,-5.830576e-06
2909,0.0039231335
2910,0.0137122655
2911,0.004943485
2912,-0.0055052694
2913,0.012591012
2914,0.007830097
2915,0.0064065633
2916,0.0021775088
2917,0.007833429
2918,0.00911627
2919,0.00603683
2920,-0.011382552
2921,0.018812498
2922,-0.016987383
2923,0.014963229
2924,-0.009561449
2925,-0.016021073
2926,-0.010108277
2927,-0.019837553
2928,-0.0039158436
2929,0.00015770184
2930,0.011970836
2931,0.0034547783
2932,0.0015038403
2933,-0.01375689
2934,-0.008246602
2935,-0.016345523
2936,0.002246647
2937,0.005877458
2938,0.0046471334
2939,0.0052852375
2940,0.01074841
2941,-0.010601826
2942,0.008785082
2943,0.01879174
2944,0.0076482743
2945,-0.009369285
2946,0.010941921
2947,-0.003436672
2948,-0.009721558
2949,-0.0127216745
2950,-0.00019406286
2951,0.0013595347
2952,-0.0041443547
2953,0.017276512
2954,-0.0019284931
2955,0.015962169
2956,-0.015674038
2957,0.0031018336
2958,0.005077012
2959,0.004947342
2960,0.008856184
2961,-0.011896191
2962,0.012603605
2963,-0.0053214817
2964,0.0068413336
2965,0.0103290025
2966,0.0051145586
2967,0.0040230146
2968,-0.0010015946
2969,0.015981913
2970,-0.015356482
2971,0.0012585868
2972,-0.016840134
2973,-0.0087007005
2974,-0.008569692
2975,-0.015154053
2976,-0.0067699295
2977,-0.004169291
2978,0.012704883
2979,0.0007471721
2980,0.009360257
2981,0.00066904805
2982,-0.00450299
2983,0.008868185
2984,0.013613237
2985,0.012233611
2986,-0.011378404
2987,0.013056374
2988,0.013012577
2989,-0.0003794387
2990,0.0016344876
2991,0.012788791
2992,0.0066563636
2993,-0.016679281
2994,0.014404071
2995,0.008181189
2996,4.7965306e-05
2997,-0.0008497505
2998,0.0005051712
2999,-0.005829603
3000,0.0014964365
3001,-0.004226513
3002,0.0038168451
3003,0.003229191
3004,-0.0036942735
3005,-0.004180632
3006,0.017453812
3007,0.010667475
3008,0.009349168
3009,0.009550218
3010,-0.0036121162
3011,-0.019874196
3012,-0.009231533
3013,-0.0059131407
3014,-0.009867149
3015,-0.0026500337
3016,-0.0024656302
3017,0.0113811195
3018,-0.010404324
3019,-0.00012948555
3020,-0.0042486335
3021,0.002256761
3022,0.013164167
3023,-0.014011132
3024,-0.00035458812
3025,0.012339715
3026,-0.00063864596
3027,0.0034921465
3028,-0.003333368
3029,-0.017866585
3030,0.016853007
3031,-0.006383926
3032,-0.013447253
3033,0.004514379
3034,0.012752509
3035,-0.0012745204
3036,-0.0068375464
3037,-0.0059673404
3038,-0.00461984
3039,0.00097538123
3040,0.0013972224
3041,-0.0060171383
3042,0.0034417252
3043,-0.006840444
3044,-0.0064207683
3045,0.016446743
3046,0.0064382968
3047,-0.009620013
3048,0.009328793
3049,-0.013392282
3050,0.0054805274
3051,0.012984158
3052,0.0028830483
3053,0.0054275296
3054,0.00049264677
3055,-0.0021229552
3056,0.0039224764
3057,-0.0068442486
3058,-0.008517852
3059,0.0005459654
3060,-0.0025711944
3061,-0.011730166
3062,0.006082745
3063,-0.012284754
3064,0.010785711
3065,-0.011195444
3066,0.0011400125
3067,-0.010202385
3068,-0.009718128
3069,0.010636565
3070,-0.005719707
3071,-0.014502087
3072,0.012131363
3073,0.0039428663
3074,0.012694283
3075,0.004521727
3076,0.016361175
3077,-0.002717851
3078,0.009022395
3079,0.010514969
3080,0.008741323
3081,0.010872537
3082,-0.002806569
3083,0.002800444
3084,-0.005712654
3085,0.011567234
3086,0.0008127725
3087,0.0015882851
3088,-0.0038656786
3089,-0.0032547894
3090,-0.006452287
3091,-0.0012530845
3092,-0.015624551
3093,-0.007843614
3094,0.0043821526
3095,-0.009773554
3096,0.0024051343
3097,0.009156801
3098,0.010952579
3099,-0.013909975
3100,0.007393408
3101,0.014113046
3102,-0.0081767365
3103,-0.0028425418
3104,0.019593379
3105,-0.01843665
3106,0.0042551463
3107,-0.015461092
3108,0.001080049
3109,-0.0018433039
3110,0.010813447
3111,-0.0052988473
3112,0.005108349
3113,-0.010095393
3114,0.00878844
3115,0.0052227853
3116,0.0054935548
3117,-0.01030695
3118,0.0026794674
3119,-0.0027508219
3120,-0.008486441
3121,-0.004889617
3122,0.010554211
3123,0.0039448575
3124,-0.004564755
3125,-0.0044436892
3126,-0.012270025
3127,-0.010310224
3128,-0.0065403325
3129,0.0057480773
3130,0.0005088354
3131,0.0020773842
3132,0.010483468
3133,-0.0012504347
3134,-0.004145716
3135,-0.0018166921
3136,-0.0027812277
3137,0.0017644343
3138,0.0073531317
3139,0.01753161
3140,-0.00087448803
3141,-0.018773055
3142,-0.0065399823
3143,-0.0018461989
3144,-0.0096742185
3145,0.019475572
3146,-0.0044209994
3147,0.00084098126
3148,-0.007847223
3149,-0.009310773
3150,-0.005100896
3151,-0.00466552
3152,-0.0014666757
3153,-0.000248546
3154,-0.0078101973
3155,0.0019066796
3156,-0.0044357395
3157,-0.008174544
3158,-0.001672176
3159,0.018145211
3160,-0.008119748
3161,0.00063569605
3162,-0.01858842
3163,-0.00022654103
3164,-0.0055688727
3165,0.0076823668
3166,0.019762384
3167,0.009797783
3168,-0.00046824524
3169,-0.013899956
3170,0.0046585877
3171,-0.0022960922
3172,0.0032675427
3173,0.005656933
3174,0.008088019
3175,-0.01324461
3176,-0.011246891
3177,0.0057098875
3178,0.0031946262
3179,0.0028076905
3180,0.00942577
3181,-0.0032594586
3182,-0.0019850323
3183,0.013043685
3184,-0.00398427
3185,0.012079209
3186,0.008259435
3187,0.003386001
3188,-0.008709646
3189,-0.0016098204
3190,0.014596838
3191,0.010890538
3192,0.004389795
3193,-0.018922372
3194,-0.0012322497
3195,-0.01925679
3196,-0.0019262385
3197,-0.007970869
3198,-0.008724671
3199,-0.018666726
3200,-0.0071889674
3201,-0.0024287803
3202,-0.0056056874
3203,0.0025818606
3204,0.012327022
3205,-0.0018789318
3206,0.012327343
3207,-0.0047070766
3208,0.00501433
3209,-0.0057909093
3210,-0.003283951
3211,0.0061520967
3212,-0.0070420075
3213,-0.009830698
3214,-0.009125846
3215,0.003485265
3216,-0.009131048
3217,0.011537177
3218,-0.0102681145
3219,-0.01286235
3220,0.010306617
3221,0.0060216743
3222,-0.0002522557
3223,0.012670756
3224,0.013000642
3225,0.001510658
3226,-0.012998364
3227,0.013573395
3228,0.013034511
3229,0.004807142
3230,-0.004830136
3231,0.0050959885
3232,-0.015219467
3233,-0.0001823241
3234,-0.014376245
3235,0.0024176743
3236,-0.005562207
3237,0.0058955452
3238,-0.0060336
3239,0.003438219
3240,0.016301382
3241,-0.00015587758
3242,0.00911479
3243,-0.0068625095
3244,-0.00031380783
3245,-0.008605118
3246,0.005249261
3247,0.0017451053
3248,-0.013635546
3249,-6.843978e-05
3250,-0.005909832
3251,0.0015770878
3252,0.0013627035
3253,0.00071819563
3254,0.010833545
3255,0.0150193125
3256,0.008653882
3257,-0.0028532045
3258,-0.0063050776
3259,0.008149137
3260,-0.015994543
3261,-0.0066325963
3262,0.0023723282
3263,0.005763193
3264,0.002655016
3265,-0.0018810434
3266,-0.0031538554
3267,0.0012435695
3268,-0.01733321
3269,0.00774595
3270,-0.016530717
3271,-0.009263874
3272,-0.0016809207
3273,0.0023278063
3274,-0.009717808
3275,0.010757337
3276,0.016610086
3277,-0.008431777
3278,0.00074609806
3279,-0.0016371086
3280,0.001562231
3281,0.0027516647
3282,0.007871075
3283,0.0036445125
3284,-0.0134165
3285,0.012878511
3286,0.0071156416
3287,0.018690934
3288,-0.009650508
3289,0.008059878
3290,-0.0015361481
3291,0.0023824845
3292,-0.0029383688
3293,0.016253242
3294,-0.0003429568
3295,-0.0056183976
3296,8.677665e-05
3297,0.009194529
3298,0.0005954343
3299,0.0076615643
3300,-0.00027311782
3301,-0.0044843354
3302,-0.003925083
3303,-0.008984528
3304,-0.0005037105
3305,-0.00083261495
3306,0.008853693
3307,-0.017075095
3308,-0.0076634446
3309,-0.010207234
3310,0.0067414897
3311,0.00013802627
3312,0.002688499
3313,-0.017012212
3314,0.0009697198
3315,-0.013388649
3316,0.0020502044
3317,0.014426377
3318,-0.0047412044
3319,0.008430021
3320,0.0007704912
3321,-0.011179296
3322,-0.002781447
3323,-0.006264747
3324,-0.0070268195
3325,0.011246598
3326,-0.0023996835
3327,-0.009984129
3328,-0.0027243644
3329,-0.0058017746
3330,0.005851252
3331,-0.009917097
3332,-0.0009537348
3333,-0.006455503
3334,-0.0055530537
3335,0.0056728497
3336,0.0048818304
3337,-0.015555623
3338,0.0035770931
3339,0.0072029154
3340,-0.01875742
3341,-0.012757895
3342,0.0003704335
3343,0.00645393
3344,-0.001960266
3345,-0.011915433
3346,0.0138475895
3347,0.0053016436
3348,-0.001996211
3349,-0.013072122
3350,-0.013830524
3351,0.007743313
3352,0.012295153
3353,0.01435391
3354,-0.008013961
3355,0.0004758191
3356,-0.0051805046
3357,-0.0023764228
3358,-0.0068880715
3359,0.0067117363
3360,-0.018234937
3361,0.009534756
3362,0.004582436
3363,0.0146251945
3364,0.0010766755
3365,-0.0074113146
3366,0.006329048
3367,0.0050864103
3368,0.010511527
3369,0.0030857068
3370,0.0064348867
3371,0.015360122
3372,-0.003208039
3373,-0.0020232573
3374,0.008169549
3375,0.0045676506
3376,-0.0011720117
3377,0.00028471046
3378,-0.003518584
3379,-0.0014303696
3380,0.007782902
3381,0.008651186
3382,0.004149533
3383,-0.0061683496
3384,0.017089963
3385,0.019977951
3386,0.0086244065
3387,0.0053154426
3388,-0.009281392
3389,0.015330385
3390,0.014824562
3391,0.0043605035
3392,0.017376652
3393,0.006948282
3394,0.009613946
3395,0.00015822677
3396,0.003178453
3397,-0.001788917
3398,0.0009038204
3399,-0.0007916193
3400,-0.0075235986
3401,-0.0020992404
3402,-0.0016074297
3403,-0.0014812239
3404,0.006952548
3405,0.009850608
3406,-0.0037594205
3407,0.0019601195
3408,-0.017266866
3409,0.009382523
3410,0.015281496
3411,-0.018604606
3412,-0.0008842432
3413,-0.010637373
3414,-0.0036464366
3415,-0.00040789167
3416,0.0028188475
3417,0.004896638
3418,0.0060286187
3419,-0.014438911
3420,0.0057946146
3421,0.0066243648
3422,-0.003155176
3423,-0.0031523597
3424,0.005438976
3425,-0.004459255
3426,-0.015113367
3427,0.010705882
3428,-0.009797155
3429,-0.0014189687
3430,0.0030848633
3431,0.001344889
3432,0.0047173426
3433,-0.01141788
3434,-0.00031367678
3435,0.0147656165
3436,0.005935141
3437,-0.007863979
3438,0.010014608
3439,0.0017173457
3440,-0.0048458353
3441,-0.005029957
3442,0.0085685225
3443,-0.010029777
3444,0.0014982378
3445,-0.00028022152
3446,0.000856498
3447,0.0018513399
3448,-0.0022861504
3449,0.009696676
3450,-0.0015255192
3451,-0.00818891
3452,0.010778505
3453,0.0034148365
3454,-0.0152458055
3455,0.0055493554
3456,0.0013840189
3457,-0.0035927498
3458,0.0011880632
3459,-0.0037408026
3460,-0.004622698
3461,0.007427084
3462,-0.014019312
3463,0.00814062
3464,0.00887537
3465,0.007406743
3466,0.0028645867
3467,-0.005631225
3468,0.0059441915
3469,0.017192585
3470,0.002621226
3471,0.007487862
3472,0.0025706503
3473,-0.010152812
3474,-0.010485207
3475,-0.0052729654
3476,-0.0137704415
3477,-0.011359923
3478,-0.004798745
3479,-0.00026018938
3480,0.004924671
3481,-0.01425278
3482,0.000944988
3483,0.004410835
3484,-0.016162438
3485,-0.007317665
3486,0.0013281619
3487,-0.014921287
3488,-0.0024268993
3489,0.012160663
3490,-0.0063962615
3491,-0.013521584
3492,-0.0031084856
3493,-0.010789434
3494,-0.00033463066
3495,0.0060636625
3496,-0.014321501
3497,0.00083230756
3498,-0.0114614265
3499,-0.0022287245
3500,0.0061810254
3501,0.0005722057
3502,0.019767182
3503,-0.00026952737
3504,0.009737833
3505,0.004872787
3506,0.0079320045
3507,-0.015590223
3508,-0.017291298
3509,0.006900684
3510,0.011071377
3511,0.004228265
3512,-0.0006022999
3513,-0.0067020594
3514,-0.01539603
3515,-0.0057107774
3516,0.0073537314
3517,0.00080561236
3518,-0.013288724
3519,0.011053201
3520,0.003416748
3521,0.017516945
3522,0.009994382
3523,-0.0038599197
3524,-0.0048876186
3525,-0.00016481469
3526,-0.0025580635
3527,-0.015947754
3528,-0.00074629305
3529,0.0076148277
3530,-0.0022430653
3531,0.006395752
3532,0.005602542
3533,0.013780969
3534,-0.0005538309
3535,0.0069690356
3536,0.004447274
3537,-0.011053277
3538,0.008407353
3539,0.010560412
3540,-0.0060858307
3541,-0.0058765416
3542,-0.005663067
3543,-0.004218112
3544,0.0050566946
3545,0.0013916846
3546,-0.007678601
3547,0.0009461349
3548,0.012361365
3549,-0.0059668184
3550,-0.009566578
3551,-0.011956046
3552,0.00094033405
3553,0.003772577
3554,-0.019550374
3555,-0.003319758
3556,-0.010921714
3557,0.0023055193
3558,-0.011455327
3559,-0.008977642
3560,0.0047813486
3561,-0.018672828
3562,-0.0027700115
3563,-0.0062686936
3564,-0.000535511
3565,-0.00995758
3566,-0.013837794
3567,0.006365014
3568,0.005464984
3569,-0.006300191
3570,-0.0031782936
3571,0.0025466257
3572,-0.0075382334
3573,0.006922916
3574,0.0030974692
3575,-0.009576585
3576,0.002334108
3577,0.0021559573
3578,0.004751362
3579,0.0024029708
3580,-0.012538997
3581,0.0019818095
3582,-0.016092377
3583,0.0009819514
3584,-0.0046871235
3585,0.011982875
3586,0.0047455686
3587,0.013384851
3588,-0.002626825
3589,-0.007975329
3590,-0.0015402705
3591,-0.0025455079
3592,-0.015107466
3593,-9.0055204e-05
3594,-0.0016792773
3595,0.0020422966
3596,-0.0064115715
3597,-0.008429113
3598,0.002923239
3599,0.00041833386
3600,0.0048982836
3601,-0.004007995
3602,0.0005508901
3603,-0.000595647
3604,-0.002392538
3605,-0.0053717964
3606,-0.00019499935
3607,-0.0009452875
3608,0.019101644
3609,-0.0025430704
3610,-0.0018165637
3611,0.015357555
3612,-0.008953593
3613,0.007001243
3614,-0.002622923
3615,-0.0077144597
3616,0.0066333455
3617,-0.004132528
3618,0.0010852802
3619,-0.010263039
3620,0.012824541
3621,-0.0056034434
3622,-0.00738596
3623,-0.007608747
3624,-0.01050402
3625,-0.0028476056
3626,-0.0074711153
3627,-0.00256419
3628,-0.0058395914
3629,0.0014170057
3630,0.010208059
3631,0.0032116845
3632,0.010279217
3633,0.008728097
3634,0.0032457241
3635,-0.0058836564
3636,0.011410509
3637,-0.0066490984
3638,0.014719042
3639,0.0052651516
3640,-0.006088233
3641,-0.012756671
3642,-0.010265287
3643,-0.0020943366
3644,-0.013935328
3645,-0.015385914
3646,0.0021545903
3647,0.005331915
3648,-0.008556479
3649,-0.008279927
3650,-0.001322073
3651,-0.00026675698
3652,-0.010689362
3653,0.004132902
3654,0.003895879
3655,-0.0074427645
3656,-0.0012662809
3657,0.011408839
3658,0.0070100543
3659,0.0037730709
3660,-0.0035138833
3661,0.017321115
3662,0.0034785254
3663,0.0070429943
3664,-0.00410277
3665,0.005489679
3666,0.0025205517
3667,-0.009866593
3668,0.004530392
3669,0.0021949497
3670,-0.0065993485
3671,0.0058834637
3672,-0.0028441292
3673,-0.004305165
3674,0.0035368502
3675,-0.0038486787
3676,0.004740733
3677,-0.0035567607
3678,0.0047496664
3679,-0.013640334
3680,-0.006538672
3681,-0.010823631
3682,-0.004227799
3683,0.0065863896
3684,-0.01868172
3685,-0.0013444404
3686,0.0097213425
3687,0.016061446
3688,-0.005591808
3689,-0.016491344
3690,0.009483957
3691,-0.007186642
3692,0.0009609723
3693,0.008642921
3694,-0.014443859
3695,-0.005720101
3696,-0.0030607183
3697,0.010313285
3698,0.0023171825
3699,0.018406264
3700,0.000936971
3701,0.012483773
3702,-0.0030435317
3703,-0.009595334
3704,-0.00360857
3705,0.0013231677
3706,0.008103548
3707,-0.006487021
3708,-0.010336946
3709,0.0082458155
3710,-0.015404022
3711,6.650413e-05
3712,0.008244715
3713,0.008877522
3714,0.00469901
3715,0.01595544
3716,-0.010698484
3717,-0.010500175
3718,0.0085117575
3719,-0.012348274
3720,0.014384816
3721,0.008364462
3722,-0.00012963168
3723,0.016852103
3724,0.016418269
3725,0.0043694037
3726,-0.013466751
3727,0.0077635027
3728,0.0048385956
3729,0.00823139
3730,-0.005713542
3731,0.009955571
3732,0.007909636
3733,0.003690025
3734,-0.014676279
3735,0.0025814527
3736,0.00596786
3737,-0.002596347
3738,0.005654948
3739,0.0010607851
3740,-0.0016265742
3741,0.007374769
3742,0.007875665
3743,-0.017464425
3744,0.019700322
3745,-0.0034488337
3746,-0.0053615686
3747,0.012241416
3748,-0.0017158081
3749,-0.018392198
3750,-0.01601581
3751,-0.016116684
3752,0.0067646746
3753,-0.0029992282
3754,-0.01559736
3755,0.0011601934
3756,0.011879594
3757,-0.017872494
3758,0.0027649077
3759,0.0031407215
3760,0.0032668263
3761,-0.004521455
3762,0.006040526
3763,0.0025224797
3764,0.0019016293
3765,0.018667897
3766,0.008965811
3767,0.014629083
3768,-0.014410957
3769,-0.008470263
3770,0.005946225
3771,0.008807215
3772,0.00058739894
3773,0.0044453647
3774,0.0022395325
3775,-0.0003419744
3776,0.009857984
3777,-0.0020962423
3778,-0.003575284
3779,-0.018689765
3780,0.015372873
3781,-0.004845231
3782,-0.015463458
3783,0.0028397911
3784,0.0013587337
3785,-0.0033311131
3786,0.0061123017
3787,0.0055800425
3788,-0.0016351499
3789,0.006121683
3790,0.014635535
3791,-0.0046744808
3792,-0.011703733
3793,0.0013868529
3794,0.0061458973
3795,-0.010435545
3796,0.013260205
3797,0.014772591
3798,-0.0028179118
3799,0.0031143979
3800,-0.0043908847
3801,0.0030889933
3802,-0.007909029
3803,-0.0018278105
3804,0.0147970915
3805,0.0027628348
3806,0.00874956
3807,0.0047868947
3808,0.009639485
3809,-0.0015989309
3810,0.011269518
3811,0.0074620005
3812,-0.017377315
3813,0.0056666797
3814,-0.0035936434
3815,0.00435756
3816,-0.010311753
3817,0.0032432538
3818,-0.006770537
3819,0.008063739
3820,-0.016577715
3821,-0.008779497
3822,0.018410414
3823,0.0037631288
3824,0.00048044178
3825,-0.0015497063
3826,0.0068488764
3827,0.009929291
3828,0.008588051
3829,0.0029201894
3830,-0.012105488
3831,0.0013301027
3832,-0.0065363203
3833,0.001821915
3834,-0.00577825
3835,0.012869427
3836,-0.009458557
3837,0.011618732
3838,0.0066379616
3839,-0.006017501
3840,0.001856233
3841,-0.0002381461
3842,-0.012147877
3843,0.0074246135
3844,0.010182437
3845,0.006985275
3846,-0.010307642
3847,0.015434756
3848,0.01076192
3849,0.0029575282
3850,0.0031828936
3851,0.002723493
3852,0.0023053454
3853,0.0070633655
3854,-0.004390609
3855,-0.006260606
3856,-0.018877178
3857,0.009943994
3858,-0.01865023
3859,-0.0016743918
3860,0.0015475102
3861,0.006968512
3862,0.008119398
3863,0.014925483
3864,0.0039253533
3865,0.0015078561
3866,0.0007614313
3867,-0.00041884428
3868,0.0011873774
3869,0.009618343
3870,-0.018573042
3871,0.00039148083
3872,0.0023563541
3873,-0.0041664424
3874,0.017232612
3875,0.010428243
3876,-0.016303156
3877,0.014267324
3878,-0.013077197
3879,-0.0035040502
3880,0.00049796404
3881,-0.001952131
3882,-0.0071071438
3883,0.011842822
3884,0.005784554
3885,-0.014684311
3886,-0.00021345614
3887,-0.0011588284
3888,0.01389719
3889,-0.0013753123
3890,-0.012512931
3891,0.006147021
3892,-0.0038945922
3893,0.011607717
3894,-0.004940185
3895,-0.0064217094
3896,-0.00022968139
3897,-0.0076319473
3898,0.00987731
3899,0.004690147
3900,0.010283531
3901,-0.0030011826
3902,0.012775665
3903,-0.00087802805
3904,-0.0041203923
3905,-0.005673493
3906,0.0003082586
3907,-0.009532548
3908,0.010156525
3909,-0.0022263431
3910,-0.0135847945
3911,0.012407931
3912,-0.011317288
3913,-0.0109235495
3914,-0.007638628
3915,-0.009164263
3916,-0.00036929126
3917,0.011712497
3918,-0.010059565
3919,-0.0023300755
3920,0.002087792
3921,-0.0062138205
3922,0.013632938
3923,-0.009013851
3924,0.0016026754
3925,-0.00852007
3926,0.014437209
3927,0.015539788
3928,-0.001817306
3929,-0.008001941
3930,-0.01122216
3931,0.0012553991
3932,-0.007873045
3933,0.007183355
3934,-0.0075692134
3935,0.016455304
3936,0.006266083
3937,-0.008777728
3938,-0.0151369525
3939,-0.0018528292
3940,-0.0054501602
3941,-0.013392944
3942,0.007948096
3943,-0.0039814073
3944,-0.007715221
3945,-0.009612839
3946,-0.018306885
3947,0.00083365664
3948,0.004879372
3949,0.0045843814
3950,0.011085455
3951,0.005878207
3952,-0.006009064
3953,-0.011771463
3954,0.016453704
3955,0.001971755
3956,-0.005622321
3957,-0.0073375055
3958,0.0016853878
3959,0.01396471
3960,-5.6219225e-05
3961,0.006820948
3962,-0.0054616677
3963,-0.0053271833
3964,-0.008420856
3965,-0.012847047
3966,-0.015794173
3967,-0.014321472
3968,0.00095452217
3969,0.0027752134
3970,0.006257212
3971,-0.006462125
3972,0.00555738
3973,0.0023155112
3974,0.004289181
3975,0.0030930685
3976,-0.0045210742
3977,0.010931325
3978,-0.0041196505
3979,0.009790552
3980,0.012007564
3981,-0.0013560762
3982,0.009218212
3983,-0.015850578
3984,0.0068703955
3985,0.0127294
3986,0.0018558076
3987,-0.0058791223
3988,0.015313546
3989,-0.0081046065
3990,-0.014043129
3991,-0.007988547
3992,0.007752719
3993,0.008684243
3994,-0.008514831
3995,0.015358714
3996,0.0071720914
3997,-0.019476574
3998,-0.014870365
3999,0.013937442
4000,-0.00644956
4001,-0.01704382
4002,0.012963832
4003,0.0036474941
4004,-0.0026417645
4005,0.0060673356
4006,0.005303166
4007,0.014600904
4008,0.000345623
4009,0.010885205
4010,0.010096241
4011,0.0028236392
4012,0.00019120687
4013,0.00018245037
4014,-0.018863915
4015,0.009555281
4016,0.011234353
4017,0.007246499
4018,0.0011810337
4019,-0.0036775519
4020,-0.008753157
4021,0.0047504264
4022,0.002057235
4023,-0.018905964
4024,-1.5151625e-05
4025,-0.0011985421
4026,-0.0017401315
4027,-0.017760592
4028,-0.00013074464
4029,0.004691542
4030,0.0045292825
4031,0.003222607
4032,-0.008309037
4033,0.0064090556
4034,-0.0029408033
4035,0.005729787
4036,0.0046003326
4037,0.00020837052
4038,0.0039235977
4039,-0.014406443
4040,0.0010361664
4041,-0.0032807775
4042,-0.013296355
4043,-0.0005528154
4044,0.00035866647
4045,0.0006217142
4046,-0.0021891356
4047,-0.0143667925
4048,-0.0004360057
4049,0.0057663587
4050,-0.002638612
4051,-0.0027115582
4052,0.01174634
4053,-0.00043770982
4054,-0.01688784
4055,0.0030098914
4056,-0.011607078
4057,-0.0007409305
4058,0.0006255602
4059,-0.00815611
4060,0.0057092872
4061,-0.00396117
4062,0.00995898
4063,0.0051448406
4064,-0.006514033
4065,-0.014599977
4066,-0.006193044
4067,0.00086110947
4068,-0.010946793
4069,0.0056818863
4070,0.00786992
4071,-0.0022792665
4072,-0.008599768
4073,0.015519496
4074,-0.004818122
4075,-0.010851254
4076,-0.012412148
4077,0.0029804327
4078,0.0020669848
4079,0.0036390398
4080,-0.012206713
4081,0.0012626176
4082,0.00090897887
4083,0.0017574149
4084,0.017436776
4085,-0.005000551
4086,-0.0035499115
4087,0.0069461274
4088,-0.00917021
4089,0.015388232
4090,0.0049726833
4091,-0.012854591
4092,0.0018991169
4093,-0.003401768
4094,-0.0025290593
4095,0.00955937
