Sno,Weight
0,0.0065706936
1,0.012082979
2,-0.009444034
3,-0.0054617156
4,0.015230482
5,-0.0114731295
6,0.0003238545
7,-0.010006129
8,-0.012810048
9,0.004417812
10,0.009175494
11,-0.0036259133
12,0.009309732
13,-0.01546093
14,-0.0043280753
15,-0.019943733
16,0.003886656
17,0.00015110697
18,0.0013256158
19,-0.009098093
20,-0.007844075
21,-0.017235052
22,0.00968186
23,0.001812092
24,-0.002931245
25,-0.010871267
26,-0.011509761
27,-0.008664133
28,-0.017500432
29,0.007674546
30,-0.013943476
31,-0.011821592
32,-0.0065238206
33,0.0072973957
34,-0.00803685
35,0.005779318
36,-0.011831552
37,-0.014892213
38,0.0013629199
39,0.011258177
40,-0.017723622
41,-0.0022615774
42,0.001522543
43,0.012958906
44,-0.0008449265
45,-0.00061578496
46,0.0086434875
47,0.003750752
48,-0.00050639885
49,0.005501507
50,0.0053994833
51,-0.0037500558
52,-0.0013275355
53,0.0014622086
54,0.011478955
55,-0.0013391993
56,0.003352156
57,0.00033604619
58,-0.009785764
59,-0.00032334038
60,-0.0027423939
61,0.005097838
62,0.018202081
63,-0.003963932
64,0.014102532
65,0.009493877
66,0.0014519673
67,0.002879772
68,0.010083454
69,0.0056038913
70,0.0076870406
71,0.012730683
72,-0.008842268
73,-0.011622975
74,1.42090885e-05
75,0.008816674
76,0.006556734
77,-0.0029389975
78,0.006554675
79,0.0015839138
80,0.001736686
81,-0.009532222
82,-0.00868952
83,0.013228176
84,0.007071368
85,0.002663064
86,-0.0066473074
87,0.007309867
88,0.0007561625
89,-0.004003483
90,0.012766267
91,0.0003059344
92,-0.004686151
93,0.012400589
94,0.00024927565
95,0.00030000386
96,-0.006900462
97,-1.8579827e-05
98,0.0032681176
99,-0.011190647
100,-0.014191762
101,-0.003517759
102,0.013911109
103,0.0011127522
104,0.014336458
105,0.008761683
106,0.007419199
107,0.0062944307
108,-0.011837823
109,-0.005813593
110,-0.008286396
111,0.0047831098
112,0.012066394
113,-0.010159206
114,0.00075282616
115,-0.0125873955
116,0.015585595
117,-0.008245139
118,-0.004996631
119,0.004117001
120,-0.009266445
121,-0.019169295
122,0.008961237
123,-0.008168226
124,0.0071667386
125,0.012905394
126,0.0029448085
127,-0.003296521
128,0.0025388757
129,0.008153911
130,-0.0011911446
131,-0.0069577014
132,-0.015342928
133,0.0044314186
134,-9.676588e-05
135,0.012485968
136,-0.004900706
137,-0.012585944
138,-8.75406e-05
139,-0.007880302
140,-0.0111425165
141,0.006375317
142,-0.003312728
143,0.010774378
144,0.018073564
145,-0.006098695
146,0.0033927502
147,0.015148193
148,-0.004673525
149,-0.010947795
150,0.005276978
151,0.012876898
152,0.009467363
153,0.0070412285
154,-0.0047219354
155,-0.00029983444
156,0.0049869413
157,0.0032091094
158,0.001239235
159,-0.0014714275
160,-0.006096966
161,-0.007857079
162,0.019084444
163,-0.007965843
164,-0.0029437249
165,0.00017504988
166,0.0052820365
167,-0.0059290375
168,-0.007036608
169,0.008402729
170,-0.01625586
171,0.006541037
172,0.0077022174
173,0.0016760579
174,0.010512445
175,-0.0075001656
176,0.0011572661
177,0.008649405
178,0.00446139
179,-0.0015803364
180,0.010783861
181,0.010282293
182,0.019614236
183,-0.003536668
184,-0.009788105
185,0.0057557574
186,0.012062597
187,0.014417098
188,-0.0059510977
189,-0.011995022
190,0.0064692576
191,-0.005090685
192,-0.009645131
193,0.0012566292
194,0.015422931
195,0.006215069
196,-0.009031617
197,9.483706e-05
198,-0.010579632
199,-0.0062578726
200,-0.0003934439
201,0.007331557
202,-0.008355678
203,-0.009608995
204,0.004470097
205,0.0050275535
206,0.00022485526
207,-0.01087483
208,0.011348986
209,0.010438852
210,0.00443007
211,-0.011841284
212,-0.01569113
213,-0.0048739016
214,0.0056210356
215,-0.014889022
216,-0.0028412882
217,-0.007549475
218,-0.0062568714
219,0.003803401
220,-0.009890263
221,0.0041526523
222,-0.015212377
223,0.014846389
224,-0.00038672777
225,-0.0020210755
226,0.001831384
227,-0.0011701498
228,-0.014447103
229,0.00050415925
230,-0.0058496175
231,-8.898005e-05
232,-0.0018270366
233,0.0012632604
234,0.006507002
235,-0.012780278
236,0.00036750108
237,-0.01640217
238,-0.00070666475
239,-0.010736054
240,-0.007600649
241,-0.0025322784
242,0.0011508965
243,0.019911334
244,-0.007955638
245,-0.005497606
246,-0.015676323
247,-0.0029580067
248,-0.008475524
249,0.005079011
250,-0.0042460365
251,-0.0110881515
252,0.012801767
253,-0.008411148
254,0.018725839
255,0.006888254
256,-0.010573199
257,-0.017755587
258,0.012876035
259,0.013517967
260,0.013175893
261,0.010393407
262,-0.008478067
263,0.01372306
264,0.0058032647
265,-0.012337671
266,0.009969502
267,0.00078117056
268,0.00034288198
269,0.01593402
270,-0.0040504974
271,-0.0009527368
272,0.009404873
273,0.0021381825
274,0.0048887664
275,-0.0037653914
276,-0.008908132
277,0.005408575
278,-0.01806547
279,-0.010082968
280,0.012879913
281,0.0038851115
282,0.009673164
283,0.0026589895
284,0.011333753
285,0.0045388704
286,0.014241537
287,-0.0010486091
288,0.007146026
289,0.008516278
290,0.005186659
291,-0.00483089
292,0.009977422
293,-0.012466417
294,0.005718674
295,-0.008161679
296,-0.01059008
297,-0.009784427
298,-0.008563943
299,-0.0030226102
300,0.00975346
301,0.0035376046
302,-0.008204036
303,-0.0038660679
304,-0.00723746
305,0.0062133274
306,-0.015724981
307,0.008766632
308,0.017630048
309,0.0033047884
310,-0.012694974
311,-0.0068542273
312,-0.0003765118
313,-0.012535336
314,-0.016783535
315,-0.002819237
316,-0.004654916
317,0.0018116431
318,-0.00956933
319,-0.0020071887
320,0.011195432
321,0.0028875049
322,-0.010992087
323,0.012585225
324,-0.0017502593
325,-0.012415983
326,-0.0011622102
327,0.0075765443
328,-0.0072057457
329,-0.01380683
330,0.013939712
331,0.0038317826
332,-0.0108717475
333,-0.006462332
334,0.016379269
335,0.0068715126
336,0.0030307446
337,0.0032854027
338,-0.0036531752
339,0.0027053554
340,-0.00043302777
341,0.0011664167
342,0.011404255
343,0.016725875
344,0.0017755756
345,0.012456165
346,-0.014076701
347,0.010748688
348,0.002186942
349,-0.0041219885
350,-0.0025076529
351,0.0131138265
352,-0.011137784
353,0.00052959414
354,0.010179783
355,-0.006080027
356,-0.0087922765
357,-0.0036421164
358,-0.0075578727
359,-0.015707768
360,0.007211847
361,-0.007282413
362,-0.0020547314
363,-0.0024730915
364,-0.0063490393
365,-0.009136914
366,-0.0055086752
367,-0.002048081
368,-0.005503468
369,0.0072599864
370,0.011831679
371,0.0050363126
372,-0.004203759
373,-0.016581127
374,0.0020927514
375,0.0029215892
376,0.0015027996
377,-0.004940509
378,-0.01184888
379,-0.0073257694
380,0.0035097415
381,0.0053280033
382,0.003727429
383,-0.015020064
384,-0.011583302
385,-0.008105186
386,0.008297651
387,0.007622539
388,-0.0042856727
389,0.0131724
390,-0.0044785063
391,0.01235812
392,0.0033706923
393,0.0033260467
394,0.013952437
395,-0.009349617
396,-0.0122797955
397,-0.002303882
398,0.00271413
399,0.018083172
400,0.009395474
401,-0.0012081221
402,0.0027554384
403,-0.0023600317
404,0.015056757
405,-0.01469436
406,0.011134376
407,-0.019495448
408,-0.0056531676
409,-0.010764627
410,-0.008119629
411,-0.013623292
412,-0.013524099
413,0.010909496
414,0.009653719
415,0.003616888
416,-0.0026208607
417,0.019091226
418,-0.00095105555
419,0.0030087864
420,-0.014925086
421,-0.009292956
422,0.0055517773
423,0.009516078
424,0.0035519018
425,-0.006825589
426,-0.009631774
427,-0.007388596
428,0.0013433016
429,0.0020277526
430,-0.014111252
431,0.0014747971
432,0.0018455369
433,-0.017463494
434,-0.011610412
435,0.0072652036
436,0.0013425634
437,0.0021745975
438,0.006723659
439,-0.019567966
440,0.018634683
441,0.0006906338
442,0.0054185046
443,-0.00196983
444,-0.0015818084
445,0.005343053
446,0.008617458
447,0.011394811
448,0.004225555
449,0.014100243
450,0.012182972
451,0.0019971898
452,0.01805161
453,-0.004548126
454,0.0027475795
455,0.00082476565
456,-0.011131248
457,-0.008876955
458,-0.01261576
459,-0.011559264
460,0.003435809
461,9.306211e-05
462,-0.00044578713
463,-0.011056008
464,-0.019472575
465,0.0056876205
466,-0.0027289577
467,0.006807212
468,-0.0026384138
469,-0.014966257
470,-0.0030234065
471,-0.0015950009
472,-0.011614022
473,0.005689962
474,-0.004035021
475,0.013064202
476,0.0073531885
477,0.0017672783
478,-0.009917983
479,-0.01060205
480,0.0037608298
481,0.004386692
482,0.014040462
483,0.00531469
484,-0.0012761843
485,0.0066823335
486,0.0146456715
487,0.002181972
488,-0.001783352
489,-0.0034673028
490,0.017444428
491,0.013396971
492,0.0053881207
493,0.0018604622
494,0.012645175
495,0.018993294
496,0.015959175
497,0.013042501
498,-0.0044197175
499,0.0055807615
500,0.011777819
501,-0.00058035913
502,-0.019362366
503,0.0045961216
504,-0.019906053
505,0.001643915
506,-0.001643761
507,-0.0009202897
508,-0.007419425
509,0.009325518
510,-0.017376807
511,0.0027659473
512,-0.013823808
513,-0.005661892
514,0.0033857534
515,0.0055751665
516,0.014328862
517,0.004124486
518,-0.0035461928
519,-0.0035579763
520,0.008219137
521,0.006085782
522,-0.012122174
523,-0.0020021247
524,0.0050272723
525,0.008007751
526,-0.011408846
527,-0.00058321265
528,-0.00093718985
529,0.0054549724
530,-0.0027909898
531,-0.019391872
532,-0.004790534
533,-0.0004161007
534,0.008917691
535,0.0014796698
536,0.0036467104
537,-0.018585445
538,-0.00071985106
539,0.00045454875
540,-0.00039329313
541,0.008614474
542,0.0020977624
543,-0.012247157
544,-0.006721241
545,0.00014347445
546,-0.0026993374
547,-0.013090712
548,-0.011840126
549,0.016431265
550,-0.006798055
551,-0.0065340064
552,-0.012904428
553,-0.0012084397
554,-0.0021481283
555,0.0058812024
556,0.013857423
557,0.014247
558,-0.0056236694
559,-0.0042626834
560,0.013590646
561,-0.013159982
562,0.0013797438
563,-0.0076865535
564,-0.011813205
565,0.010609058
566,-0.009504325
567,0.0074919993
568,-0.004096842
569,-0.0011888713
570,-0.00070556364
571,-0.0035817095
572,-0.003130258
573,-0.000504778
574,0.0019529552
575,-0.008994974
576,0.013636245
577,-0.0014851929
578,0.009641457
579,-0.008334386
580,-0.00073075993
581,-0.007951907
582,-0.005003411
583,0.003967733
584,0.010060411
585,0.009063636
586,-0.010202139
587,0.005093732
588,-0.007976061
589,0.0019015782
590,0.01021669
591,-0.00869768
592,0.0010842745
593,-0.007898192
594,0.008556892
595,0.009366341
596,0.0149571495
597,-0.010259886
598,-0.0029751232
599,-0.0016008153
600,0.0036695718
601,-0.010337349
602,-0.00936704
603,-0.00066919107
604,0.009074418
605,0.012236825
606,0.012339561
607,-0.0010212291
608,-0.007840532
609,0.0037974524
610,0.014204338
611,0.003381421
612,-0.0028865957
613,0.017760657
614,0.008852848
615,0.0035307207
616,-0.0014817474
617,-0.0066851634
618,0.0028836133
619,0.013701573
620,-0.0024075026
621,0.0065312237
622,0.006847358
623,0.0045889313
624,0.003244514
625,0.002718324
626,-0.011497128
627,-0.003511023
628,0.006629437
629,0.015622442
630,-0.0042460896
631,0.01172341
632,-0.009564464
633,-0.013637934
634,-0.0031628017
635,-0.006186328
636,0.0018358654
637,-0.0031012348
638,0.00024408397
639,0.008862981
640,0.017063914
641,-0.009604833
642,-0.011224741
643,-0.00016849929
644,0.003911885
645,0.016085332
646,0.007491731
647,-0.015616827
648,0.004478384
649,0.008158108
650,-0.009676916
651,0.006701238
652,0.0039119096
653,-0.008483308
654,0.006733933
655,0.006781936
656,-0.0037714234
657,0.0010010933
658,0.010914924
659,0.004438221
660,0.009557701
661,-0.010783375
662,0.004508119
663,0.0039498517
664,-0.008178745
665,0.0009791058
666,0.00014616315
667,-0.015749974
668,-0.008162093
669,0.0028455667
670,-0.0047720196
671,0.0070246863
672,0.0037171473
673,0.0027970134
674,-0.002789323
675,0.017943736
676,0.010215781
677,0.00015574877
678,-0.0014553528
679,0.00082138606
680,-0.0113435015
681,-0.0076651163
682,-0.0019086682
683,-0.0036329054
684,0.01051388
685,0.0036945438
686,0.0137618575
687,0.009105279
688,-0.014058059
689,0.0075608254
690,0.004254992
691,0.01590706
692,-0.0033336107
693,-0.0069201896
694,0.0140225785
695,-0.012333358
696,-0.00895046
697,-0.014969196
698,-0.016970946
699,-0.0064833243
700,-0.007870035
701,0.009969412
702,-0.0039440985
703,-0.006693005
704,0.0069766054
705,0.012480366
706,0.0046569603
707,0.013666325
708,-0.003598199
709,0.019851958
710,-0.009164212
711,-0.0005728473
712,0.0034312138
713,0.0025594232
714,0.0022294295
715,0.0110786455
716,0.005495013
717,-0.006527094
718,0.015149227
719,-0.015535792
720,-0.014983507
721,-0.004938043
722,-0.0071594524
723,-0.00417018
724,-0.010358371
725,-0.0019168324
726,0.0020076614
727,0.0012325966
728,0.0059437538
729,0.0064510526
730,-0.012204001
731,-0.009425098
732,0.004213407
733,0.0069746743
734,-0.0028909505
735,-0.009158871
736,0.0069616335
737,0.012457168
738,-0.001156058
739,-0.002671756
740,-0.00983005
741,-0.0060609584
742,-0.013461647
743,0.0061191334
744,0.012407671
745,0.004979166
746,-0.012354536
747,0.00023727094
748,-0.0041050967
749,0.0056021996
750,0.0012353389
751,-0.007153609
752,-0.0056352117
753,0.014655781
754,-0.0068894597
755,-0.016570242
756,-0.011634797
757,0.008621596
758,0.010219918
759,0.010841646
760,0.012434868
761,-0.011980889
762,0.01909268
763,0.018357875
764,-0.006838831
765,-0.0018390093
766,-0.0016212473
767,-0.000788457
768,0.0049796146
769,-0.005754153
770,0.0064834137
771,0.017190844
772,-0.0073715695
773,0.0019897285
774,-0.004533256
775,0.008179925
776,-0.00492504
777,0.0065280413
778,-0.011898058
779,0.008141938
780,-0.015942615
781,-0.006291322
782,0.00600181
783,0.0038423755
784,0.0041702446
785,-0.0031913717
786,-0.00796721
787,0.0021281447
788,0.0007971738
789,0.0046294676
790,-0.0057733487
791,-0.005124946
792,-0.0023772197
793,0.006366305
794,0.0025965055
795,-0.011413313
796,-0.0010138226
797,0.006144372
798,0.011276432
799,0.0010206995
800,-0.0021332754
801,0.0027948548
802,0.0020738258
803,-0.0044936114
804,0.0028793945
805,-0.0040022773
806,-0.0008347171
807,0.0025796075
808,-0.0164407
809,0.00696181
810,-0.005185652
811,-0.010572857
812,-0.01425327
813,0.010983906
814,-0.01577434
815,0.009905215
816,-0.005535603
817,-0.012090957
818,0.0032412573
819,-0.008811199
820,-0.0044217734
821,-0.0034927775
822,0.010809448
823,-0.004761009
824,-0.01229938
825,0.013730028
826,0.000977648
827,0.011410101
828,0.014961022
829,0.006986078
830,-0.01575051
831,-0.009825563
832,-0.0107883345
833,-0.0064328616
834,-0.012681656
835,0.014446293
836,0.0015717305
837,0.010002731
838,-0.0026750094
839,0.0052285707
840,-0.011714982
841,0.012252481
842,0.013987423
843,-0.0038771892
844,-0.005189515
845,-0.015317259
846,0.0070255157
847,0.004727252
848,0.003626928
849,-0.011806577
850,-0.018845877
851,-0.0027766114
852,-0.0020023263
853,-0.0038362818
854,-0.0020887973
855,0.0012778934
856,-0.008239961
857,-0.009573138
858,-0.000802344
859,0.001131703
860,-0.009565978
861,-0.019412557
862,-0.0063901497
863,-0.0032287417
864,-0.004111475
865,-0.0018845147
866,0.01641693
867,-0.0037809247
868,-0.010786898
869,-0.01077711
870,0.0011000899
871,0.0050329906
872,0.008295509
873,0.0012270611
874,0.008541207
875,-0.007462622
876,-0.0018579217
877,0.0014651832
878,0.011318722
879,-0.018771304
880,0.009437392
881,0.008023031
882,-0.013672882
883,-0.013280176
884,-0.0036274602
885,0.006472012
886,0.001520631
887,-3.537751e-05
888,0.0042146915
889,0.0020863656
890,-0.0033432646
891,-0.0018691482
892,-0.004968667
893,-0.0075465115
894,-0.007885927
895,0.006442966
896,-0.008801934
897,0.0028487926
898,-0.0027840622
899,0.017497992
900,0.0036787104
901,0.004020358
902,0.0033478541
903,0.005149286
904,0.0054705623
905,0.001904304
906,-0.00045711614
907,0.00648164
908,-0.004207092
909,0.017260773
910,-0.0036041262
911,0.0008900323
912,0.0049514505
913,-0.0049875686
914,0.0084284125
915,-0.0028007627
916,0.0038850436
917,-0.0012233452
918,-0.006230328
919,-0.015535813
920,-0.0054597966
921,-0.01710766
922,0.010694618
923,-0.0015971896
924,0.017136665
925,0.00862634
926,0.005761202
927,0.0089929495
928,-0.018167092
929,-0.0064716386
930,0.006590427
931,-0.013897045
932,-0.018540809
933,1.4892847e-05
934,9.3368224e-05
935,0.010912507
936,-0.01102905
937,-0.0011027617
938,-0.013477012
939,-0.01653122
940,-0.016894765
941,-0.009306178
942,0.003187846
943,-0.012335118
944,0.0025295797
945,-0.012276178
946,0.013571409
947,-0.010471843
948,-0.006110725
949,-0.0016652027
950,-0.008001332
951,0.007375892
952,0.0027498524
953,-0.007004858
954,-0.0021355536
955,-0.0047907615
956,-0.009014567
957,0.0069293864
958,0.004839407
959,0.011478598
960,-0.0011931913
961,0.009763965
962,0.006415448
963,-0.014698633
964,0.0017156244
965,0.0016614905
966,-0.015336461
967,0.019509109
968,-0.012163631
969,-0.012170777
970,-0.005680747
971,0.016882874
972,0.0031340152
973,0.0034376022
974,0.0072034732
975,-0.0072384486
976,-0.007824319
977,0.011278128
978,-0.016533313
979,-0.0067248316
980,0.0043374063
981,0.018130293
982,-0.0059579946
983,-0.0024237402
984,0.0053238086
985,0.004605899
986,0.012112923
987,-0.016783182
988,0.0019716162
989,0.012905015
990,-0.0100002065
991,-0.003189565
992,-0.0038508272
993,0.007222732
994,-0.0009004949
995,0.0021621939
996,0.0037453033
997,0.0016398322
998,-0.010028197
999,-0.0079862755
1000,-0.002308833
1001,0.0044811796
1002,0.00051856705
1003,-0.008961423
1004,0.0048338855
1005,0.012902077
1006,-0.007619679
1007,0.0077948063
1008,0.0044978186
1009,0.006433528
1010,-0.0020902627
1011,0.006499038
1012,-0.007891602
1013,0.0014704878
1014,-0.003238234
1015,-0.016603606
1016,-0.0058854576
1017,-0.0042279754
1018,-0.0031395673
1019,0.0040242337
1020,-0.014419251
1021,0.009645916
1022,0.013134284
1023,2.2220995e-05
1024,-0.0022850968
1025,0.001056754
1026,-0.0029907366
1027,-0.002117365
1028,0.013279473
1029,0.007610579
1030,-0.009751276
1031,-0.0026072317
1032,-1.6674465e-05
1033,0.0010298911
1034,-0.0070238193
1035,0.009479116
1036,-0.012338396
1037,0.009317952
1038,0.006702106
1039,0.016181786
1040,-0.016018223
1041,-0.0007354163
1042,0.010654143
1043,-0.0066510006
1044,0.004302787
1045,-0.00053400197
1046,0.0019267959
1047,0.006639344
1048,-0.002810756
1049,0.0043526175
1050,0.013671261
1051,0.019973816
1052,-0.0045886794
1053,-0.004733592
1054,-0.000705719
1055,-0.0017701017
1056,-0.007997754
1057,0.004250637
1058,0.009804609
1059,-0.018285897
1060,-0.0032426687
1061,-0.007785723
1062,-0.005646343
1063,9.04801e-05
1064,-0.0011121283
1065,0.0027127631
1066,0.007075537
1067,-0.014181629
1068,-0.011435843
1069,0.016285239
1070,0.0059943143
1071,-0.009406132
1072,-0.009934344
1073,-0.003980174
1074,-0.0005476388
1075,0.0059353975
1076,0.0032432382
1077,-0.0010465375
1078,-0.0073224027
1079,-0.0072645196
1080,-0.013642795
1081,-0.003695537
1082,0.0040912307
1083,0.0012142636
1084,-0.009824366
1085,0.007291032
1086,0.0090255495
1087,0.006465367
1088,0.012043274
1089,0.014665478
1090,-0.008275474
1091,-0.0068942956
1092,-0.017898975
1093,0.002208896
1094,-0.014334317
1095,0.008161863
1096,0.002111275
1097,0.0001418061
1098,-0.00084751385
1099,0.0017498095
1100,-0.006220676
1101,-0.0135850515
1102,0.008228633
1103,-0.017570104
1104,-0.019642564
1105,0.002363926
1106,0.013786276
1107,-0.01314863
1108,-0.018859994
1109,-0.0044122124
1110,-0.0053935233
1111,-0.017233714
1112,0.00037895772
1113,0.0088774655
1114,0.0031020143
1115,0.0021140669
1116,-0.011995713
1117,0.0022247604
1118,0.007839865
1119,-0.002666159
1120,-0.0069261664
1121,-0.006072401
1122,-0.0068043554
1123,0.004418655
1124,0.015028617
1125,-0.0047069318
1126,0.008070328
1127,0.0013428258
1128,-0.018716283
1129,-0.009598256
1130,-0.01427351
1131,-0.0105229365
1132,-0.0065116747
1133,-0.012835298
1134,-0.008165549
1135,0.011374834
1136,0.012174463
1137,-0.0041727927
1138,-0.0018759693
1139,0.0013773493
1140,0.0104752565
1141,-0.0077419844
1142,0.01127559
1143,0.012271552
1144,-0.00747886
1145,0.00071575807
1146,0.004832054
1147,-0.0065857344
1148,0.009306757
1149,-0.016159194
1150,-0.00038202782
1151,0.0050696754
1152,-0.0040695285
1153,-0.009287073
1154,0.002472882
1155,-0.01978988
1156,0.012920515
1157,0.011685388
1158,0.0026393025
1159,0.015208473
1160,-0.0035895132
1161,-0.008376082
1162,0.0024157923
1163,-0.003755013
1164,0.003691105
1165,-1.8050527e-05
1166,0.0030151994
1167,-0.0022609376
1168,-0.0075353766
1169,-0.014014073
1170,-0.0075771175
1171,-0.00064620527
1172,-0.008040619
1173,-0.002135458
1174,-0.008304505
1175,-0.017407008
1176,0.0013681089
1177,-0.0064380444
1178,-0.0022742627
1179,0.0071003805
1180,-0.004699734
1181,0.013634483
1182,-0.00983983
1183,0.01922229
1184,0.010090538
1185,0.006602746
1186,-0.0031733052
1187,-6.633737e-05
1188,-0.000105456886
1189,-0.015173443
1190,-0.006376399
1191,0.011354703
1192,0.0003208801
1193,0.0113080125
1194,-0.013673124
1195,-0.0011073229
1196,0.003333396
1197,-0.00698195
1198,0.0075906473
1199,-0.0014899246
1200,-0.0032772464
1201,-0.004449891
1202,0.004242117
1203,-0.007732386
1204,-0.0033699742
1205,0.0019693142
1206,-0.009871708
1207,-0.012063253
1208,0.008196329
1209,0.0005764201
1210,0.013962371
1211,0.00340974
1212,-0.004967951
1213,-0.0027837115
1214,-0.0036445155
1215,0.010204035
1216,-0.010332364
1217,-0.01845721
1218,0.00869861
1219,-0.0008044076
1220,0.011566822
1221,0.0029347462
1222,-0.0029358272
1223,-0.006011927
1224,-0.0069451
1225,0.011477666
1226,0.0032948249
1227,0.0031107247
1228,-0.003909237
1229,-0.0053553325
1230,-0.0004478917
1231,-0.007831643
1232,0.012695748
1233,0.01582304
1234,-0.016322756
1235,-0.0056662112
1236,0.01259468
1237,-0.0096636815
1238,0.004833111
1239,0.0024767958
1240,-0.011259833
1241,0.009484918
1242,-0.0020022646
1243,-0.0075253686
1244,0.009286164
1245,0.0076369154
1246,0.00061304733
1247,0.0012879539
1248,-0.0031956218
1249,0.006812824
1250,-4.6324152e-05
1251,-0.01115762
1252,-0.0073926304
1253,0.0006206892
1254,0.006469557
1255,-0.006853104
1256,0.015067406
1257,0.01009089
1258,-0.009952741
1259,0.0031170456
1260,0.013707401
1261,0.015101993
1262,-0.0021169465
1263,0.0054184888
1264,-0.0058008293
1265,-0.017868116
1266,-0.016380237
1267,-0.0056237956
1268,-0.008286594
1269,-0.0145053165
1270,-0.006028859
1271,0.003724947
1272,-0.009259479
1273,0.0005806277
1274,-0.0073622195
1275,0.009850799
1276,0.006087976
1277,-0.0013073994
1278,-0.00038669512
1279,0.0059779733
1280,0.016875
1281,0.007794603
1282,-0.0024946146
1283,-0.00039555834
1284,0.0022324026
1285,0.019195002
1286,-0.0075584585
1287,0.013782025
1288,-0.0025631066
1289,0.00087783614
1290,-0.009933265
1291,-0.016507072
1292,5.356129e-05
1293,0.0013724499
1294,0.004788082
1295,-0.0053103166
1296,0.009652764
1297,0.010250544
1298,-0.0013156917
1299,-0.008834062
1300,-0.010564798
1301,-0.0031989238
1302,0.0015159781
1303,0.0123927845
1304,-0.009799255
1305,0.009307258
1306,0.010108671
1307,0.000439279
1308,0.008077018
1309,-0.009161481
1310,-0.006386408
1311,-0.01477815
1312,-0.0061836746
1313,-0.010110799
1314,-0.0003949162
1315,-0.006005925
1316,-4.1727784e-05
1317,0.0072374567
1318,0.012830453
1319,0.004040146
1320,0.005216512
1321,-0.0073015695
1322,0.0042662923
1323,-0.0058448594
1324,0.002114797
1325,0.01131562
1326,0.0016611993
1327,-0.007609132
1328,-0.0095577175
1329,0.001119121
1330,0.0050803022
1331,0.009946287
1332,0.018145725
1333,0.008243013
1334,-0.016591182
1335,-0.012915013
1336,0.019414345
1337,-0.0111513045
1338,0.012206796
1339,0.00933663
1340,-0.008949704
1341,0.008577
1342,0.0005883461
1343,-0.0049619954
1344,-0.004486942
1345,0.0018347369
1346,0.0014201425
1347,0.009913343
1348,0.00023653459
1349,-0.010864236
1350,-0.007928555
1351,-0.0024158203
1352,0.0069050575
1353,0.0051461966
1354,-0.006109059
1355,-0.0007836427
1356,0.01157406
1357,0.0011015944
1358,0.008117564
1359,0.0010930133
1360,0.012009362
1361,-0.010164173
1362,0.008248858
1363,0.008637835
1364,0.0176117
1365,0.0047478364
1366,0.0023771734
1367,-0.0016059043
1368,-0.0018512277
1369,-0.007008698
1370,0.012274932
1371,-0.0074508265
1372,0.012210839
1373,0.0045592277
1374,0.0018941367
1375,0.0049146456
1376,-0.0012851292
1377,0.0058774278
1378,-0.014639494
1379,0.0055545634
1380,-0.012634871
1381,-0.0013275809
1382,-0.0076155677
1383,-0.009680087
1384,-0.016106172
1385,-0.0019727375
1386,0.011837657
1387,-0.0016114642
1388,0.0017463346
1389,0.011090041
1390,-0.0072576096
1391,0.0024837274
1392,0.00036909114
1393,-0.01711401
1394,-0.009427735
1395,0.00010714508
1396,0.011888555
1397,-0.0064914827
1398,-0.0057564997
1399,0.00076740934
1400,0.0023872105
1401,-0.006668316
1402,-0.0128788175
1403,0.004454121
1404,0.005793593
1405,0.008751842
1406,-0.01284925
1407,0.0070893764
1408,-0.0037122725
1409,-0.009576526
1410,0.01205431
1411,0.013255965
1412,-0.004761907
1413,0.007202888
1414,-0.0043728477
1415,0.012159276
1416,0.008122747
1417,-0.0029290675
1418,0.00308293
1419,-0.00175215
1420,0.010678313
1421,-0.005627992
1422,0.010851186
1423,-0.018974772
1424,0.017779868
1425,-0.0026345428
1426,-0.01398784
1427,-0.0057111722
1428,0.013770438
1429,-0.004992047
1430,-0.0047383006
1431,-0.0040567257
1432,-0.008497727
1433,0.018804887
1434,-0.002606136
1435,-0.005103583
1436,0.0069363946
1437,0.015388232
1438,0.005452224
1439,-0.004058202
1440,0.0043829316
1441,-0.0034808011
1442,0.012568165
1443,-0.01191822
1444,0.0102068465
1445,-0.011299858
1446,-0.0058770287
1447,-0.0064340485
1448,-0.0129463915
1449,0.016963478
1450,-0.0070512816
1451,-0.0025646773
1452,-0.016133675
1453,0.008090358
1454,-0.0062376717
1455,0.006116567
1456,-0.008374874
1457,-0.0003100764
1458,0.0022179547
1459,0.009954939
1460,-0.01679085
1461,0.0038392416
1462,-0.019636923
1463,0.006154983
1464,-0.00046352058
1465,0.0009927469
1466,-0.0055297553
1467,-0.0021647504
1468,0.005447752
1469,-0.00907057
1470,-0.010330938
1471,0.016320428
1472,0.003594067
1473,-0.012540781
1474,0.0033914929
1475,-0.0020367776
1476,0.0016777937
1477,0.007023843
1478,0.008419334
1479,0.006461895
1480,0.009397453
1481,-0.009173643
1482,0.007962384
1483,0.0003660958
1484,0.0071387123
1485,-0.0036725262
1486,0.0075206165
1487,0.0052501867
1488,0.0060808966
1489,0.004512475
1490,0.012106776
1491,0.008712836
1492,-0.004317123
1493,0.0035448936
1494,-0.00331805
1495,0.0026273413
1496,0.0031023705
1497,0.0029968212
1498,-0.00014420092
1499,0.0043110065
1500,0.00537794
1501,0.00082792866
1502,0.0029743824
1503,0.018644422
1504,0.007358016
1505,-0.0070170444
1506,-0.013035017
1507,-0.0034513301
1508,-0.007816156
1509,-0.004819978
1510,0.0006371575
1511,-0.002035123
1512,-0.016200744
1513,-0.0021644311
1514,-0.019436112
1515,0.008371598
1516,0.019175893
1517,0.011460015
1518,0.007821196
1519,-0.015573918
1520,-0.008548273
1521,0.014057927
1522,-0.0063846554
1523,0.0060824156
1524,0.0015703952
1525,-0.0037806842
1526,-0.0035496978
1527,0.005708083
1528,0.016786
1529,0.013923127
1530,0.0028731572
1531,0.00029170056
1532,-0.015547429
1533,0.001222214
1534,-0.0022729866
1535,-0.0055787433
1536,0.00077299174
1537,-0.0035072917
1538,-0.0029129551
1539,0.0064827465
1540,-0.009623335
1541,0.006984351
1542,0.00059123617
1543,0.0007898626
1544,-0.004109314
1545,0.005736928
1546,-0.005089394
1547,0.0005255387
1548,0.01787989
1549,0.011508294
1550,0.015378773
1551,0.0047421264
1552,-0.0054846643
1553,-0.009876883
1554,-0.011473019
1555,0.0030932887
1556,0.0084772315
1557,0.007907824
1558,-0.0099307215
1559,-0.015211064
1560,-0.0013103194
1561,-0.010021972
1562,0.0142950015
1563,0.013423915
1564,-0.0066641723
1565,0.0018656988
1566,-0.0050235298
1567,0.004959084
1568,-0.013566326
1569,0.0030256533
1570,0.0010448699
1571,0.012381055
1572,0.014652392
1573,0.008942299
1574,0.004821925
1575,-0.0015765663
1576,-0.004579982
1577,-0.008267144
1578,-0.0058189216
1579,-0.0006810049
1580,-0.0010735027
1581,-0.006971445
1582,0.002906238
1583,-0.00577401
1584,-0.009003579
1585,-0.014220692
1586,-0.0063181147
1587,0.010661283
1588,-0.0040943413
1589,0.0031971484
1590,-0.0030665267
1591,-0.0024576457
1592,0.0007699139
1593,0.009843387
1594,-0.010347562
1595,-0.00579247
1596,-0.00801959
1597,0.016063752
1598,-0.0016846837
1599,-0.006268052
1600,-0.014672738
1601,0.0025440792
1602,-0.0112087205
1603,-0.0037835052
1604,0.019112425
1605,-0.017139547
1606,0.0057268287
1607,0.001343534
1608,0.0055565904
1609,0.00047873822
1610,-0.0011661031
1611,0.005989534
1612,0.0194156
1613,-0.005972676
1614,-0.0015093465
1615,0.006937123
1616,-0.017233131
1617,-0.008945149
1618,0.0013695703
1619,0.007933672
1620,0.014339579
1621,-0.013700112
1622,-0.0012153287
1623,-0.014875141
1624,-0.0025006197
1625,0.0015651284
1626,-0.0033358305
1627,0.0014882821
1628,0.017625611
1629,-0.01451718
1630,0.007083111
1631,0.0020223719
1632,-0.00905925
1633,0.008516284
1634,-0.0009861393
1635,-1.3841909e-05
1636,0.015073132
1637,-0.0001013351
1638,-0.006763112
1639,-0.017317453
1640,0.002635267
1641,-0.007603511
1642,-0.0011126352
1643,0.0032067213
1644,-0.005084024
1645,-0.0029121544
1646,-0.015803702
1647,-0.0075187664
1648,-0.00063760625
1649,-0.0046065566
1650,-0.000715156
1651,-0.0034102513
1652,0.0015308703
1653,-0.012204506
1654,-0.009472238
1655,0.009480532
1656,0.0015799932
1657,0.0011371137
1658,0.004615801
1659,0.007960788
1660,-0.006889286
1661,-0.00019708659
1662,-0.0020471294
1663,-0.01950722
1664,-0.004872071
1665,0.011182418
1666,0.0086532645
1667,0.012483897
1668,-0.011483203
1669,-0.018645419
1670,0.011760375
1671,-0.016968694
1672,-0.0042486195
1673,0.0044722166
1674,-0.0056752036
1675,0.0026671793
1676,0.008297834
1677,-0.014328562
1678,-0.0053449175
1679,0.014478558
1680,-0.0012660798
1681,-0.007307938
1682,-0.012690642
1683,0.0022793652
1684,-0.001401129
1685,-0.0106834555
1686,0.010899528
1687,-0.0066749076
1688,-0.0027429215
1689,0.009928887
1690,-0.018932147
1691,0.0031289165
1692,0.00075659464
1693,0.018601812
1694,-0.0023341123
1695,0.0053333114
1696,0.017198656
1697,0.013867713
1698,0.009615798
1699,0.012236101
1700,0.002967591
1701,-0.0065806704
1702,0.006989233
1703,-0.0010628438
1704,-0.003793818
1705,-0.0020843921
1706,-0.004713235
1707,0.0003090829
1708,-0.007683179
1709,0.0011849508
1710,0.0015041964
1711,-0.015669879
1712,-0.00020215947
1713,-0.0054984726
1714,-0.003697034
1715,0.012655523
1716,-0.019844228
1717,0.009156941
1718,0.0053259046
1719,-0.010065689
1720,0.0056593646
1721,0.0076980884
1722,0.0009932901
1723,-0.00014891362
1724,-0.0013615923
1725,0.00097068946
1726,-0.00804158
1727,-0.007192551
1728,-0.004981985
1729,-0.0013025699
1730,-0.0012021385
1731,0.003178636
1732,-0.005994149
1733,-0.0009627062
1734,0.00434568
1735,-0.01115537
1736,0.003809751
1737,0.012432951
1738,-0.0093933875
1739,0.0012127557
1740,0.0077414345
1741,-0.013065334
1742,0.016062673
1743,0.011206155
1744,0.0110053215
1745,0.00822242
1746,0.0118530085
1747,0.00038758814
1748,-0.0045523588
1749,0.005756005
1750,-0.010192656
1751,0.007560368
1752,0.0032172904
1753,0.006063593
1754,0.0067090597
1755,-0.014399913
1756,-0.0030084613
1757,0.007105133
1758,-0.0036396086
1759,-0.0020848578
1760,0.00088980095
1761,0.0011041089
1762,0.003319199
1763,0.0045883106
1764,9.503915e-05
1765,-0.008080859
1766,-0.008809502
1767,0.0063961684
1768,0.013553499
1769,-0.0076040663
1770,0.0011329174
1771,-0.01429693
1772,0.0016613044
1773,0.009981597
1774,0.010841074
1775,0.009141989
1776,-0.0103602195
1777,-0.008265499
1778,0.010822331
1779,-0.009388036
1780,-0.0033193324
1781,0.0035023214
1782,-0.013247943
1783,-0.0104426695
1784,-0.0065825586
1785,-0.0036147556
1786,-0.003650114
1787,-0.0006441339
1788,0.007700771
1789,0.005501846
1790,0.016688589
1791,0.007060508
1792,0.0004507769
1793,0.0095719425
1794,-0.008644557
1795,-0.0073967674
1796,0.0028116994
1797,0.0012091316
1798,-0.0061411057
1799,-0.016035
1800,0.016166827
1801,-0.0049201855
1802,-0.0017312607
1803,0.011710524
1804,-0.019184604
1805,0.004272688
1806,0.010499427
1807,-0.0046903747
1808,-0.0072719883
1809,-0.002961538
1810,-0.0027971957
1811,0.00783221
1812,0.0084798075
1813,-0.004611374
1814,-0.00090045796
1815,0.0094389245
1816,-0.010256
1817,0.009481189
1818,0.0057639224
1819,-0.0092550125
1820,0.003814038
1821,0.0021431034
1822,-0.0013901411
1823,-0.0010580742
1824,0.01039589
1825,-0.013359553
1826,-0.013173813
1827,0.002966688
1828,0.0033093058
1829,0.018521087
1830,-0.0018759847
1831,-0.011455776
1832,0.017474586
1833,-0.0092408005
1834,-0.008472666
1835,-0.015682677
1836,-0.0006735716
1837,0.005230637
1838,0.010836829
1839,0.01768721
1840,0.008990313
1841,-0.0038153175
1842,0.0072370814
1843,-0.010227455
1844,0.0050506145
1845,0.0010738391
1846,0.003702877
1847,0.010343118
1848,0.013583416
1849,-0.011735276
1850,-0.009925416
1851,-0.00020889168
1852,0.004047564
1853,0.010642771
1854,-0.0003960835
1855,0.0070041493
1856,-0.0034241339
1857,0.007587494
1858,-0.0030366299
1859,0.018149462
1860,0.008694233
1861,0.00011676722
1862,0.007922565
1863,0.007554926
1864,0.013091036
1865,-0.00533599
1866,-0.011556462
1867,-0.0005377456
1868,0.0009965183
1869,-0.0044323276
1870,-0.013319254
1871,0.010150909
1872,-0.0006442953
1873,-0.0020413282
1874,-0.0032202322
1875,-0.016030641
1876,-0.0022113807
1877,-0.00816621
1878,0.008546625
1879,-0.006127636
1880,0.010817887
1881,0.014060759
1882,0.007898202
1883,0.007353224
1884,-0.016639763
1885,-0.00877
1886,-0.0019390787
1887,0.0031471916
1888,-0.009061544
1889,-0.0065833586
1890,-0.014673879
1891,-0.0065704905
1892,-0.009253592
1893,-0.015337261
1894,0.00540555
1895,-0.005981103
1896,-0.000105704756
1897,0.0050769625
1898,0.013038553
1899,0.0033996627
1900,0.0011315854
1901,0.002226232
1902,-0.0047158618
1903,0.01345425
1904,-0.013352914
1905,-0.008382514
1906,-0.009498993
1907,-0.00022396294
1908,0.014468125
1909,0.010069856
1910,0.0022347232
1911,0.0014390437
1912,-0.015255198
1913,-0.004571787
1914,0.001977778
1915,-0.005321021
1916,-0.0011043992
1917,0.006814579
1918,0.00494102
1919,-0.0060395557
1920,-0.008682377
1921,-0.00729522
1922,0.015153879
1923,0.0059704483
1924,0.010863148
1925,0.00374767
1926,0.0038919065
1927,-0.007348048
1928,0.0026586987
1929,-0.017688992
1930,0.003517449
1931,-0.013024349
1932,0.014882444
1933,0.0017429747
1934,0.0045607896
1935,-0.0030492598
1936,-0.008264328
1937,0.016920613
1938,-0.015515772
1939,-0.0043694763
1940,0.006259929
1941,-0.00426388
1942,0.0020787953
1943,-0.0022938168
1944,-0.0007159945
1945,0.0041362005
1946,0.012034898
1947,0.007771732
1948,-0.00843538
1949,-0.015835006
1950,-0.013258394
1951,0.0022172066
1952,-0.0081742555
1953,0.013288539
1954,-0.012891569
1955,-0.014606504
1956,-0.00787997
1957,-0.0030648627
1958,-0.013172712
1959,0.004014974
1960,-0.006312306
1961,-0.014290608
1962,0.013933364
1963,0.0020785122
1964,0.0045797788
1965,-0.008486298
1966,-0.00054851343
1967,0.014583278
1968,0.003612393
1969,-0.0025545964
1970,0.009728867
1971,-0.010900184
1972,-0.011785198
1973,0.0034356122
1974,-0.014095306
1975,0.008559393
1976,0.015795829
1977,0.0045204978
1978,-0.014091854
1979,0.017403478
1980,-0.0032089993
1981,0.0008115416
1982,-0.004237884
1983,0.007325954
1984,0.00051975844
1985,0.006923908
1986,0.011401892
1987,-0.0056513855
1988,0.01240759
1989,0.004605134
1990,-0.002786789
1991,0.004017245
1992,-0.0019415725
1993,-0.0032134273
1994,-0.010424653
1995,0.0058068223
1996,-0.0012109291
1997,-0.006751125
1998,-0.0023218563
1999,0.014661009
2000,-0.0061214287
2001,0.008356274
2002,-0.006911366
2003,0.012541409
2004,0.004123002
2005,0.008382363
2006,-0.0003937026
2007,-0.008490996
2008,-0.01152112
2009,-0.0030999302
2010,-0.007496977
2011,-0.011489469
2012,-0.0128845675
2013,0.002000986
2014,-0.015326518
2015,0.0036123085
2016,0.0161279
2017,-0.009135675
2018,0.0054150587
2019,0.0038702094
2020,-0.011435283
2021,-0.0123390015
2022,-0.0006175332
2023,-0.013046557
2024,-0.0038500174
2025,0.012967196
2026,0.009221505
2027,-0.014037497
2028,0.014462442
2029,0.0038950208
2030,0.0065315496
2031,-0.0015251455
2032,-0.0083985375
2033,-0.0050591733
2034,0.013221557
2035,-0.0026238824
2036,0.015435631
2037,0.008501435
2038,0.0054638432
2039,0.008770559
2040,-0.0043940237
2041,-0.0028083574
2042,-0.0013736204
2043,-0.010065618
2044,0.004586623
2045,-0.004685467
2046,0.00506748
2047,-0.007466311
2048,-0.0035086786
2049,0.0010376619
2050,-0.0010218024
2051,-0.006485553
2052,-0.009257829
2053,0.010651524
2054,0.004388466
2055,-0.003922217
2056,-0.014365744
2057,-0.009824795
2058,-0.00025448212
2059,-0.0008773522
2060,-0.0009481572
2061,0.0032629578
2062,0.0046376605
2063,0.007738134
2064,0.009576694
2065,0.016811555
2066,0.0024709324
2067,0.0074340813
2068,0.010208313
2069,-0.009572901
2070,-0.012021902
2071,-0.0027869542
2072,-0.0013647106
2073,0.0036201212
2074,0.0046267114
2075,0.013936818
2076,-0.0072828075
2077,-0.0022123388
2078,0.0027156388
2079,0.009145131
2080,-0.0025722443
2081,0.012573301
2082,0.012370182
2083,0.008254284
2084,-0.003433434
2085,-0.0073467596
2086,0.0060083596
2087,-0.01411315
2088,-0.0056787627
2089,-0.019292707
2090,0.009127879
2091,0.0059588244
2092,-0.0063747284
2093,0.01259278
2094,-0.004783991
2095,0.006807083
2096,0.0030234058
2097,0.0023322634
2098,0.009158815
2099,-0.015468095
2100,-0.0036402226
2101,0.003322597
2102,-0.010298583
2103,-0.0027715128
2104,-0.005333993
2105,-0.009137388
2106,0.017765762
2107,0.0038164423
2108,0.0023021377
2109,-0.0063247858
2110,-0.0034394478
2111,-0.016073642
2112,0.006367907
2113,7.14588e-05
2114,-0.0073484587
2115,-0.015770389
2116,0.006335468
2117,-0.005922162
2118,0.0024521498
2119,-0.0010062325
2120,-0.004162252
2121,-0.004478306
2122,-0.013287008
2123,0.002633627
2124,0.014086547
2125,-0.0151523985
2126,-0.009536349
2127,0.0029198856
2128,-0.006234999
2129,0.005328867
2130,0.006661614
2131,0.013995119
2132,-0.0111966925
2133,0.0121445935
2134,0.0049532745
2135,-0.0043863794
2136,-0.01129997
2137,-0.0023350336
2138,-0.010700874
2139,-0.014235519
2140,-0.004282046
2141,-0.009467398
2142,-0.004197433
2143,-0.00066675537
2144,-0.008917011
2145,-0.0016313753
2146,0.0050070807
2147,0.003100688
2148,-0.0010806752
2149,0.007031911
2150,0.007113803
2151,0.002048465
2152,0.011088491
2153,-0.011826285
2154,0.0011037204
2155,-0.002314711
2156,-0.002288288
2157,0.011305912
2158,-0.009774374
2159,0.00044357384
2160,0.0011827903
2161,-0.016019508
2162,0.0060643996
2163,-0.013410887
2164,0.006403368
2165,-0.0042176154
2166,-0.01286392
2167,-0.015702015
2168,-0.0076340917
2169,-0.01675269
2170,-0.004704324
2171,0.007529732
2172,-0.016637998
2173,0.0011835898
2174,0.0020885956
2175,-0.009730706
2176,0.010714196
2177,-0.0078179855
2178,0.0074439277
2179,0.017958527
2180,0.016669355
2181,0.01908523
2182,-0.0038664313
2183,-0.006213806
2184,-0.015471049
2185,-0.004343423
2186,0.014170682
2187,0.0037788663
2188,0.0034312736
2189,0.0010705028
2190,-0.00086155435
2191,0.0067349314
2192,-0.004117008
2193,0.009568951
2194,-0.010308913
2195,0.01109029
2196,0.0015130508
2197,0.012910349
2198,0.0016941127
2199,0.0043436354
2200,0.012590823
2201,1.8929737e-05
2202,0.008802525
2203,-9.361741e-05
2204,-0.006435399
2205,-0.0039953357
2206,-0.000507492
2207,0.01278044
2208,0.011857175
2209,-0.006840826
2210,0.0019352012
2211,0.0063538067
2212,0.0077689565
2213,-0.007917898
2214,0.014171898
2215,0.0075527756
2216,-0.00031174914
2217,0.0010078946
2218,0.0068185725
2219,-0.018663783
2220,-0.015484724
2221,-0.00973997
2222,-0.001154823
2223,-0.0027641288
2224,-0.007939908
2225,0.008755623
2226,0.00818237
2227,-0.0069191647
2228,0.0050470983
2229,-0.011448982
2230,0.005088165
2231,0.019690545
2232,-0.0044733207
2233,-0.0017246247
2234,-0.005255372
2235,-0.0025361378
2236,-0.011408888
2237,-0.004829172
2238,0.006025187
2239,-0.00024034404
2240,0.0016139777
2241,-0.005365635
2242,-0.008676062
2243,-0.009425042
2244,-0.0145911025
2245,-0.006992728
2246,0.018269774
2247,-0.012382059
2248,-0.012435261
2249,0.00086693343
2250,0.01678347
2251,-0.0005585532
2252,0.003304927
2253,0.011507412
2254,-0.017735805
2255,0.0076003727
2256,-0.015557591
2257,0.00962807
2258,-0.009820738
2259,0.009642235
2260,0.0016609492
2261,0.011667032
2262,-0.0026454513
2263,-0.0076160934
2264,0.0089198025
2265,0.0024900346
2266,-5.5292196e-05
2267,-0.00064281694
2268,-0.007708614
2269,-0.014430661
2270,0.01453748
2271,0.007424614
2272,-0.009795008
2273,-0.0063260933
2274,0.011453227
2275,0.012277078
2276,0.008348286
2277,-0.0032537
2278,0.0026430187
2279,-0.007889586
2280,0.015228034
2281,0.01797445
2282,-0.010009243
2283,0.015828723
2284,0.007976623
2285,0.0005817219
2286,-0.012595552
2287,0.007926402
2288,0.003593092
2289,0.010598189
2290,-0.006925854
2291,-0.017738376
2292,-0.004756228
2293,0.0046356283
2294,-0.007173337
2295,-0.0054961643
2296,0.008879854
2297,0.008221367
2298,0.006930071
2299,0.00426543
2300,-0.019256586
2301,0.008118905
2302,0.016362276
2303,-0.0015381458
2304,0.0054813386
2305,-0.0013513892
2306,-0.0164733
2307,-0.008631282
2308,-0.0062375097
2309,-0.0019379468
2310,0.0070856637
2311,-0.015091767
2312,-0.0058672605
2313,0.005043307
2314,0.005197298
2315,0.002696821
2316,-0.014355324
2317,0.004527314
2318,-0.0005925323
2319,0.013258868
2320,0.002173178
2321,-0.005705403
2322,-0.0019437568
2323,0.0021230069
2324,0.0054954407
2325,-0.002583828
2326,-0.0075141503
2327,0.0021962062
2328,-0.0006236423
2329,-0.005487912
2330,-0.008434913
2331,0.012214531
2332,0.019055694
2333,0.00502258
2334,-0.00759098
2335,-0.009335763
2336,-0.0019321662
2337,-0.015319022
2338,0.0054690256
2339,0.008863711
2340,-0.0019575635
2341,0.0052007264
2342,-0.0044489074
2343,-0.0152011085
2344,0.002457901
2345,-0.010903034
2346,-0.006083019
2347,5.673518e-05
2348,0.017089231
2349,0.007136062
2350,0.01632563
2351,-0.005968324
2352,0.002576048
2353,0.0021548402
2354,0.009497289
2355,0.0015526877
2356,0.013225859
2357,-0.0069059096
2358,-0.013192459
2359,-0.010343708
2360,0.0020838547
2361,0.014235958
2362,-0.01598398
2363,0.0023438944
2364,0.008925027
2365,-0.0011097209
2366,-0.012440984
2367,0.012731094
2368,-0.0062286113
2369,-0.012390897
2370,0.0034387796
2371,0.0011574827
2372,-0.008479262
2373,-0.015719397
2374,0.009659659
2375,-0.0029123945
2376,0.006856416
2377,-0.0030075924
2378,-0.0035885097
2379,0.0020410027
2380,-0.0067365207
2381,0.0044822115
2382,0.016077774
2383,-0.0076093087
2384,-0.0019213766
2385,-0.017028496
2386,-0.01066422
2387,0.0072287107
2388,0.0048119384
2389,0.0031383024
2390,-0.01731589
2391,-0.0101552075
2392,-0.0034389803
2393,-0.013176664
2394,-0.009016857
2395,0.011418919
2396,-0.010310203
2397,-0.003806134
2398,-0.00059119094
2399,-0.007422635
2400,-0.00085314526
2401,0.0060921717
2402,-0.00062821415
2403,-0.0043607024
2404,-0.0031692788
2405,0.0014126061
2406,0.0056531266
2407,-0.0055969236
2408,0.0032541486
2409,0.010806505
2410,0.0014468979
2411,0.004764426
2412,-0.010496315
2413,-0.006167225
2414,-0.014314305
2415,-0.005721677
2416,-0.004017416
2417,0.00041105377
2418,0.002592863
2419,0.0036518427
2420,0.0060729547
2421,0.0017520858
2422,-0.0051956843
2423,0.01023261
2424,0.005953743
2425,0.004879384
2426,-0.0059999796
2427,0.008960875
2428,0.010756366
2429,-0.0022036151
2430,0.000880202
2431,0.005311356
2432,-0.0045044636
2433,0.0038981496
2434,-0.0019346608
2435,0.0151965
2436,-0.0059862677
2437,0.010850884
2438,0.012057193
2439,-0.0017303277
2440,0.010089097
2441,-0.0023386395
2442,-0.012650902
2443,-0.0065660235
2444,0.008475523
2445,-0.0056610387
2446,0.011425816
2447,0.0066011134
2448,-0.0013899091
2449,0.0011909566
2450,0.010817643
2451,-0.013834507
2452,0.008400837
2453,0.004050773
2454,-0.0016054708
2455,0.00021412478
2456,-0.005299852
2457,0.0039784457
2458,0.017581489
2459,-0.0074145524
2460,-0.0063316347
2461,0.0005886794
2462,0.0063252444
2463,-0.015756838
2464,0.010024503
2465,0.014277551
2466,-0.006124751
2467,-0.009404753
2468,-0.010240889
2469,0.0013988009
2470,0.018258287
2471,0.011415085
2472,-0.0018559535
2473,-0.005311376
2474,0.014959722
2475,0.0075369063
2476,0.007858719
2477,-0.000641085
2478,0.007002094
2479,-0.0022595206
2480,0.003373735
2481,0.007154261
2482,-0.002443321
2483,0.0018965659
2484,-0.0056201722
2485,-0.0023239153
2486,-0.0022415672
2487,0.013908379
2488,0.016094165
2489,-0.010744331
2490,-0.00076904264
2491,-0.005665732
2492,0.007884673
2493,-0.0022232607
2494,0.007841987
2495,-0.002996483
2496,0.0082752155
2497,0.0074530644
2498,0.0048337677
2499,-0.017255161
2500,-0.0077335266
2501,0.007316238
2502,0.012626584
2503,0.007452301
2504,0.012348012
2505,-0.0017307824
2506,0.014204794
2507,-0.0010041089
2508,0.015321717
2509,-0.0012320587
2510,-0.007085379
2511,0.017805299
2512,-0.000288069
2513,0.01283733
2514,0.0018589763
2515,-0.003530332
2516,0.0061042896
2517,-0.0045069633
2518,-0.006411638
2519,-0.011051359
2520,0.012034917
2521,-0.013180692
2522,-0.003179047
2523,-0.008876532
2524,0.00612366
2525,-0.002656841
2526,0.017032227
2527,0.00819773
2528,0.012406587
2529,-0.0028171567
2530,-0.008010952
2531,-0.006489422
2532,0.012357645
2533,-0.01942514
2534,0.019928552
2535,0.0032606055
2536,-0.006806028
2537,0.00020651224
2538,0.014062114
2539,-0.005599718
2540,-0.00495947
2541,0.0031415406
2542,0.015459321
2543,0.015713055
2544,-0.0029464106
2545,-0.009785835
2546,0.005404221
2547,-8.682896e-05
2548,-0.0057542063
2549,0.005620416
2550,-0.0021296374
2551,0.0030459135
2552,-0.0011711095
2553,-0.004768328
2554,-0.015621589
2555,-0.0018869903
2556,0.0055700843
2557,0.01509482
2558,0.00093959924
2559,-0.0040482804
2560,0.0046418426
2561,0.010687116
2562,-0.00083347404
2563,0.007898881
2564,-0.0049571064
2565,0.0028601948
2566,-0.0014274765
2567,-0.016453337
2568,-0.0119715445
2569,0.0038496333
2570,-0.01063153
2571,0.0027272599
2572,0.006277504
2573,0.012408204
2574,-0.0035697203
2575,-0.0031168163
2576,-0.0065015084
2577,0.00692668
2578,-0.007100808
2579,-0.00055799267
2580,0.007885103
2581,0.01904263
2582,0.0074975127
2583,0.010883626
2584,0.007768565
2585,-0.013086795
2586,-0.0043515675
2587,-0.010650478
2588,0.0069035874
2589,-0.0068975077
2590,0.011539528
2591,-0.0051539484
2592,-0.0026951046
2593,0.0054817735
2594,-0.005333528
2595,-0.0006514095
2596,0.019772807
2597,0.011225583
2598,-0.0029708552
2599,-0.013509726
2600,0.012748292
2601,0.006312133
2602,-0.0015495984
2603,0.007931155
2604,-0.013084447
2605,0.001197444
2606,-0.0006505427
2607,-0.0003026572
2608,-0.0050756815
2609,-0.009237805
2610,-0.0010004762
2611,-0.019212766
2612,0.00010537602
2613,-0.006726594
2614,0.0099621825
2615,0.007491922
2616,-0.007287699
2617,-0.009740529
2618,-0.0015175904
2619,0.003933671
2620,0.0186284
2621,0.010134189
2622,0.017917609
2623,0.0038857448
2624,-0.009975138
2625,0.008467768
2626,-0.007321958
2627,-0.007222508
2628,0.0027692562
2629,0.012066257
2630,0.006923949
2631,0.0070788376
2632,-0.011624894
2633,0.009355313
2634,0.008806927
2635,0.014505187
2636,0.0019762476
2637,0.0016524391
2638,0.005977397
2639,0.014904491
2640,-0.0055108843
2641,0.0013870256
2642,0.006871039
2643,-0.011480807
2644,-0.0039022977
2645,0.0024072835
2646,-0.0038595418
2647,-0.0032402296
2648,-0.00050839427
2649,-0.0034166137
2650,-0.004820739
2651,-0.0051156674
2652,-0.0033537936
2653,0.005227781
2654,-0.0019109948
2655,0.004553361
2656,-0.0037911234
2657,-0.011570353
2658,0.0005695495
2659,0.0046768673
2660,0.0023865353
2661,0.0077731456
2662,-0.016458578
2663,0.010177862
2664,-0.0041171326
2665,-0.0017362633
2666,0.014342051
2667,-0.008728438
2668,0.009453574
2669,0.009840599
2670,-0.0070207813
2671,0.0052262605
2672,-0.010359871
2673,0.0039787055
2674,-0.0011041205
2675,0.01130056
2676,0.010095785
2677,-0.005995403
2678,0.0043666493
2679,-4.6297624e-05
2680,0.0036151088
2681,0.01043539
2682,-0.003026764
2683,-0.004874997
2684,-0.015399556
2685,-0.01636187
2686,-0.009267812
2687,0.0028670002
2688,-0.009041941
2689,-0.017887613
2690,0.002471723
2691,-0.01933336
2692,-0.00011408306
2693,0.0056714593
2694,-0.019319957
2695,-0.017418042
2696,0.003352973
2697,-0.0047545023
2698,-0.007374183
2699,0.006980901
2700,0.0026872212
2701,0.008064499
2702,-0.01032154
2703,-0.018285412
2704,0.0067742052
2705,-0.007360661
2706,-0.007819398
2707,-0.00040602736
2708,0.00457685
2709,0.008803832
2710,0.0031198196
2711,-0.00412198
2712,-0.0064133205
2713,0.0031542326
2714,0.011470997
2715,0.011671782
2716,-0.0099583
2717,0.009584609
2718,0.0020956914
2719,-0.00048442895
2720,-0.009194129
2721,0.0054784096
2722,-0.010947534
2723,0.014348876
2724,-0.01176886
2725,-0.009149874
2726,0.005397636
2727,-0.012855871
2728,0.0053745382
2729,-0.015487602
2730,0.017878266
2731,0.004227184
2732,0.0029094755
2733,0.019429624
2734,0.013804764
2735,-0.008728157
2736,-0.0049912166
2737,-0.009583922
2738,-0.012101926
2739,0.0059940475
2740,-0.006819947
2741,0.0013358927
2742,0.007945194
2743,-0.0131140975
2744,-0.00541045
2745,0.013149461
2746,-0.011479119
2747,-0.012532139
2748,-0.014067164
2749,-0.007283578
2750,0.0062296866
2751,-0.0039084
2752,0.01141365
2753,-0.0019617213
2754,-0.01140131
2755,0.006024055
2756,-0.0035608741
2757,0.0009389314
2758,-0.0022751305
2759,0.016528951
2760,0.0081747975
2761,0.0029525254
2762,0.0044029662
2763,0.00952587
2764,-0.009794985
2765,-0.0088208085
2766,6.203119e-05
2767,7.632192e-05
2768,-0.007329353
2769,-0.012832532
2770,-0.006297262
2771,0.006939302
2772,0.008876305
2773,0.0019636445
2774,0.01372812
2775,-0.012170692
2776,-0.015696721
2777,-0.01244898
2778,-0.0017688903
2779,0.0016972437
2780,-0.015428696
2781,0.007439536
2782,0.016450224
2783,-0.00045943138
2784,0.002288358
2785,0.00082898827
2786,0.0014185902
2787,0.013294185
2788,-0.0042394134
2789,0.014690478
2790,0.012341469
2791,-0.0037364732
2792,-0.0057800026
2793,0.016421264
2794,0.001220625
2795,-0.00012136814
2796,0.009983587
2797,0.00858563
2798,-0.0047879578
2799,-0.00944992
2800,-0.008194785
2801,-0.0034694506
2802,0.0035424668
2803,0.007948245
2804,0.0027455087
2805,0.0027622853
2806,-0.011515373
2807,-0.005932349
2808,-0.00060486625
2809,0.00815309
2810,0.00339676
2811,0.0045742686
2812,0.0068419506
2813,0.0062518404
2814,0.0066413293
2815,-0.002811833
2816,-0.0037532735
2817,-0.009620918
2818,-0.008890137
2819,0.0070717013
2820,0.002198349
2821,0.0066112033
2822,-0.009628942
2823,-0.007922958
2824,-0.0042117652
2825,0.010629097
2826,0.011554302
2827,0.0027815353
2828,0.0035082921
2829,-0.005539679
2830,0.0066405414
2831,-0.01613137
2832,0.013087927
2833,0.009681853
2834,-0.0030646645
2835,-0.002427048
2836,0.00028569976
2837,-0.003732059
2838,-0.0036829489
2839,0.00091130723
2840,0.0014280779
2841,0.006444908
2842,0.0107169105
2843,0.0024602509
2844,-0.008941111
2845,-0.0024419818
2846,-0.0021398603
2847,-0.0054169027
2848,-0.0051842523
2849,0.014145473
2850,-0.014984184
2851,-0.006718668
2852,0.018632676
2853,-0.008980326
2854,0.00344244
2855,-0.012498362
2856,-0.010382241
2857,-0.003923568
2858,0.0014740676
2859,-0.013179984
2860,0.0012025777
2861,0.0044234004
2862,-0.009232756
2863,-0.019288568
2864,-0.005892487
2865,0.004501133
2866,-0.009551946
2867,-0.012746088
2868,0.0044330615
2869,-0.0017566686
2870,-0.0076115383
2871,0.007513155
2872,0.0022061882
2873,0.012451326
2874,-0.008101901
2875,-0.00058039685
2876,-0.014420635
2877,0.007927065
2878,0.0027540028
2879,0.00467422
2880,0.0053718546
2881,-0.001368398
2882,-0.007068748
2883,0.0054617636
2884,-0.011902888
2885,0.0022154523
2886,0.0132479565
2887,-0.009824877
2888,0.006736702
2889,0.016167738
2890,0.009320875
2891,0.013490791
2892,0.007325087
2893,0.011088614
2894,0.005477101
2895,0.01565038
2896,-0.0059294063
2897,-0.0028070754
2898,-0.0040636216
2899,0.01795838
2900,-0.009743861
2901,0.003918748
2902,0.00032588426
2903,-0.0022624633
2904,-0.003729937
2905,0.0087040095
2906,0.0058315415
2907,-0.0014837099
2908,-0.002046655
2909,0.004728916
2910,0.006289688
2911,0.0007235604
2912,-0.0040134965
2913,0.011565138
2914,0.0039008658
2915,-0.011160394
2916,0.003379037
2917,-0.013375302
2918,0.0023009535
2919,0.016775338
2920,0.004754446
2921,-0.013481944
2922,-0.010843846
2923,-0.00035874255
2924,-0.004813083
2925,-0.00070922705
2926,-0.018734742
2927,0.008820269
2928,-0.007433824
2929,0.00908825
2930,-0.010025088
2931,0.005554822
2932,-0.0036427842
2933,0.0035895975
2934,-0.0127921635
2935,0.0011655317
2936,0.002509439
2937,-0.0008812514
2938,0.01900085
2939,-0.0041067954
2940,0.008911799
2941,-0.008489582
2942,0.01540646
2943,-0.0042071957
2944,-0.011463912
2945,0.0022530654
2946,-0.014441386
2947,-0.00564269
2948,0.006355162
2949,0.013703278
2950,-0.004202597
2951,-0.006538411
2952,-0.011501296
2953,0.0067335647
2954,0.017503204
2955,-0.013188878
2956,0.008659911
2957,-0.008123453
2958,-0.01766884
2959,0.016351996
2960,0.009027221
2961,-0.014381025
2962,0.004108888
2963,0.0022683002
2964,0.006455564
2965,0.004073545
2966,-0.013052072
2967,-0.0014259933
2968,0.012726312
2969,-0.009854283
2970,-0.012646835
2971,-0.014318592
2972,0.0064304564
2973,-0.014626223
2974,0.0013835218
2975,-0.010146432
2976,0.013635426
2977,0.0040382165
2978,0.004739249
2979,0.007964314
2980,-0.00081102306
2981,0.0017562363
2982,0.00975552
2983,0.009305646
2984,0.0027462502
2985,0.0063855806
2986,0.0067903297
2987,0.012531073
2988,-0.0049972557
2989,-0.017882138
2990,-0.01877529
2991,-0.0001549676
2992,0.006515774
2993,0.0053783543
2994,-0.0142910415
2995,-0.0023803758
2996,-0.012605468
2997,0.0053644744
2998,0.0012455872
2999,0.0073955157
3000,0.0016257851
3001,0.0009801027
3002,0.0078556305
3003,-0.004707218
3004,0.015653426
3005,-0.015735848
3006,0.01946063
3007,-0.0018585835
3008,0.009583215
3009,0.0049904613
3010,0.017987978
3011,-0.0034926548
3012,-0.0065261484
3013,0.00014984976
3014,0.0144106615
3015,0.011454376
3016,-0.017270174
3017,-0.0072740708
3018,0.0066938964
3019,-0.0023834982
3020,0.014234093
3021,0.017121132
3022,0.007515614
3023,-0.01849699
3024,-0.009006759
3025,0.0025699302
3026,0.010326485
3027,-0.0077656726
3028,0.0009540382
3029,0.010757587
3030,-0.017292237
3031,0.009756091
3032,0.012034465
3033,0.01187557
3034,0.008676962
3035,-0.002639067
3036,0.015497346
3037,-0.0019262806
3038,0.011619538
3039,-0.0059806406
3040,-0.0052102385
3041,-0.002712271
3042,0.008000532
3043,-0.004754055
3044,0.010177115
3045,-0.015370885
3046,0.0022703058
3047,0.0062916167
3048,0.0071805245
3049,0.017303037
3050,-0.0033656466
3051,-0.012686622
3052,0.005503164
3053,-0.013448835
3054,0.019106725
3055,0.009273626
3056,0.01134413
3057,0.009646367
3058,0.0056372294
3059,0.01902464
3060,0.002929177
3061,0.0067198887
3062,-0.004042215
3063,0.008224311
3064,-0.010232941
3065,-0.0029565757
3066,0.0066353264
3067,0.018823946
3068,-0.0005129631
3069,0.00047090437
3070,-0.005328095
3071,-0.0048691477
3072,0.01162666
3073,0.017875673
3074,-0.0029438578
3075,0.012682488
3076,-0.0066501573
3077,0.00064296724
3078,0.0044943006
3079,0.0041397084
3080,0.004527074
3081,0.01729614
3082,0.000120972356
3083,-0.0017125448
3084,-0.010487617
3085,-0.013455102
3086,-0.0069391932
3087,0.0061569493
3088,-0.013419256
3089,-0.0022055716
3090,0.002052989
3091,-0.0073557217
3092,0.007717066
3093,-0.010349802
3094,0.00036754794
3095,-0.007701777
3096,-0.0036181756
3097,-0.0027996907
3098,-0.002008101
3099,-0.01444808
3100,-0.013899256
3101,0.009912048
3102,-0.00074805
3103,-0.008878893
3104,0.010107122
3105,-0.00045645412
3106,0.004885686
3107,0.0065141334
3108,-0.007714028
3109,0.00010499816
3110,0.00946285
3111,0.0128481565
3112,-0.008110054
3113,0.013246304
3114,0.0062842905
3115,-0.016508196
3116,0.017943434
3117,0.018977622
3118,-0.018750884
3119,0.00045083987
3120,-0.0035645133
3121,-0.00015602415
3122,-0.007839924
3123,0.005632449
3124,0.004980209
3125,-0.014671718
3126,0.0014692334
3127,0.0043817563
3128,-0.00063227146
3129,0.0099396575
3130,0.008548269
3131,0.010682216
3132,-0.016715981
3133,-0.0009722951
3134,0.0036342444
3135,0.012773188
3136,0.00051343674
3137,0.0091080265
3138,0.006338915
3139,-0.004095256
3140,0.0063299662
3141,-0.013756734
3142,-0.00956458
3143,0.0040724855
3144,-0.01608076
3145,-0.0042077145
3146,-0.012279662
3147,0.0019389045
3148,0.010752717
3149,0.004424392
3150,0.012359692
3151,-0.006942391
3152,0.0026538016
3153,0.0124892
3154,-0.008138726
3155,-0.0012168498
3156,-0.019532457
3157,0.005898863
3158,-0.00096234307
3159,-0.0027145674
3160,0.014280244
3161,0.0034215455
3162,-0.0048452634
3163,-0.00062014617
3164,-0.005745022
3165,-0.004858772
3166,-0.0032741649
3167,0.0018656541
3168,-0.006484617
3169,0.00012572645
3170,-0.008854698
3171,0.0023363975
3172,-0.009455747
3173,0.0064007696
3174,-0.018620577
3175,0.0011761169
3176,-0.008431378
3177,-0.0059490683
3178,0.003666243
3179,0.0038011088
3180,-0.01312591
3181,-0.010024907
3182,0.010285891
3183,-0.011964857
3184,-0.013334455
3185,0.0036574132
3186,0.008622515
3187,-0.00040543108
3188,-0.012557548
3189,-0.011027335
3190,-0.0056246
3191,-0.008094138
3192,0.015612976
3193,-0.009391777
3194,0.004100002
3195,-0.003382435
3196,-0.008541858
3197,0.012776729
3198,-0.0015854657
3199,0.005188277
3200,0.019218443
3201,0.0026403414
3202,-0.006768571
3203,-0.006403115
3204,-0.015119458
3205,0.0066573652
3206,0.002525578
3207,-0.0051281936
3208,0.003948874
3209,-0.00029862172
3210,0.010462333
3211,0.011315533
3212,-0.010915824
3213,0.0108810095
3214,0.006202567
3215,-0.0062184203
3216,-0.008982352
3217,0.012227638
3218,-0.0026515084
3219,0.007940805
3220,0.012782195
3221,-0.004415933
3222,-0.001007359
3223,-0.00417599
3224,-0.008397922
3225,0.0018327141
3226,0.019493002
3227,-0.0025449384
3228,-4.0823437e-05
3229,-0.0046253405
3230,-0.009848121
3231,0.012098873
3232,0.00995695
3233,-0.004996473
3234,-0.006168123
3235,0.005485955
3236,0.001563567
3237,0.00050620356
3238,0.003347815
3239,0.00036544204
3240,0.002345112
3241,-0.0014193082
3242,0.004524853
3243,0.011219187
3244,-0.0029619494
3245,0.006640807
3246,-0.008200923
3247,0.0034924422
3248,0.0047891517
3249,0.0057856855
3250,-0.019384174
3251,-0.0072248913
3252,-0.00949301
3253,0.0010607326
3254,0.0041162777
3255,-0.0017051181
3256,-0.017910078
3257,-0.006951207
3258,-0.0025426385
3259,-0.002981108
3260,0.0073023597
3261,0.0034048301
3262,-0.0036144368
3263,0.0070774807
3264,-0.007040507
3265,-0.0055992296
3266,0.0016432179
3267,-0.017732117
3268,-0.012401908
3269,0.004906735
3270,0.010372787
3271,-0.0018320266
3272,-0.013000875
3273,0.0009866533
3274,0.0036414838
3275,-0.005289201
3276,-0.010848832
3277,-0.011472792
3278,0.015680138
3279,0.012633731
3280,0.0021151446
3281,0.00037569678
3282,0.0021786853
3283,0.0052969046
3284,0.0013023103
3285,0.011402518
3286,0.0018470113
3287,0.002322648
3288,0.00047235875
3289,0.0039593694
3290,0.007660842
3291,-0.007929741
3292,-0.0034509732
3293,0.006491794
3294,0.008038005
3295,0.013563703
3296,-0.014369666
3297,-0.00031809116
3298,-0.004457895
3299,-0.0042016115
3300,0.0135639
3301,-0.0052506262
3302,0.003968824
3303,-0.009877914
3304,-0.004453524
3305,-0.0056639216
3306,0.004925063
3307,-0.0022631143
3308,0.00835374
3309,0.009609365
3310,-0.0087414365
3311,-0.007271174
3312,0.011326313
3313,0.0033195666
3314,0.0049580326
3315,-0.0037917094
3316,0.009343743
3317,0.0053989296
3318,0.0036888835
3319,-0.0037393868
3320,-0.00651516
3321,-0.008193231
3322,0.010008606
3323,-0.011162949
3324,0.0075408854
3325,0.014928558
3326,0.0012112061
3327,0.015833726
3328,0.014903519
3329,0.0026655917
3330,0.006902102
3331,-0.004407228
3332,0.013800344
3333,-0.010581425
3334,0.009663792
3335,-0.0050959596
3336,-0.0069829263
3337,0.012674042
3338,0.003224257
3339,0.0023735685
3340,-0.001917597
3341,0.0063522663
3342,0.0015723751
3343,-0.016310742
3344,0.000294766
3345,-0.007082229
3346,-0.0016264751
3347,0.0028122936
3348,-0.0019451514
3349,0.0024701883
3350,-0.0058519803
3351,-0.001026876
3352,-0.01119469
3353,-0.0014303373
3354,-0.007954107
3355,-0.012677614
3356,0.008065966
3357,-0.0015527327
3358,-0.0044227117
3359,-0.00084280816
3360,-0.0083695
3361,0.007767605
3362,0.0006529389
3363,-0.0039594467
3364,0.012788456
3365,0.006453869
3366,-0.0035187767
3367,0.017176678
3368,0.0023063903
3369,0.004618246
3370,-0.018143171
3371,0.0047537778
3372,-0.00067652157
3373,-0.007498055
3374,-0.007940857
3375,0.016610673
3376,0.0007622864
3377,-0.0012790659
3378,0.017959267
3379,0.012866692
3380,0.0018999521
3381,0.009631717
3382,-0.0074792723
3383,0.0008519372
3384,0.0034828838
3385,-0.007010135
3386,0.001988353
3387,0.015272832
3388,-0.004988475
3389,0.0086615
3390,0.0012288729
3391,0.012932374
3392,-0.0077353274
3393,0.005457575
3394,-0.010303981
3395,-0.0021776462
3396,0.00899602
3397,-0.010914451
3398,-0.011548537
3399,-0.0062769493
3400,0.009142135
3401,0.00037455428
3402,0.00026106345
3403,0.0073831626
3404,0.0032458405
3405,-0.011602722
3406,0.0057307626
3407,-0.0051419064
3408,0.0057966635
3409,-0.0065731616
3410,0.0011836354
3411,0.014164035
3412,-0.0019202393
3413,0.011493358
3414,0.0071631786
3415,-0.0043167146
3416,-0.0003084621
3417,0.008422013
3418,0.012406855
3419,0.015843073
3420,0.010517237
3421,0.007869896
3422,-0.0047606546
3423,-0.0061421664
3424,0.0043242928
3425,-0.003812197
3426,-0.012291062
3427,-0.005338003
3428,-0.004003746
3429,0.0076867756
3430,0.0002839475
3431,0.004801745
3432,-0.007952023
3433,-0.004742691
3434,-0.004016648
3435,0.01321544
3436,-0.010273357
3437,-0.0040791365
3438,0.008522017
3439,-0.0019863355
3440,0.0022215417
3441,-0.0032928921
3442,0.0029623855
3443,-0.017646013
3444,0.00817805
3445,-5.8962065e-05
3446,0.0038610378
3447,0.01768471
3448,-0.015698163
3449,-0.00070139545
3450,0.008103769
3451,0.002865223
3452,-0.007687285
3453,-0.00017815283
3454,0.0014415676
3455,0.007376408
3456,0.002311422
3457,-0.001013918
3458,-0.0043294984
3459,-0.0120788105
3460,-0.003940166
3461,-0.005109265
3462,0.0062870868
3463,-0.011232242
3464,0.0049492526
3465,0.012928506
3466,0.006968984
3467,0.0017171336
3468,-0.0021855438
3469,0.008907275
3470,0.012454557
3471,0.009643616
3472,0.0131997205
3473,0.0060082455
3474,-0.006760478
3475,-0.007825976
3476,-0.0059042242
3477,0.008845198
3478,0.0034188477
3479,0.0018032664
3480,-0.0029615832
3481,-0.00076256023
3482,-0.012358357
3483,-0.016621284
3484,0.008587626
3485,0.0014986122
3486,0.0027804333
3487,-0.010981729
3488,0.008450722
3489,0.00018267066
3490,0.0025109542
3491,-0.0066977823
3492,-0.012488294
3493,0.0049535097
3494,0.0072039105
3495,0.0074785417
3496,0.0072001438
3497,0.0042490913
3498,-0.0050024455
3499,-0.0006429137
3500,-0.015863443
3501,-0.001975911
3502,0.015957953
3503,-0.0021418228
3504,0.003509733
3505,0.00499126
3506,-0.0008856481
3507,-0.0037376632
3508,-0.00013493752
3509,0.003020475
3510,0.0069102226
3511,-0.004574405
3512,-0.002845015
3513,0.0048371125
3514,-0.005594385
3515,0.0085343
3516,0.0046529607
3517,0.018841865
3518,-0.0010751997
3519,5.058414e-05
3520,-0.009495353
3521,-0.011635784
3522,0.012632725
3523,0.009461256
3524,-0.007888641
3525,0.0032973413
3526,0.016032394
3527,-0.012386604
3528,0.0029326454
3529,-0.01076488
3530,0.002558964
3531,-0.005165912
3532,0.0026126523
3533,0.0029211238
3534,0.011469835
3535,-0.00015887522
3536,0.0101241935
3537,0.011449388
3538,0.0062368535
3539,-0.0037991283
3540,-0.009532115
3541,-0.012884806
3542,-0.0057120547
3543,0.0196712
3544,-0.008162253
3545,-0.004892607
3546,-0.0076802406
3547,0.0071401526
3548,-0.011536537
3549,-0.007855944
3550,-0.01319811
3551,-0.0070702042
3552,-0.005898549
3553,-0.014239577
3554,-0.019745927
3555,0.0031030148
3556,-0.015716765
3557,0.0062920614
3558,0.0036174604
3559,0.0063505294
3560,-0.011059042
3561,0.009660816
3562,0.0042422335
3563,0.0008328916
3564,-0.0064738085
3565,0.012230331
3566,0.0032452221
3567,0.0026896873
3568,0.015544476
3569,0.0052076755
3570,0.0114933
3571,0.004531109
3572,0.007058849
3573,0.005083819
3574,0.01851631
3575,-0.009966958
3576,0.018927338
3577,0.0034595001
3578,-0.010904951
3579,-0.01687879
3580,-0.014997806
3581,-0.01980055
3582,-0.0012890501
3583,0.004680387
3584,0.010558322
3585,0.008651984
3586,-0.009654627
3587,-0.006743549
3588,0.0025046552
3589,0.008425286
3590,-0.0021154478
3591,-0.00979353
3592,-0.00643901
3593,0.0036834292
3594,-0.00698603
3595,0.013078163
3596,-0.010864126
3597,0.0063587665
3598,0.003739404
3599,-0.010817039
3600,-0.00445452
3601,0.00081767474
3602,0.0014906453
3603,0.008101614
3604,0.009179946
3605,-0.008791573
3606,-0.007558654
3607,0.0063454243
3608,0.0045256
3609,0.0026620813
3610,-0.0067109135
3611,-0.009978917
3612,0.003715189
3613,-0.009071377
3614,-0.019287704
3615,0.0033238109
3616,0.0058147428
3617,0.007557021
3618,0.0046331054
3619,0.0057272017
3620,0.014792357
3621,0.0027441322
3622,-0.00088931905
3623,-0.009636419
3624,-0.011544547
3625,0.008595138
3626,0.00073521317
3627,-0.00598582
3628,-0.004219973
3629,-0.011485001
3630,0.0013568044
3631,0.013489088
3632,-0.0050021424
3633,0.0058450014
3634,0.0066547543
3635,-0.009644964
3636,0.004375827
3637,0.006009068
3638,-0.0014795386
3639,-0.0077066254
3640,-0.00041512895
3641,0.0060849926
3642,0.006089554
3643,-0.0007718402
3644,0.0063044894
3645,-0.0017437771
3646,-0.009971031
3647,-0.00038653938
3648,-0.006444122
3649,0.009372732
3650,0.010182305
3651,0.0024020267
3652,-0.0033373998
3653,-0.0048262062
3654,-0.0002494777
3655,-0.0028040635
3656,0.0022870384
3657,0.009634475
3658,0.00689625
3659,0.009416142
3660,0.0011232526
3661,-0.016031904
3662,0.010343803
3663,-0.0008661063
3664,-0.006342222
3665,-0.002075246
3666,0.008237148
3667,-0.0055071134
3668,0.004572971
3669,0.0025832807
3670,-0.0031466207
3671,-0.0014605714
3672,-0.0069204
3673,-0.009479349
3674,7.909265e-05
3675,0.0018815066
3676,-0.01759686
3677,-0.0037500376
3678,-0.00612234
3679,0.0059957276
3680,0.0030520202
3681,0.0007843549
3682,0.00071490096
3683,-0.012981566
3684,-0.0041483617
3685,0.014903388
3686,-0.010635265
3687,0.010890991
3688,-0.013422703
3689,0.012212971
3690,0.004040091
3691,0.0032524616
3692,0.014353334
3693,0.01944269
3694,-4.175374e-06
3695,-0.0094650965
3696,-0.00391817
3697,-0.013321181
3698,0.00032200722
3699,0.002074644
3700,-0.008051789
3701,0.0033595867
3702,0.0041298373
3703,-0.004523879
3704,0.01622807
3705,-0.0022760183
3706,-0.014861673
3707,0.0044471007
3708,-0.0044004996
3709,-0.009226269
3710,0.003289617
3711,-0.011885333
3712,0.0020201537
3713,0.0076109087
3714,-0.001792867
3715,0.00027484723
3716,0.00728947
3717,-0.0034650427
3718,-0.006902144
3719,-0.005602774
3720,-0.0028429995
3721,0.011078497
3722,0.0062569575
3723,-0.013397891
3724,0.0012784348
3725,9.718696e-05
3726,0.001902979
3727,-0.0066717076
3728,0.008206145
3729,-0.00421732
3730,-0.005078663
3731,-0.00467924
3732,-0.0027203897
3733,-0.006280798
3734,-0.014253913
3735,0.0096206
3736,0.011674255
3737,-0.005961044
3738,-0.007226936
3739,-0.0184698
3740,-0.01163321
3741,0.0068127117
3742,0.008734698
3743,-0.012386418
3744,-0.0022951826
3745,0.00064032804
3746,0.0144038815
3747,0.005838666
3748,-0.0070075844
3749,-0.008831774
3750,-0.0065252837
3751,0.0031061561
3752,0.0026143808
3753,0.013004475
3754,0.0069630225
3755,-0.010662158
3756,0.014165313
3757,0.017205732
3758,0.0005184025
3759,0.010203929
3760,0.0052801063
3761,-0.009859938
3762,0.013323041
3763,-0.0137763815
3764,0.006693224
3765,-0.0041250307
3766,0.01498312
3767,0.007943141
3768,0.0024214194
3769,-0.0008421149
3770,-0.0104424
3771,0.0022185093
3772,-0.0054846536
3773,-0.009514355
3774,-0.008988523
3775,0.01585866
3776,-0.0035013766
3777,0.001359424
3778,0.016479045
3779,0.019331323
3780,-0.0015670407
3781,-0.009533805
3782,0.014365263
3783,0.005582172
3784,-0.012670587
3785,0.009960297
3786,-0.01225852
3787,-0.008625685
3788,0.0021039753
3789,-0.000843517
3790,-0.0032958153
3791,-0.01859106
3792,-0.012908786
3793,-0.013110079
3794,-0.007894595
3795,-0.0033288202
3796,-0.0078985235
3797,-0.003565636
3798,-0.00087169325
3799,0.011225413
3800,-0.0057935193
3801,-0.0037972718
3802,-0.0031679794
3803,0.0072915456
3804,-0.00834299
3805,0.010888144
3806,0.011959434
3807,-0.006401507
3808,0.0012641022
3809,-0.005451266
3810,-0.015490114
3811,-0.00036916733
3812,0.0022165808
3813,-0.0042477753
3814,-0.0013139005
3815,-9.483717e-05
3816,-0.0052018045
3817,-0.010706849
3818,0.012150864
3819,-0.008907664
3820,-0.010051099
3821,0.0141531145
3822,0.015540634
3823,-0.0036221507
3824,0.0093957
3825,-0.007655392
3826,0.0035598567
3827,0.009123781
3828,-0.011449664
3829,0.0030222097
3830,-0.019619482
3831,0.006462748
3832,0.004256611
3833,0.0019684786
3834,0.009393437
3835,0.00081217213
3836,0.0100252675
3837,0.008642365
3838,-0.004671637
3839,-0.0069247256
3840,0.0025760585
3841,0.006783217
3842,0.0055073434
3843,-0.014426393
3844,-0.0026376783
3845,0.0016605924
3846,0.0054862024
3847,0.0064481637
3848,-0.006416157
3849,0.0038477273
3850,-0.012312034
3851,0.000119260214
3852,-0.014724966
3853,0.0044728536
3854,0.011856419
3855,0.013025565
3856,-0.009988951
3857,-0.013100011
3858,-0.0043460145
3859,0.0014452402
3860,0.009548781
3861,-0.017113311
3862,0.007659751
3863,0.004095216
3864,0.015200187
3865,0.001101872
3866,0.014088354
3867,-0.0027546796
3868,0.007929693
3869,0.0010816081
3870,-0.0038191208
3871,0.008999737
3872,-0.007902509
3873,0.015100294
3874,-0.0010305191
3875,-0.0042537334
3876,-0.013635959
3877,0.013125671
3878,0.0045993472
3879,0.011993489
3880,0.010946098
3881,-0.011626782
3882,-0.007233685
3883,-0.004757723
3884,-0.00041390787
3885,0.00632575
3886,-0.0050263
3887,-0.0052713063
3888,-0.0010719458
3889,0.007961062
3890,-0.001106755
3891,0.008071151
3892,0.010592391
3893,-0.010006065
3894,-0.0045407675
3895,0.004506161
3896,0.012652637
3897,0.002725974
3898,0.013817983
3899,-0.019110117
3900,-0.00820036
3901,-0.0003609345
3902,-0.012064516
3903,0.009897987
3904,-0.0005603539
3905,0.00998161
3906,0.005006653
3907,0.002933625
3908,-0.01663044
3909,0.006873482
3910,0.005840164
3911,0.00068052276
3912,0.014118255
3913,-0.0092182895
3914,-0.0008836402
3915,-0.014719123
3916,0.009799894
3917,0.0030081104
3918,0.008505696
3919,0.0053705806
3920,-0.0017599118
3921,-0.01191204
3922,-0.009190297
3923,-0.0032590537
3924,-0.008436276
3925,0.014903736
3926,0.014089322
3927,0.0022019742
3928,-0.005463087
3929,0.00357159
3930,0.0044482076
3931,-0.007823786
3932,0.010636295
3933,-0.0003329697
3934,-0.005430059
3935,-0.0068634935
3936,-0.0074204113
3937,0.0035236238
3938,0.006519093
3939,0.008570306
3940,0.019519472
3941,0.0120713515
3942,0.008000278
3943,-0.0022932487
3944,-0.0023678392
3945,0.007305374
3946,0.012912653
3947,-0.008938286
3948,0.0033836358
3949,0.00697137
3950,0.0008579716
3951,-0.01776398
3952,-0.0066327816
3953,0.0011716902
3954,-0.005547298
3955,-0.0046574827
3956,-0.0139300525
3957,0.015103736
3958,0.0035214613
3959,-0.0045578927
3960,-0.004189873
3961,-0.004137905
3962,0.0033007385
3963,-0.004490886
3964,-0.011987146
3965,0.0007377531
3966,-0.015256733
3967,-0.006810846
3968,0.0028781136
3969,-0.012827467
3970,-0.016011307
3971,-0.0014500925
3972,-0.008808905
3973,-0.006156957
3974,-0.0044832258
3975,0.010780169
3976,-0.010833787
3977,0.0009754811
3978,-0.00562645
3979,0.012292631
3980,0.0014352942
3981,-0.0018457518
3982,0.0055887043
3983,0.0030236891
3984,0.008468504
3985,-0.006455276
3986,0.003976404
3987,0.01597158
3988,-0.01339703
3989,0.007737688
3990,-0.010603921
3991,-0.00038277986
3992,-0.004302946
3993,-0.010515216
3994,0.0064894054
3995,0.01155751
3996,-0.0035431855
3997,-0.006679475
3998,0.010995479
3999,0.01956238
4000,0.0064822943
4001,-0.006537309
4002,0.017185904
4003,0.0062969574
4004,-0.0072643156
4005,-0.019592894
4006,0.0091206245
4007,0.012446973
4008,0.019915849
4009,-0.007248788
4010,0.01523787
4011,-0.01579397
4012,0.0021830888
4013,0.0011595717
4014,-0.0053771576
4015,0.009200301
4016,-0.00088271813
4017,-0.006159927
4018,-0.0072787167
4019,-0.002382968
4020,0.012577343
4021,-0.003688619
4022,-0.006759089
4023,0.0041774884
4024,0.008844129
4025,-0.0016286123
4026,0.019114451
4027,0.0024283861
4028,0.0005909657
4029,-0.0020655855
4030,0.00280974
4031,0.00713906
4032,-0.007907915
4033,-0.007564493
4034,-0.0076214294
4035,-0.0056224638
4036,0.008904631
4037,-0.014610601
4038,0.0025680568
4039,-0.015146048
4040,0.017041046
4041,-0.0066579417
4042,0.01369406
4043,0.0077954624
4044,0.011315551
4045,-0.0047419798
4046,-0.0041343225
4047,-0.0052503045
4048,0.013865584
4049,-0.0070132925
4050,0.015283383
4051,-0.00020252848
4052,0.017012015
4053,-0.013897639
4054,0.0032985762
4055,9.164622e-06
4056,-0.0037592791
4057,-0.0009837899
4058,-0.0004692172
4059,0.0010668784
4060,0.0013206529
4061,0.0055246954
4062,-0.017334525
4063,-0.0052861786
4064,0.006059027
4065,0.004361769
4066,-0.0044201966
4067,-0.009932553
4068,0.016142298
4069,-0.002921608
4070,0.0103794625
4071,-0.0014732637
4072,0.0003316211
4073,0.00015743966
4074,0.0034624639
4075,-0.0017925914
4076,-0.007156071
4077,-0.005770488
4078,-0.0042473064
4079,0.010038999
4080,-0.0063286084
4081,0.008418115
4082,0.0073481905
4083,0.008968715
4084,-0.007922482
4085,-0.0059044403
4086,-0.009104267
4087,-0.0073660617
4088,0.0033223014
4089,0.011341988
4090,0.0029207966
4091,-0.007944162
4092,-0.0039297007
4093,-0.006102341
4094,0.006335569
4095,0.01269987
4096,0.0057830457
4097,-0.004518242
4098,-0.016997045
4099,-0.005026373
4100,0.0067133824
4101,-0.00948528
4102,0.004143095
4103,-0.0068623642
4104,-0.00023370763
4105,0.002690469
4106,-0.010805469
4107,-0.0056762802
4108,-0.0054695574
4109,0.012067267
4110,-0.0014674055
4111,0.00820984
4112,-0.016225202
4113,-0.002061896
4114,0.0035353194
4115,0.015558815
4116,-0.0058700955
4117,-0.007989273
4118,0.0050689364
4119,-0.009598871
4120,0.010955639
4121,0.0011660808
4122,-0.0011141882
4123,-0.001027555
4124,-0.00030781492
4125,-0.0052556656
4126,0.0011228428
4127,0.004876933
4128,-0.015057652
4129,-0.0045920983
4130,-0.0037909865
4131,-0.006173842
4132,0.015468089
4133,-0.010888678
4134,-0.0025516697
4135,1.7675571e-05
4136,3.795159e-05
4137,-0.0068230126
4138,-0.0025255275
4139,-0.005656281
4140,-0.007851888
4141,0.007909743
4142,0.002979782
4143,0.004377771
4144,-0.0023907055
4145,0.010950388
4146,-0.002467706
4147,-0.007296417
4148,-0.0050192974
4149,-0.01706595
4150,-0.011726351
4151,0.0033273422
4152,0.004954923
4153,0.0033836234
4154,-0.013650105
4155,0.012349845
4156,0.007506444
4157,0.0022753656
4158,-0.004922029
4159,-0.00044975
4160,0.013038495
4161,-0.015284753
4162,-0.0036254982
4163,0.0072405846
4164,-0.0006431699
4165,-0.0041301376
4166,0.010544987
4167,-0.009627668
4168,-0.0027915176
4169,-0.015060064
4170,0.019730426
4171,0.0011155917
4172,0.007173475
4173,0.0026391472
4174,0.0023460495
4175,0.0021792662
4176,-0.0045822435
4177,0.007964031
4178,-0.013234133
4179,0.008349187
4180,0.0059636272
4181,-0.004568682
4182,0.0018662397
4183,-0.0030005884
4184,-0.009140795
4185,-0.009969898
4186,0.0056127287
4187,-0.0088592665
4188,0.0055434857
4189,-0.0031215658
4190,0.012146487
4191,-0.004635802
4192,0.011683301
4193,0.005704614
4194,0.003767196
4195,-0.0075301435
4196,-0.0016284591
4197,0.0053222217
4198,-0.0061101215
4199,0.009967364
4200,-0.00078026886
4201,-0.011435244
4202,0.002984261
4203,0.010474911
4204,-0.011218864
4205,-0.0021460173
4206,0.007823359
4207,0.015451786
4208,-0.0130846985
4209,-0.015651152
4210,-0.0102988435
4211,-0.002186604
4212,-0.012771405
4213,-5.561749e-05
4214,0.0026100418
4215,-0.0059435028
4216,0.012544177
4217,0.015092313
4218,-0.003677354
4219,-0.0060046636
4220,-0.002561011
4221,0.01366998
4222,0.0154059185
4223,0.0033932682
4224,0.0021150606
4225,-0.017710216
4226,-0.0005601374
4227,0.0145943435
4228,-0.0031627212
4229,-0.016249837
4230,0.0037620456
4231,-0.00031936276
4232,0.005250981
4233,-0.00081032515
4234,0.0013213111
4235,0.0018048403
4236,-0.009467189
4237,-0.0034253143
4238,0.019665746
4239,-0.015603313
4240,0.012975995
4241,-0.015212898
4242,0.009492116
4243,0.011389572
4244,0.0040705833
4245,0.003291198
4246,0.014721275
4247,-0.007968288
4248,-0.009069244
4249,0.003180783
4250,-0.00780749
4251,-0.01433836
4252,-0.017155133
4253,-0.0074744443
4254,-0.0147948265
4255,0.00072787376
4256,-0.0035024108
4257,-0.0009552702
4258,-0.0150736235
4259,-0.0075261304
4260,-0.002340255
4261,-0.006177615
4262,-0.012400396
4263,0.0047455323
4264,0.001495355
4265,-0.006372658
4266,-0.0037587504
4267,-0.0041327258
4268,0.00027816367
4269,0.012939985
4270,0.0043894863
4271,0.006928406
4272,-0.0035398148
4273,-0.01054522
4274,-0.018070797
4275,-0.012075617
4276,0.006348529
4277,0.0025611827
4278,-0.003466799
4279,0.011121748
4280,0.0065281177
4281,0.006287767
4282,-0.0027247784
4283,0.003890275
4284,0.012595598
4285,0.01426088
4286,-0.00400302
4287,-0.0039516315
4288,-0.00012394793
4289,-0.008872264
4290,-0.011246931
4291,0.01358481
4292,-0.008058649
4293,-0.011960104
4294,-0.0028204417
4295,0.0145485345
4296,-0.0067656725
4297,-0.008642398
4298,0.019299015
4299,-0.0032642952
4300,-0.007162022
4301,0.006716163
4302,0.0026497727
4303,-0.018649103
4304,-0.009555196
4305,0.0042141527
4306,0.008647499
4307,-0.00077911373
4308,0.006889938
4309,-0.0027836382
4310,0.015702093
4311,-0.0046831537
4312,0.01196092
4313,0.009762079
4314,0.0018411202
4315,-0.011005519
4316,0.005408218
4317,-0.006024796
4318,0.005984986
4319,-0.017275969
4320,-0.0045848787
4321,-0.0012075308
4322,0.0019401676
4323,-0.008058886
4324,0.009861227
4325,0.0009120211
4326,-0.017859468
4327,0.0098785525
4328,-0.009610506
4329,0.010610389
4330,-0.012533714
4331,0.009548625
4332,0.0027421012
4333,0.0041998285
4334,-0.0061863274
4335,0.0014841664
4336,0.0053888327
4337,-0.012640075
4338,-0.008869674
4339,0.006661081
4340,-0.005979668
4341,0.003401623
4342,0.001755911
4343,-0.0024331415
4344,0.0031595395
4345,-0.004483195
4346,-0.009095823
4347,0.0017318917
4348,-0.002129134
4349,0.0035577873
4350,0.0036655883
4351,-0.012649442
4352,0.0021187018
4353,-0.006340143
4354,0.013582236
4355,-0.004498662
4356,0.006941078
4357,0.004320381
4358,-0.0079814205
4359,0.0024644688
4360,0.0058969827
4361,0.0013005923
4362,0.0104755955
4363,-0.0028700873
4364,0.0011617574
4365,-0.008698571
4366,-0.0007987686
4367,-0.003462397
4368,0.002787374
4369,-0.008502252
4370,0.008207068
4371,0.016286006
4372,-0.008613467
4373,0.017982673
4374,0.0015367141
4375,0.005795147
4376,0.008448154
4377,-0.01744455
4378,-0.010853328
4379,0.00676193
4380,-0.007197429
4381,-0.004205519
4382,-0.00069258455
4383,-0.0075849113
4384,-0.003308573
4385,0.018940492
4386,0.008693896
4387,-0.01920565
4388,-0.004533822
4389,0.0016277797
4390,0.0049717347
4391,-0.008230389
4392,0.004370866
4393,0.005026461
4394,-0.01939682
4395,-0.013014344
4396,9.211906e-05
4397,0.0007247885
4398,-0.006153434
4399,0.0105270175
4400,-0.0073686773
4401,0.008657792
4402,0.0030719207
4403,0.0009870651
4404,0.0087921005
4405,0.004648925
4406,0.005352737
4407,-0.0033232246
4408,0.010533736
4409,-0.007601084
4410,-0.004714523
4411,0.019942354
4412,-0.00021534253
4413,0.019957695
4414,0.0060074395
4415,-0.017863784
4416,0.014472839
4417,-0.0006911428
4418,0.0040783244
4419,-0.008148028
4420,-0.004534351
4421,0.00014821962
4422,0.0071793282
4423,0.0064087156
4424,0.0069657904
4425,-0.006472755
4426,0.001180694
4427,0.011065002
4428,-0.005260623
4429,-0.003568723
4430,-0.002954456
4431,0.009887134
4432,0.009061621
4433,0.004495091
4434,0.0034735142
4435,0.014247083
4436,0.006558114
4437,-0.019642463
4438,0.014284691
4439,-0.0028769649
4440,-0.0028932854
4441,-0.0062339054
4442,0.005329512
4443,0.0019130026
4444,-0.00043222777
4445,0.010208606
4446,0.0063947705
4447,0.0034195723
4448,0.006238793
4449,-0.008062376
4450,-0.00041625107
4451,-0.008964408
4452,-0.0034756814
4453,-0.009333244
4454,-0.003606198
4455,0.009787833
4456,0.008598705
4457,-0.005291696
4458,-0.00445492
4459,0.011989688
4460,-0.009418788
4461,-0.0022443663
4462,0.003086501
4463,-0.011184051
4464,0.017010007
4465,-0.014284045
4466,-0.0010917718
4467,0.010855625
4468,-0.00071593525
4469,0.00024431653
4470,0.009113812
4471,0.018445136
4472,-0.0024543265
4473,0.012560165
4474,0.007323948
4475,-0.0040049404
4476,0.0027994493
4477,0.007940028
4478,0.00029839977
4479,0.007014804
4480,-0.0015424372
4481,0.005817111
4482,0.0064584804
4483,-0.018134162
4484,-0.005352828
4485,0.0043633385
4486,0.006321256
4487,-0.002265563
4488,-0.0042663
4489,-0.008395522
4490,-0.009005918
4491,-0.002981498
4492,0.004491905
4493,0.009869225
4494,0.0072369273
4495,0.007287198
4496,0.008855796
4497,-0.008417763
4498,-0.010011156
4499,0.016955765
4500,-0.009251124
4501,0.014937685
4502,-0.007254913
4503,0.0088405935
4504,0.0093638105
4505,-0.003461527
4506,-0.010063077
4507,0.011304093
4508,0.016622491
4509,-0.0058399853
4510,0.008009926
4511,0.006155259
4512,0.011389845
4513,-0.0015886397
4514,0.019943288
4515,0.019561432
4516,-0.007691968
4517,-0.004859853
4518,0.00040074633
4519,0.0042444817
4520,0.017575866
4521,-0.011075833
4522,-0.0037009246
4523,-0.00477113
4524,-0.0095154485
4525,0.0026461915
4526,0.01436481
4527,0.007387869
4528,0.016378006
4529,7.649133e-05
4530,-0.0035288127
4531,0.005803873
4532,0.016054403
4533,0.00064794434
4534,-0.018042123
4535,0.0070800213
4536,-0.011754763
4537,0.0008195655
4538,0.0074288403
4539,-0.0022113658
4540,-0.0003467809
4541,0.013407455
4542,0.0066536567
4543,0.018265553
4544,0.003355393
4545,-0.0013965607
4546,0.009523136
4547,-0.002593707
4548,-0.009231232
4549,-0.005463515
4550,0.003710961
4551,0.013914409
4552,-0.0029439402
4553,0.011575816
4554,-0.009809813
4555,0.009566883
4556,0.015284214
4557,-0.0013012292
4558,0.006261258
4559,-0.012048926
4560,0.010487449
4561,0.0049768174
4562,-0.0067928266
4563,-0.011468988
4564,-0.006558033
4565,0.011910592
4566,0.0034209625
4567,-0.0012452599
4568,0.014312273
4569,0.0031730132
4570,-0.015568897
4571,-0.0017282477
4572,-0.010232888
4573,-0.0074567506
4574,-0.001612493
4575,0.0049364897
4576,-0.0030472213
4577,0.009855134
4578,0.0055531487
4579,0.011566194
4580,0.017296296
4581,0.00076033594
4582,0.007916862
4583,-0.0027269681
4584,-0.018760929
4585,-0.0038788626
4586,-0.007465886
4587,0.0036211875
4588,0.004066054
4589,-0.00317572
4590,0.007628662
4591,0.0004053135
4592,-0.0024591025
4593,0.0050857705
4594,0.01734774
4595,0.0021285869
4596,-0.00553544
4597,0.005561089
4598,0.0120353885
4599,0.0050973976
4600,0.016291836
4601,-0.009602104
4602,0.0050248215
4603,0.016810805
4604,-0.0072577735
4605,-0.00322376
4606,0.015427077
4607,-0.0065712086
4608,-0.0011819282
4609,0.010238326
4610,-0.009146298
4611,0.011477911
4612,0.0089136
4613,0.0090902075
4614,-0.005822688
4615,0.00815858
4616,-0.0026873883
4617,0.019182445
4618,-0.002024347
4619,-0.003350719
4620,0.0015805969
4621,0.0031771534
4622,0.01168324
4623,-0.009615187
4624,-0.0076350183
4625,0.008467649
4626,0.010271588
4627,-0.016361596
4628,0.0051102713
4629,-0.0014393948
4630,-0.008255631
4631,0.00020039782
4632,0.01121077
4633,0.014682316
4634,0.010273785
4635,0.00412925
4636,-0.0154193565
4637,-0.007981543
4638,0.01671835
4639,0.0023904364
4640,0.0070268456
4641,0.0110252155
4642,-0.007280316
4643,-0.0058730957
4644,0.008076838
4645,0.01815132
4646,-0.007743797
4647,-0.01137115
4648,-0.00806205
4649,0.00087930646
4650,0.008655714
4651,0.004503692
4652,0.019160604
4653,0.015749825
4654,-0.0068652662
4655,-0.002761863
4656,-0.0067757736
4657,9.754326e-05
4658,0.0074348412
4659,0.010059807
4660,0.004572654
4661,-0.0058288155
4662,-0.0041508507
4663,0.0087451385
4664,0.0036694242
4665,-0.0133803105
4666,-0.007081616
4667,0.010737593
4668,-0.0017215817
4669,0.006394571
4670,-0.0011514012
4671,0.0048782793
4672,-0.013748296
4673,0.0012250369
4674,0.013936675
4675,-0.017613363
4676,0.0021557864
4677,0.0008634721
4678,0.015043505
4679,-0.014011764
4680,0.0049444335
4681,0.009318197
4682,0.0055791494
4683,0.013512758
4684,-0.0024568755
4685,0.014032084
4686,0.011329524
4687,0.0015272022
4688,0.016385548
4689,0.011371386
4690,0.0056075696
4691,-0.0061883293
4692,0.0027832459
4693,0.011060145
4694,-0.004030663
4695,0.0019151289
4696,0.0075202603
4697,-0.0013803535
4698,0.002992662
4699,-0.012951444
4700,0.01810042
4701,-0.011395761
4702,0.0034062106
4703,-0.0040848535
4704,0.0058179395
4705,-0.0071334466
4706,0.013368235
4707,0.00086912763
4708,-0.010688334
4709,-0.0051653017
4710,-0.0027484852
4711,-0.004042973
4712,-0.0021789493
4713,0.00030061364
4714,-0.013601168
4715,-0.0036496755
4716,-0.004841113
4717,0.012174494
4718,-0.014854742
4719,0.0074849543
4720,0.0062583378
4721,0.018475803
4722,0.0068044
4723,0.008732494
4724,-0.0060542584
4725,0.0012158053
4726,0.0021360293
4727,-0.0008341103
4728,0.005082564
4729,0.003600883
4730,-0.0098822685
4731,-0.007976817
4732,-0.0143097155
4733,-0.0007290708
4734,0.015763821
4735,0.0029200034
4736,0.010743454
4737,0.009225902
4738,0.008390302
4739,-0.01003588
4740,-0.01010808
4741,0.0062729414
4742,-0.00047717334
4743,0.01312126
4744,-0.014075503
4745,0.004795915
4746,-0.0016792302
4747,0.0020482286
4748,0.0036389648
4749,-0.011574423
4750,-0.015813777
4751,0.0066145235
4752,0.0069359043
4753,-0.015917579
4754,0.017676184
4755,-0.018898623
4756,0.002764156
4757,-0.0063472004
4758,0.0019209703
4759,-0.0094003575
4760,-0.0017941791
4761,0.000951689
4762,-0.0053634318
4763,-0.01945732
4764,0.0045367167
4765,-0.011116363
4766,0.017290719
4767,-0.0020791446
4768,-0.0042427955
4769,-0.0137852
4770,-0.0049315356
4771,-0.0011605722
4772,0.005432002
4773,0.0009066845
4774,-0.009491574
4775,0.011443384
4776,0.014647111
4777,-0.002675467
4778,-0.008568807
4779,0.003387639
4780,0.0066066305
4781,-0.0029767042
4782,0.012458916
4783,-0.0011383601
4784,-0.003575595
4785,-2.6647382e-05
4786,-0.00037832264
4787,0.019577444
4788,0.006997722
4789,-0.003467104
4790,0.012009423
4791,0.005440635
4792,0.008270043
4793,-0.0027433974
4794,-0.006276899
4795,-0.009498996
4796,0.0080331415
4797,-0.007841801
4798,-0.018841675
4799,0.010202368
4800,-0.0108882
4801,0.017096156
4802,-0.0065187435
4803,-0.010419702
4804,0.0058773076
4805,-0.013214321
4806,0.0060596555
4807,-0.0013422131
4808,-0.0064582215
4809,0.0115612075
4810,0.01020956
4811,9.946561e-05
4812,-0.012738586
4813,0.015422567
4814,-0.0048024575
4815,-0.005196032
4816,0.0138682835
4817,-0.002888516
4818,0.016148405
4819,0.003446121
4820,0.010289977
4821,-0.008317321
4822,0.018932806
4823,0.00884179
4824,-0.002943659
4825,-0.0005333808
4826,0.010944998
4827,0.010515382
4828,0.005117867
4829,0.004300273
4830,0.014612402
4831,-0.0016616693
4832,-0.0113428775
4833,0.013799849
4834,0.002704958
4835,0.0034417368
4836,0.0009730292
4837,-9.217155e-05
4838,0.0029563918
4839,-0.019520426
4840,-0.008687099
4841,-0.002490508
4842,-0.011173951
4843,0.0073188394
4844,0.009785878
4845,-0.0037930764
4846,-0.004167876
4847,0.0025692466
4848,-0.0007554469
4849,-0.0083867
4850,-0.00059679925
4851,0.010314312
4852,-0.008875319
4853,0.0005665459
4854,0.016779762
4855,-0.012322914
4856,-0.0032506713
4857,0.007042216
4858,-0.013175897
4859,0.00440745
4860,-0.002754017
4861,-0.010034791
4862,-0.0037964778
4863,0.003161613
4864,0.0032382065
4865,-0.0030841422
4866,-0.0020235563
4867,0.011174311
4868,0.0044559715
4869,0.004826449
4870,0.018562619
4871,0.0052545057
4872,-0.0053079426
4873,-0.00020413657
4874,-0.0024026874
4875,0.007888003
4876,-0.0059736725
4877,0.0060844
4878,-0.007802899
4879,0.009991286
4880,0.008405435
4881,-0.0074785007
4882,0.0062240306
4883,-0.0028220764
4884,-0.011713713
4885,-0.0036846213
4886,0.013094336
4887,0.006971398
4888,0.007899931
4889,0.010524592
4890,0.004301
4891,-0.0053194812
4892,-0.0022206514
4893,0.0023298492
4894,0.0041262344
4895,-0.0037902067
4896,-0.004812696
4897,-0.014225093
4898,0.018021204
4899,-0.0091373045
4900,0.0030446877
4901,0.0003230757
4902,-0.013233581
4903,0.0028185039
4904,0.0082159955
4905,0.0033687665
4906,-0.001068207
4907,0.005373793
4908,0.0021188932
4909,-0.012518892
4910,-0.0035837884
4911,0.0021644332
4912,-0.002282572
4913,4.4540798e-09
4914,-0.007395566
4915,-0.009765119
4916,-0.00019164746
4917,-0.0029008004
4918,-0.008325046
4919,0.009797397
4920,-0.008138123
4921,0.006709793
4922,0.00067561754
4923,-0.0031154125
4924,0.0015421939
4925,0.0006236452
4926,0.0035151974
4927,0.0019114148
4928,-0.014726314
4929,-0.00975509
4930,-0.0051987288
4931,-0.015832959
4932,-0.0049995603
4933,0.0130432835
4934,0.008905855
4935,-0.012089048
4936,0.0058146818
4937,0.011731862
4938,0.0031838776
4939,0.002703446
4940,0.017017074
4941,0.001498954
4942,-0.0032095849
4943,0.013870258
4944,0.0038934064
4945,-0.006378206
4946,0.013735185
4947,0.0014874771
4948,-0.0024413378
4949,0.0022395356
4950,-0.0048194113
4951,-0.0077710166
4952,0.0033714247
4953,-0.007941214
4954,0.006758936
4955,-0.014306409
4956,0.006427452
4957,-0.01041021
4958,-0.014770801
4959,0.009063334
4960,0.0031242287
4961,-0.009899514
4962,-0.0038170563
4963,0.00815302
4964,0.007456906
4965,-0.00809119
4966,-0.01770901
4967,-0.004101696
4968,-0.0057472633
4969,-0.008299724
4970,0.0018591958
4971,0.014996294
4972,-0.014657437
4973,0.010059528
4974,-0.0008842341
4975,-0.015050732
4976,0.011043003
4977,-0.006927869
4978,-0.0133109335
4979,0.002347341
4980,-0.008901796
4981,-0.001832542
4982,0.001316989
4983,-0.011453056
4984,-0.014300259
4985,0.00826318
4986,0.0049478617
4987,0.00054716255
4988,0.011939397
4989,-0.009649617
4990,0.012377499
4991,0.0022780076
4992,0.007907326
4993,0.0071324483
4994,-0.0028600271
4995,0.0048866733
4996,-0.0030031267
4997,-0.005360655
4998,0.016990934
4999,-0.0018381766
5000,0.011689369
5001,-0.013449336
5002,-0.0065362323
5003,-0.007710121
5004,-0.016715879
5005,0.0041385344
5006,-0.009203432
5007,-0.008424247
5008,0.0035070125
5009,-0.009718622
5010,-0.015340752
5011,-0.010041427
5012,0.00469593
5013,0.0049671303
5014,0.00772243
5015,0.0039804513
5016,0.00887973
5017,-0.003361973
5018,-0.009115518
5019,0.0063787727
5020,-0.005856535
5021,0.0077172588
5022,-0.0004848468
5023,-0.003761837
5024,-0.010154499
5025,0.007258953
5026,-0.014137163
5027,0.006000268
5028,0.007826343
5029,0.0066920896
5030,-0.008938894
5031,-0.0036038784
5032,0.0006146534
5033,-0.004361611
5034,-0.01447935
5035,0.0033852225
5036,0.0005624818
5037,0.007411579
5038,0.01127246
5039,-0.0012236403
5040,0.00025885872
5041,0.0017416079
5042,-0.016103037
5043,-0.0017090115
5044,-0.007553269
5045,-0.014643698
5046,-0.0072728787
5047,0.007493437
5048,0.010031959
5049,0.0036623839
5050,0.008817063
5051,-0.0017746964
5052,0.005999576
5053,-0.010156451
5054,-0.002927876
5055,-0.0011499634
5056,-0.0037940333
5057,0.016928984
5058,0.009117995
5059,-0.009452813
5060,-0.0022737263
5061,-0.0023463597
5062,-0.0050405655
5063,-0.006253605
5064,0.014302853
5065,0.01198466
5066,0.009902689
5067,0.016576508
5068,-0.00046965454
5069,0.0057336767
5070,-0.008099343
5071,0.0025047895
5072,-0.0013909186
5073,-0.0011038547
5074,0.002376852
5075,0.007380276
5076,0.019182032
5077,0.016387697
5078,0.011322961
5079,0.0042799725
5080,-0.005443219
5081,-0.000120506505
5082,-0.012449312
5083,0.001540131
5084,0.013619822
5085,-0.0010656676
5086,-0.012222441
5087,0.0023334585
5088,0.004399132
5089,-0.005200551
5090,-0.0064600324
5091,0.00023194354
5092,-0.014109463
5093,-0.014754642
5094,-0.0050116
5095,0.0040716487
5096,0.010785786
5097,-0.007562775
5098,0.011375682
5099,-0.010269297
5100,0.010415839
5101,0.0077646105
5102,0.016643323
5103,0.0030353656
5104,0.0034260913
5105,0.007087276
5106,-0.0015509798
5107,-0.00885318
5108,-0.007032175
5109,-0.0039503216
5110,-0.010736312
5111,0.009546532
5112,-0.011629398
5113,-0.004883209
5114,-0.0017462815
5115,0.016973324
5116,-0.011408403
5117,-0.0011437004
5118,-0.002972692
5119,-0.0018541218
5120,0.003944254
5121,0.016642954
5122,-0.011523467
5123,0.0026519063
5124,-0.0017239158
5125,0.008525424
5126,-0.001636599
5127,0.009181524
5128,0.003186434
5129,-0.0071850657
5130,0.009622428
5131,0.013322139
5132,-0.00576314
5133,-0.013845606
5134,-0.00605825
5135,0.0072473167
5136,-0.013364024
5137,0.0056420383
5138,0.011440041
5139,-0.012472989
5140,-0.015551812
5141,0.010415092
5142,-0.0011738734
5143,-0.0017266506
5144,0.00854352
5145,0.015915575
5146,0.009991568
5147,-0.0017156153
5148,-0.017001942
5149,0.013658949
5150,-0.007336267
5151,0.010065464
5152,0.0037652007
5153,-0.006682222
5154,-0.019164126
5155,0.0062853973
5156,-0.008685255
5157,-0.018241225
5158,-0.0016124988
5159,0.006553641
5160,0.003835805
5161,0.013627272
5162,0.0065451604
5163,-0.0074371486
5164,-0.0013867437
5165,0.0010796041
5166,-0.01138539
5167,0.015373475
5168,0.0067833005
5169,0.008362685
5170,0.0007303976
5171,0.00904082
5172,0.0023515865
5173,0.003173522
5174,-0.003473519
5175,-0.005527628
5176,0.0002678925
5177,0.0052606915
5178,-0.0043166582
5179,0.0167839
5180,0.004239562
5181,-0.0010107188
5182,-0.002531249
5183,0.015109521
5184,-0.0025809598
5185,0.0022443845
5186,0.0024345317
5187,0.014909121
5188,-0.0029837554
5189,-0.006244104
5190,-0.014329692
5191,0.0021422901
5192,0.011747703
5193,0.016056795
5194,0.00795182
5195,-0.011693499
5196,0.018411772
5197,-0.008850546
5198,-0.0007537626
5199,0.017020714
5200,0.014939428
5201,-0.00782444
5202,0.004606377
5203,0.005790367
5204,0.008090701
5205,-0.013582165
5206,0.00043793573
5207,-0.012944276
5208,-0.0015954725
5209,-0.0126454905
5210,0.0012279897
5211,0.019125728
5212,0.013922567
5213,0.012547837
5214,0.009212203
5215,-0.009832469
5216,-0.008459255
5217,0.016379233
5218,-0.010570317
5219,0.0075686923
5220,-0.0064376816
5221,-0.0035585237
5222,6.2232924e-05
5223,0.010105659
5224,0.0061011356
5225,0.008397771
5226,-0.0073169274
5227,-8.173721e-05
5228,-0.009259525
5229,0.0037464125
5230,-0.0027823786
5231,0.0012050401
5232,-0.007412927
5233,-0.004979557
5234,0.0020407944
5235,0.0037266263
5236,-0.008774493
5237,0.00484938
5238,-0.014088095
5239,-0.017693056
5240,0.007825558
5241,-0.0050033615
5242,0.009237954
5243,0.00807911
5244,0.015921488
5245,-0.015472565
5246,0.0057228836
5247,-0.008094125
5248,-0.0046834275
5249,-0.0011060179
5250,0.014519922
5251,-0.00908084
5252,-0.0017425079
5253,-0.0029243932
5254,-0.010876919
5255,0.009500848
5256,0.017776934
5257,0.01107593
5258,-0.0045190174
5259,0.0027586657
5260,0.007170328
5261,0.0007986105
5262,0.00045552375
5263,0.011431742
5264,-0.009430316
5265,0.01389674
5266,0.0025033236
5267,0.004382585
5268,0.0022718098
5269,0.003009219
5270,0.00046488148
5271,-0.012176852
5272,0.0033115163
5273,0.00817906
5274,0.002696341
5275,0.002453919
5276,-0.00490847
5277,0.0021612286
5278,0.015159176
5279,0.0005872836
5280,-0.0044731405
5281,-0.016097227
5282,-0.0002855524
5283,0.013046914
5284,-0.0021119986
5285,-0.015542311
5286,0.015102248
5287,0.0080088135
5288,-0.0043341597
5289,0.009915406
5290,-0.012441794
5291,-0.0035464736
5292,-0.00406474
5293,0.0014302788
5294,0.0013989918
5295,0.008954327
5296,0.0020063457
5297,0.00038580637
5298,0.003266656
5299,-0.01646478
5300,-0.015839241
5301,-0.002350326
5302,-0.005756452
5303,-0.0063349484
5304,-0.016517712
5305,-0.007584807
5306,0.010773732
5307,-0.006190129
5308,0.0039268252
5309,-0.0041578677
5310,-0.0037297418
5311,-0.011465605
5312,-0.007214062
5313,-0.0011100613
5314,-0.0057106316
5315,0.0056513124
5316,0.004825792
5317,-0.009653091
5318,-0.009636196
5319,0.0029424636
5320,0.0016467976
5321,-0.008440284
5322,-0.0090776
5323,0.015122703
5324,-0.014935296
5325,-0.0065483
5326,-0.0028248676
5327,-0.0041836477
5328,-0.0043830345
5329,0.0076612975
5330,0.005365998
5331,0.0047604106
5332,0.003102251
5333,-0.0015815075
5334,0.010956109
5335,0.0098867
5336,-0.0013079913
5337,-0.01614438
5338,-0.0050382
5339,0.0019546144
5340,-0.0013585582
5341,-0.015628641
5342,0.0100149615
5343,0.011042418
5344,0.017004365
5345,0.00014476369
5346,0.01524546
5347,0.00057113706
5348,-0.005939476
5349,-0.017669424
5350,-0.009619834
5351,0.0013957275
5352,-0.0055072615
5353,-0.0016780272
5354,0.010898986
5355,0.005246507
5356,-0.0014620723
5357,-0.00028269386
5358,-0.0039497823
5359,0.009385375
5360,-0.0062270905
5361,-0.0074758176
5362,-0.017438114
5363,-0.005627481
5364,1.9034673e-05
5365,-0.005749226
5366,-0.0140268905
5367,0.0037326594
5368,0.005317585
5369,0.006449389
5370,0.003964186
5371,-0.001774412
5372,-0.008458948
5373,0.009142634
5374,-0.00067101506
5375,0.00797886
5376,-0.0069662686
5377,0.0036721148
5378,0.0051433826
5379,-0.0014464193
5380,-0.010419001
5381,-0.014324644
5382,0.0050845365
5383,-0.010341219
5384,-0.0017904271
5385,0.001749628
5386,0.00898293
5387,-0.0014416971
5388,0.008419003
5389,-0.011434136
5390,-0.013234483
5391,0.007848267
5392,-0.0036885159
5393,-0.013080301
5394,0.009408738
5395,-0.009696349
5396,-0.010317297
5397,0.012263417
5398,-0.004859942
5399,0.0044888663
5400,0.011047881
5401,-0.003456355
5402,0.006595739
5403,-0.012594548
5404,0.018492494
5405,0.0044126604
5406,-0.010062143
5407,-0.014771806
5408,0.0092373
5409,0.014264776
5410,0.00459866
5411,0.00073913555
5412,-0.013147992
5413,0.003049981
5414,0.012575759
5415,0.000121016164
5416,0.0023993726
5417,-0.013765894
5418,0.008956037
5419,0.005629436
5420,0.0071907844
5421,0.0034785133
5422,-0.007774805
5423,-0.0120032085
5424,-0.013303631
5425,-0.008502045
5426,-0.0046967496
5427,0.0075714984
5428,-0.011763343
5429,-0.006734801
5430,0.0049861865
5431,0.01713652
5432,-0.0026920834
5433,-0.01362385
5434,-0.0021419304
5435,-0.008539078
5436,0.0022081814
5437,0.0088145295
5438,0.0050518457
5439,-0.013550018
5440,-0.0063079423
5441,0.0003131661
5442,0.007059204
5443,-0.0063156933
5444,-0.0013430961
5445,-0.0046337023
5446,-0.013310119
5447,0.0069985683
5448,-0.007695479
5449,-0.004998971
5450,-0.01410064
5451,-0.0051673655
5452,-0.012086935
5453,0.0069881766
5454,-0.005460834
5455,-0.012718408
5456,-0.0039821216
5457,-0.008132274
5458,0.0129327085
5459,-0.0107697565
5460,-0.00039304045
5461,0.01201535
5462,0.013295064
5463,-0.0047322847
5464,0.010295923
5465,-0.0014619838
5466,0.0074737375
5467,0.014572812
5468,0.007298973
5469,0.00839723
5470,-0.009885169
5471,0.015095095
5472,-0.0011029467
5473,-0.0038428397
5474,-0.00808415
5475,-0.0053741625
5476,-0.015607526
5477,-0.010414215
5478,0.0049890894
5479,0.011822887
5480,0.010416129
5481,0.0050876555
5482,-4.5416233e-05
5483,0.005628502
5484,-0.0032478708
5485,0.0155512085
5486,-0.00251093
5487,0.0018166173
5488,0.014307625
5489,0.0017440039
5490,0.006829534
5491,-0.014688931
5492,0.004812626
5493,-0.000842135
5494,-0.0070066727
5495,-0.0066997395
5496,0.0015314113
5497,-0.0092197
5498,0.0035366185
5499,-0.008784794
5500,0.013426238
5501,-0.00606195
5502,0.004563888
5503,0.0067506833
5504,0.0064392323
5505,0.0021810655
5506,-0.013754684
5507,0.01567566
5508,0.0054528727
5509,-0.008991931
5510,0.0028888267
5511,-0.010475681
5512,0.0017532783
5513,0.0047838734
5514,-0.010605931
5515,-0.007900874
5516,0.0060637486
5517,-0.010743731
5518,-0.0071953484
5519,-0.018232737
5520,-0.0068796445
5521,-0.0044627995
5522,-0.0068168747
5523,-1.4727253e-05
5524,-0.014923559
5525,-0.015643608
5526,0.017858539
5527,-0.0026116108
5528,-0.0058303718
5529,-0.00023303981
5530,0.009755684
5531,0.0023561337
5532,-0.008429562
5533,-0.004340321
5534,0.002186884
5535,-0.018294856
5536,-0.010145407
5537,0.0040694047
5538,0.0043144017
5539,0.0040592374
5540,0.00968952
5541,-0.011806095
5542,-0.006460045
5543,0.003874627
5544,0.005058594
5545,0.0045812656
5546,-0.0076683965
5547,-0.0066803587
5548,0.012980103
5549,0.00090672256
5550,0.009617521
5551,0.0018105295
5552,-0.0041776607
5553,0.0027328036
5554,0.009383557
5555,0.0062229363
5556,-0.0013764784
5557,-0.004268278
5558,0.008746295
5559,-0.01942612
5560,0.0064801895
5561,-0.0028077108
5562,0.0042605563
5563,-0.0029171114
5564,0.0022932137
5565,0.018429704
5566,-0.013817808
5567,-0.0037981896
5568,-0.0011756612
5569,-0.0033794236
5570,-0.011587696
5571,0.004633162
5572,0.009605193
5573,-0.003917338
5574,0.00482749
5575,0.011792244
5576,-0.005203518
5577,-0.01227741
5578,-0.0112705985
5579,-0.009700646
5580,0.0017929943
5581,0.00027405846
5582,-0.0012509702
5583,-0.010608069
5584,-0.0017042122
5585,-0.011885587
5586,0.00029680334
5587,-0.017378937
5588,0.0006765289
5589,0.0002339191
5590,-0.0145153375
5591,-0.009471571
5592,-0.012032536
5593,0.0076197092
5594,-0.0055911187
5595,-0.00051066244
5596,0.0026554083
5597,0.01030806
5598,-0.0071940413
5599,0.0069040237
5600,0.006051597
5601,-0.00092833233
5602,0.00089864613
5603,-0.0058402345
5604,0.012119136
5605,-0.0017873425
5606,0.009344214
5607,-0.01629382
5608,-0.019591711
5609,0.01609642
5610,0.013397535
5611,-0.006930278
5612,-0.0010493011
5613,-0.009493597
5614,-0.0115245385
5615,-0.014473021
5616,0.010512602
5617,-0.0002843563
5618,0.011907626
5619,0.014584317
5620,0.014324825
5621,-0.0061499695
5622,0.0074745636
5623,0.0046209465
5624,-0.003818392
5625,-0.0008303871
5626,0.008483344
5627,0.005145667
5628,0.008788419
5629,-0.005937881
5630,-0.0017167439
5631,0.0018625992
5632,-0.0007087432
5633,-0.00049969595
5634,-0.012549976
5635,-0.003933203
5636,-0.0053151385
5637,0.0040779063
5638,-0.011426458
5639,-0.01625093
5640,0.005096992
5641,0.0051904223
5642,0.0061184624
5643,-0.0017107229
5644,0.0017557576
5645,0.0064851623
5646,-0.008503235
5647,-0.0050499006
5648,-0.0068867086
5649,0.0051391167
5650,0.011607998
5651,-0.0065645
5652,-0.0028826012
