Sno,Weight
0,-0.004654463
1,0.013530842
2,-0.0033641201
3,-0.01717116
4,0.0041459003
5,0.016209664
6,0.006274021
7,0.014215502
8,-0.0047801477
9,-0.009931203
10,-0.010906675
11,-0.016761843
12,0.010677645
13,0.014199463
14,0.003239282
15,0.001316594
16,-0.0067756134
17,0.013159181
18,0.008434532
19,-0.004568698
20,0.016876344
21,-0.004117423
22,-0.0069719506
23,0.01817294
24,-0.0027485983
25,0.004734951
26,0.0029047772
27,-0.008299033
28,-0.000952828
29,0.0019688262
30,-0.0039636763
31,0.0026312352
32,0.007184073
33,0.0056852954
34,-0.0045116353
35,0.004257523
36,-0.0014786753
37,-0.0079309875
38,-0.0031354537
39,0.0054169204
40,-0.0031451245
41,0.002743787
42,-0.005633813
43,0.007705874
44,0.0031676148
45,-0.0030862154
46,-0.0017239
47,0.0021643385
48,-0.005977155
49,-0.012866332
50,-0.013077118
51,0.0017947603
52,-0.0024613163
53,-0.009533747
54,0.01009999
55,0.010311867
56,0.0024201719
57,-0.00012784943
58,-0.0014740716
59,-0.0037473363
60,-0.0061091976
61,-0.0071517783
62,-0.01051657
63,0.010023025
64,-0.019441022
65,-0.0018757269
66,0.010538448
67,0.013910299
68,-0.0015080546
69,0.009329592
70,0.0049552745
71,0.012279006
72,-0.0062111686
73,-0.018696386
74,0.0046818075
75,0.0030961002
76,0.011515204
77,0.010500725
78,-0.00074924144
79,0.0041406085
80,0.010385722
81,-0.0004894678
82,0.009045193
83,-0.009474616
84,0.0051671597
85,0.005339876
86,-0.009723487
87,0.009533052
88,0.000904216
89,-0.0009278025
90,-0.0014061034
91,-0.0016002161
92,0.001870678
93,-0.0064360457
94,0.004590987
95,-0.014425394
96,-0.0071206787
97,-0.0022453354
98,0.014337461
99,-0.011732137
100,0.0010005556
101,-0.009296191
102,-0.014941645
103,-0.0022435414
104,0.0049673133
105,0.002687176
106,0.01652172
107,-0.0025005958
108,0.01215553
109,-0.012318501
110,-0.008340532
111,-0.01360278
112,-0.010472941
113,0.0028255866
114,-0.008272391
115,-0.0070070177
116,0.01855586
117,0.0058088615
118,-0.01121967
119,-0.0037541671
120,0.02242436
121,-0.019805081
122,-0.014198114
123,0.0071083535
124,-0.008901372
125,-0.00054331514
126,0.008744925
127,0.008729253
128,0.006482589
129,0.004272862
130,-0.0049871015
131,-0.01146619
132,-0.010902122
133,-0.005104648
134,-0.0037521746
135,0.016252853
136,0.00031340765
137,-0.007608545
138,0.007086777
139,-0.0050404617
140,0.0031902003
141,-0.008048303
142,-0.0029560984
143,0.015414557
144,0.008017986
145,-0.011698962
146,-0.005311361
147,-0.011140695
148,0.010162605
149,0.0025993641
150,0.0073118764
151,0.010166462
152,0.0030138146
153,4.5006946e-05
154,-0.002354272
155,-0.012456655
156,-0.0112556955
157,-0.011658849
158,8.5843305e-05
159,-0.0041808784
160,-0.0089569315
161,-0.005441977
162,-0.004126187
163,-0.01021603
164,-0.0006141227
165,0.0035778645
166,0.00079735945
167,0.0074695526
168,-0.009677925
169,0.0067954753
170,0.0045575923
171,-0.0050724507
172,0.0057731345
173,-0.0047944584
174,-0.003934097
175,-0.0057242014
176,0.0009958453
177,-0.009259977
178,0.015746167
179,-0.014467739
180,-0.006000687
181,0.014176508
182,0.014260279
183,0.00627001
184,0.013612025
185,-0.008258244
186,-0.0054273657
187,0.00040301564
188,0.013060498
189,-0.0032598758
190,-0.0036313236
191,-0.005848395
192,-0.0058139786
193,0.0051143607
194,-0.009343846
195,-0.005680454
196,0.0006339269
197,-0.0058113537
198,-0.005153235
199,-0.0017103332
200,-0.0009517306
201,-0.006902481
202,6.809643e-05
203,-0.011789224
204,-0.016176103
205,-0.0056853513
206,0.0032166052
207,0.006002189
208,-0.016138015
209,0.01843511
210,0.0035333927
211,-0.011991516
212,0.0063775843
213,-0.009717299
214,0.0010789181
215,0.011593636
216,-0.0005061803
217,-0.0022991828
218,0.006523764
219,0.0024473267
220,0.021995932
221,0.013091374
222,0.010304801
223,0.015747743
224,0.002004006
225,0.0026900526
226,-0.006428653
227,-0.0077688885
228,0.00919869
229,0.01356155
230,-0.008206894
231,0.009413849
232,0.0033993877
233,0.008449316
234,-0.009629625
235,-0.00016642279
236,-0.0006509353
237,0.0003113551
238,0.011047884
239,0.005790525
240,-0.00062798767
241,-0.00079631305
242,0.0049095377
243,-0.0018462773
244,-0.015738405
245,-0.00301313
246,0.006548318
247,-0.0028516625
248,-0.005439409
249,-0.012941463
250,-0.0130654825
251,-0.008312843
252,0.0005722942
253,0.0058138985
254,0.004196708
255,-0.002789507
256,0.017698918
257,0.007890956
258,-0.017724318
259,0.004655513
260,0.007705928
261,-0.019191766
262,-0.0042680083
263,-0.011895186
264,-0.003951375
265,0.007812406
266,0.007199973
267,0.0036653648
268,-0.013161258
269,-0.00019286979
270,-0.004901814
271,-0.008263595
272,-0.011573193
273,-0.007833251
274,-0.0056958394
275,-0.01966562
276,-0.0025326088
277,-0.013679568
278,-0.0013155856
279,-0.004584649
280,-0.0037413558
281,0.012796709
282,-0.018114498
283,-0.01299787
284,0.0061525335
285,-0.012785262
286,0.011352926
287,-0.013804714
288,-0.008449695
289,0.008344393
290,0.0005644111
291,-0.01001896
292,0.009358952
293,-0.01253569
294,-0.003268399
295,-0.011366743
296,-0.0083259605
297,-0.012964261
298,0.00048278668
299,0.00309394
300,-0.0037224889
301,0.0009105562
302,0.004750088
303,-0.012117984
304,-0.008836926
305,-0.004441883
306,-0.002805907
307,0.0011372593
308,-0.009046928
309,-0.0029354412
310,0.007496187
311,-0.0086277155
312,0.017580036
313,-0.012577635
314,-0.0014294753
315,0.004839753
316,-0.011110379
317,-0.008673714
318,-0.0020235723
319,-0.004248063
320,-0.007110163
321,0.0018790368
322,-0.0067717587
323,-0.009088642
324,-0.0030075351
325,0.009858803
326,-0.003970745
327,-0.0057150326
328,-0.005901332
329,0.016246157
330,0.0070752758
331,0.012605366
332,-0.0070412755
333,-0.007998665
334,0.009968778
335,0.013820328
336,0.018857172
337,-0.0041202987
338,-0.007214264
339,0.008653191
340,-0.0062781014
341,0.0052035335
342,-0.0048942952
343,0.006063923
344,-0.0032260688
345,-0.017251104
346,0.00528993
347,0.011504555
348,0.0015284802
349,0.014554137
350,0.013823807
351,0.008066901
352,0.013933169
353,-0.004028134
354,-9.367682e-05
355,-0.012326251
356,0.008683135
357,0.005311882
358,0.014681891
359,0.0011317552
360,0.011106979
361,-0.0062313504
362,-0.006101397
363,0.006520996
364,0.0054420517
365,0.0027535656
366,0.010095838
367,0.0176835
368,-0.013617024
369,0.008824791
370,-0.00079271215
371,-0.015949158
372,-0.0047139153
373,-0.0035093823
374,0.010925807
375,0.002413284
376,-0.0021479365
377,0.0033248714
378,-0.0026223727
379,-0.0069944505
380,0.004677954
381,-0.008366493
382,0.015139314
383,-0.011133018
384,0.0037388687
385,0.00020087528
386,-0.006897744
387,-0.011820011
388,0.005270407
389,0.005502842
390,0.005210381
391,-0.0044816476
392,0.009499687
393,-0.007482407
394,-0.01631092
395,0.017269967
396,-0.0033123188
397,-0.009303134
398,-0.009958961
399,0.00576647
400,-0.0015576273
401,-0.011370683
402,0.0029416566
403,0.010374881
404,0.005168938
405,0.00080350385
406,-0.002204309
407,0.0041883425
408,0.0035715448
409,0.0015481326
410,0.0043037906
411,-0.011775188
412,0.0071336916
413,-0.01108113
414,-0.0031327545
415,0.0050330786
416,-0.0022858717
417,-0.009781888
418,0.016122147
419,-0.012116215
420,-0.0011404376
421,-0.005419181
422,0.0051712757
423,0.010801674
424,0.005429483
425,-0.0078790365
426,0.004237723
427,-0.0020757332
428,0.0026045942
429,0.012462866
430,0.0063384706
431,-0.011970717
432,0.008233796
433,-0.0042543486
434,-0.01882378
435,0.018403072
436,0.006869115
437,0.00531227
438,0.016559288
439,0.0008786064
440,0.0092376415
441,0.0049900394
442,-0.010540554
443,-0.0017677454
444,0.003973285
445,0.0076624816
446,0.0037287686
447,0.003532609
448,0.0064260615
449,0.0009310127
450,-0.0018041474
451,-0.01015777
452,0.0002813664
453,0.0019541238
454,-0.010964785
455,0.0190998
456,0.0067889956
457,-0.009847451
458,0.0052892654
459,0.011840244
460,0.011222242
461,0.0064993827
462,0.0017313611
463,0.00523372
464,-0.002211002
465,0.012395052
466,-0.0047862465
467,0.01460339
468,-0.012888028
469,0.0007281373
470,0.004420388
471,0.00088835903
472,0.0052183373
473,0.009458391
474,-0.0006414374
475,0.0063349046
476,-0.006311806
477,0.019781578
478,0.0068177627
479,0.0036063325
480,0.006173961
481,0.003935426
482,0.0025146964
483,-0.0061092786
484,0.018232528
485,0.0029956675
486,-0.0017536076
487,0.014729914
488,-0.01297966
489,0.0018781351
490,-0.015376878
491,-0.002652183
492,-0.0010718649
493,-0.0060326294
494,0.014837783
495,0.002006621
496,-0.0016454789
497,-0.005697032
498,-0.009137809
499,-0.016693974
500,0.008335115
501,-0.01625511
502,-0.0044225883
503,0.020227145
504,-0.0029605974
505,-0.0036548823
506,0.01124846
507,-0.003573073
508,-0.0011007721
509,0.018619467
510,-0.001174025
511,0.0059887827
512,-0.0072626495
513,-0.00776251
514,0.00122103
515,0.0073878504
516,0.00412844
517,0.013155327
518,0.009043909
519,-0.0055346014
520,-0.014117102
521,0.0051609203
522,0.008852407
523,-0.007229906
524,0.016589703
525,-0.009444095
526,-0.010590056
527,0.013326138
528,-0.0035376397
529,-0.0024399364
530,0.0015316271
531,0.000806598
532,0.0023525923
533,0.0124643445
534,-0.0025776252
535,-0.010141479
536,-0.007036534
537,-0.0017266962
538,-0.009122448
539,0.0053438726
540,0.0049409363
541,0.013200247
542,-0.008680626
543,0.00058380514
544,0.010483673
545,0.007865419
546,0.0061651473
547,0.006868801
548,0.0044169817
549,-0.0035664581
550,0.004566125
551,-0.003919655
552,-0.0023981081
553,-0.007899266
554,-0.0021725893
555,-0.0018685998
556,-0.00052491936
557,-0.0029985707
558,-0.0040634866
559,-0.011151428
560,0.0017998371
561,0.0061135297
562,0.017615603
563,-0.0056691067
564,0.0062312195
565,0.009365962
566,-0.0012935466
567,0.009516363
568,0.011532423
569,-0.008861499
570,-0.010556908
571,0.0071543576
572,-0.00066821935
573,0.007998529
574,0.0011648012
575,0.0070438366
576,-0.003228897
577,0.0017564151
578,-0.00645393
579,0.000865627
580,-0.0077951453
581,-0.01961304
582,-0.004891877
583,0.00060355256
584,0.00091771246
585,0.0053637084
586,0.009329703
587,0.0066019907
588,0.008355072
589,0.012775211
590,0.019598937
591,0.007836159
592,-0.0012881476
593,0.010317245
594,-0.0006322678
595,-0.018659713
596,-0.017788064
597,0.00059999
598,0.0013697369
599,-0.017901236
600,-0.007626357
601,-0.012735235
602,0.0022434015
603,0.0036645208
604,-0.012789618
605,-0.00173688
606,0.018021984
607,0.008128153
608,0.0006376247
609,-0.015153589
610,0.013397866
611,-0.00085876556
612,-0.010028391
613,-0.015313538
614,-0.0061851274
615,0.0022363607
616,0.00828594
617,0.009807459
618,0.0008056571
619,0.006949893
620,-0.0018029576
621,0.004691979
622,0.013152644
623,-0.004111936
624,0.012640041
625,0.009023555
626,0.0006029445
627,0.0067324215
628,0.0039513325
629,-0.0026044124
630,0.0046499637
631,-0.014091282
632,-0.017508553
633,-0.016030438
634,0.013316994
635,-0.0012407807
636,0.004613696
637,0.0013700555
638,-0.0041691354
639,-0.009510472
640,0.014204327
641,0.008416058
642,0.013907446
643,-0.0071755825
644,0.014082863
645,0.0059922435
646,-6.5643435e-06
647,-0.0076472503
648,0.007068349
649,-0.0046442873
650,-0.014787089
651,-0.00053827855
652,-0.0020330898
653,0.0017398808
654,0.009402746
655,-0.0076079
656,-0.003982335
657,-0.002259467
658,-0.017321471
659,0.016183354
660,-0.011244781
661,-0.013029922
662,-0.00558233
663,0.006119731
664,0.0037141514
665,0.005872245
666,-0.010942945
667,0.0001230051
668,0.015358122
669,-0.0025859363
670,-0.0059603066
671,0.00086656824
672,0.0015145444
673,0.0056181094
674,-0.0005797328
675,-0.0024620448
676,0.012368723
677,-0.016267484
678,-0.017928522
679,0.0042111124
680,0.009870913
681,0.0058331327
682,-0.00091112533
683,-0.010509962
684,-0.011790194
685,0.0031175045
686,0.002492183
687,-0.0026527632
688,-0.0010969414
689,-0.00854929
690,-0.006735002
691,0.007705991
692,0.01382759
693,0.0037553518
694,-0.0021400747
695,0.007109014
696,-0.0026053102
697,-0.01564673
698,0.007308905
699,0.0147684105
700,-0.012848314
701,0.008918255
702,0.004087107
703,-0.016995313
704,0.008132931
705,-0.009008182
706,0.0013114528
707,-0.019882495
708,0.0023844757
709,-0.0056693065
710,-0.01717478
711,0.002802943
712,-0.005557769
713,0.0075906585
714,-5.573241e-05
715,-0.007772107
716,-0.013987567
717,-0.013796717
718,0.009208479
719,-0.002251617
720,-0.01508324
721,-0.005959505
722,-0.017509667
723,-0.017751118
724,-0.008740376
725,-0.0033579068
726,0.001409186
727,-0.016968904
728,0.010447431
729,0.0029000782
730,0.014620619
731,0.009099462
732,0.000100947575
733,-0.0067722495
734,0.009820916
735,-0.014680854
736,0.0015164952
737,-0.0002511876
738,0.0065664984
739,-0.003594446
740,-0.00083925325
741,-0.0148033835
742,-0.0048504197
743,-0.0070102005
744,-0.004207924
745,0.0029765654
746,0.013334969
747,-0.0019677302
748,-0.0041424027
749,-0.0077028875
750,0.0003531401
751,0.0010792068
752,0.00087804516
753,0.0068274257
754,9.0727335e-05
755,0.0032559836
756,-0.013378253
757,0.011187346
758,0.003522345
759,0.0052534193
760,0.00058683084
761,0.011840761
762,-0.0063171466
763,-0.0055789035
764,0.0012352299
765,-0.007932723
766,-0.0017308857
767,-0.006359123
768,0.011294045
769,-0.0031763767
770,0.012194707
771,0.00039551556
772,-0.0029807717
773,-0.016091025
774,-0.0068531185
775,-0.012092599
776,0.018497024
777,-0.006399999
778,0.0031422577
779,0.01603974
780,0.019580329
781,-0.004716933
782,0.0024438906
783,0.008317833
784,0.009230897
785,0.0020323447
786,-0.009687167
787,0.013702763
788,0.002168849
789,0.014543972
790,-0.0121374875
791,-0.0052451664
792,0.0044273506
793,-0.01296564
794,0.0018349945
795,0.013702979
796,-0.0018627733
797,-0.0032247154
798,0.004700928
799,-0.0043479414
800,-0.0030017218
801,0.015101452
802,0.0028636158
803,-0.005517861
804,-0.00078369194
805,0.00096352294
806,0.01960393
807,-0.013508456
808,0.009142782
809,-0.012073498
810,0.00042022808
811,-0.005199634
812,-0.0065976833
813,0.0058905007
814,0.0010401686
815,-0.0046857144
816,-0.0071713906
817,0.0033687097
818,-0.008496627
819,0.0055934545
820,-0.0037222528
821,-0.008931742
822,-0.013191956
823,-0.0016599647
824,-0.001149343
825,0.002149916
826,0.0014101545
827,0.00537697
828,-0.0054452023
829,-0.015463794
830,0.018325929
831,0.0038146996
832,-0.004612725
833,-0.015776562
834,0.012128653
835,-0.0028692286
836,0.01163824
837,-0.0055940268
838,0.007308712
839,-0.0034409664
840,0.0025182723
841,0.018042378
842,0.0044599236
843,0.0010079519
844,0.0069535426
845,-0.0033146418
846,-0.002320374
847,0.0020045443
848,-0.009220381
849,-0.0005505973
850,0.017412541
851,0.010405145
852,0.007831224
853,-0.013809157
854,-0.010437494
855,-0.0007888329
856,-0.0042168978
857,-0.017027492
858,0.0010425152
859,-0.0062866653
860,0.0095766075
861,0.008756122
862,0.003380293
863,0.012019185
864,-0.009698988
865,0.0061458014
866,-0.0043667904
867,0.012182517
868,0.017051218
869,0.0007109496
870,-0.0047242455
871,0.0048783314
872,-0.010718113
873,-0.0068710935
874,0.006064139
875,0.005711413
876,0.0052226693
877,0.0038045757
878,0.013120453
879,-0.0098534515
880,0.0076964786
881,-0.0036697998
882,0.0038623565
883,0.017632127
884,-0.0106804725
885,-0.011152529
886,-0.0015678704
887,0.00049305154
888,0.00018190048
889,0.014894069
890,-0.0092385635
891,-0.0010769881
892,-0.0036521305
893,-0.0030169443
894,-0.008287787
895,0.0035823316
896,-0.004575996
897,-0.015280735
898,-0.01324069
899,0.0086881835
900,-0.0135379005
901,0.0087029245
902,-0.0052161627
903,-0.009753602
904,-0.008917888
905,-0.007328843
906,0.004047751
907,-0.0049764123
908,0.0015318848
909,-0.015367828
910,-0.0018771618
911,0.005121585
912,0.0073320614
913,-0.0011885874
914,-0.005018998
915,0.0062651783
916,-0.008372447
917,0.014203959
918,-0.010550108
919,-0.005471744
920,0.0047036163
921,-0.0007166975
922,0.004190786
923,0.0013212116
924,0.0050856043
925,0.0036835885
926,0.009753493
927,-0.0152991805
928,0.003962536
929,9.877347e-05
930,-0.013724531
931,0.0025086736
932,-0.011835481
933,0.008628743
934,-0.012491686
935,0.010221969
936,0.016478922
937,0.008077522
938,-0.0035794724
939,-0.0008581713
940,0.00670445
941,-0.0054856515
942,0.0025461644
943,-0.015115859
944,0.012349567
945,-0.00776133
946,-0.0022994755
947,-0.0031053848
948,0.008138247
949,0.0063704913
950,-0.008442961
951,-0.0013472274
952,-0.014085213
953,0.0059559857
954,-0.0075204787
955,-0.01583614
956,-0.0045671263
957,-0.01078976
958,-0.0011676473
959,-0.007514071
960,-0.00370792
961,-0.0036211037
962,-0.0062721753
963,0.013390599
964,0.002453286
965,-0.001796245
966,-0.006458937
967,-0.0087042805
968,-0.0124422675
969,-0.0026419421
970,0.0037549047
971,-0.004610976
972,0.010157633
973,7.180562e-05
974,-0.0027217797
975,-0.016831193
976,-0.006564932
977,0.005568585
978,-0.00063131185
979,0.019953279
980,-0.009395391
981,0.0021462322
982,-0.017256944
983,0.01627001
984,0.010101542
985,0.012264783
986,-0.00927172
987,0.009279515
988,-0.005818558
989,-0.00926455
990,0.01622809
991,0.004758708
992,0.0025389867
993,0.0038699806
994,0.0096026305
995,0.0143182995
996,0.0072580134
997,-0.0129079865
998,-0.012607275
999,-0.00031927167
1000,0.008863551
1001,-0.00073062425
1002,0.008923526
1003,0.005023458
1004,0.015004716
1005,-0.005472676
1006,0.0036099453
1007,0.0061954325
1008,0.005880611
1009,-0.003481488
1010,0.012305868
1011,0.015427848
1012,-0.002715551
1013,-0.0077041644
1014,-0.017748712
1015,0.004502868
1016,-0.006955046
1017,-0.010169241
1018,-0.003629615
1019,-0.0126309395
1020,0.016708214
1021,-0.012077702
1022,0.0043083825
1023,0.002229371
1024,-0.010750275
1025,-0.014665219
1026,-0.0021481204
1027,0.007991714
1028,0.010743401
1029,0.010880435
1030,-0.01111778
1031,-0.010061887
1032,-0.008037228
1033,-0.009134449
1034,-0.0055965804
1035,-0.0031527139
1036,0.0049435
1037,0.0062754285
1038,-0.0016915053
1039,-0.0026947195
1040,-0.00024564544
1041,-0.013092716
1042,0.005885628
1043,-0.0023123098
1044,-0.0019682613
1045,-0.0018854827
1046,-0.0030436176
1047,-0.007289465
1048,0.0010451067
1049,-0.015028392
1050,-0.0019229681
1051,0.0018413012
1052,-0.0032656721
1053,0.0041615325
1054,0.0027190137
1055,0.012851634
1056,0.005810729
1057,0.011873811
1058,-0.0001858004
1059,0.010734036
1060,0.017040186
1061,0.0071439696
1062,0.007853858
1063,0.008349152
1064,0.001674081
1065,0.015654601
1066,0.012519325
1067,0.0017595784
1068,0.004750727
1069,-0.0017586778
1070,0.0058283326
1071,0.0016738629
1072,-0.011182395
1073,0.011229515
1074,0.0064461846
1075,0.0062985932
1076,-0.013234261
1077,-0.015933229
1078,0.0058176117
1079,-0.00833692
1080,-0.0051663495
1081,0.009461788
1082,-0.009516185
1083,-0.0009170475
1084,-0.012780041
1085,0.015081691
1086,-0.0064592427
1087,-9.0215784e-05
1088,-0.0011565326
1089,0.0007337308
1090,0.018007131
1091,-0.0001957976
1092,0.010789206
1093,0.010374716
1094,-0.001509947
1095,0.009685708
1096,0.0052631465
1097,0.0021609177
1098,-0.004292146
1099,0.00026478665
1100,-0.010504229
1101,0.005181181
1102,0.01250941
1103,0.0123794805
1104,0.0059745866
1105,0.0014755983
1106,-0.0031203798
1107,0.013901832
1108,-0.00091690704
1109,0.008526284
1110,0.0068896394
1111,0.007553022
1112,-0.012292705
1113,0.019600568
1114,-0.005687317
1115,0.00545607
1116,-0.007584374
1117,0.0037020138
1118,0.008824115
1119,0.001880088
1120,0.0035671666
1121,0.0019600464
1122,0.013019046
1123,-0.0025707767
1124,0.0030445694
1125,0.0019945784
1126,0.0025234162
1127,-0.008761728
1128,0.0034141622
1129,0.0038961044
1130,-0.008628537
1131,0.0039178766
1132,0.0078455135
1133,-0.012315912
1134,0.0023207865
1135,0.00951072
1136,-0.0031606057
1137,0.002422281
1138,0.010855824
1139,0.0011451198
1140,-0.008362919
1141,0.0099873785
1142,0.0035214142
1143,0.0040063704
1144,-0.0006437548
1145,0.0010487338
1146,-0.0037744266
1147,0.0036172122
1148,-0.0137177
1149,-0.011803195
1150,0.0063179964
1151,0.013716502
1152,0.0069533414
1153,-0.005529758
1154,-0.018671641
1155,-0.00045735063
1156,0.0028894022
1157,-0.011194368
1158,-0.00027359359
1159,0.004729344
1160,0.002676678
1161,-0.007800678
1162,0.0011467765
1163,0.0054597035
1164,-0.007058849
1165,-0.00053038343
1166,0.014171776
1167,-0.009386819
1168,-0.013120661
1169,0.014656614
1170,0.0010419132
1171,0.004906248
1172,0.008399482
1173,-0.008901178
1174,0.00939873
1175,-0.013354882
1176,0.0021800508
1177,-0.0012631381
1178,0.013797204
1179,0.015157671
1180,0.014583767
1181,-0.010255496
1182,-0.00783279
1183,-0.013805507
1184,0.007189275
1185,0.0011570794
1186,-0.008967829
1187,-0.0068750572
1188,-0.012935708
1189,-0.007687456
1190,0.002934091
1191,-0.012035899
1192,0.01650071
1193,0.0077757495
1194,-0.013444327
1195,0.000767533
1196,5.3251773e-07
1197,-0.016589811
1198,0.0057494766
1199,0.008376896
1200,0.008232322
1201,0.0028147318
1202,0.0021265594
1203,-0.019024402
1204,-0.0061679804
1205,0.013075162
1206,0.0016610043
1207,0.014340508
1208,0.007502141
1209,0.01127804
1210,-0.010825911
1211,0.010270266
1212,0.0015414204
1213,0.009855137
1214,-0.0010959839
1215,-0.007926899
1216,-0.0047825114
1217,-0.006655195
1218,0.015769787
1219,0.014878052
1220,-0.0022650254
1221,-0.003447442
1222,0.011571518
1223,-0.017369775
1224,-0.009874828
1225,-0.005854765
1226,0.008263893
1227,-0.008275811
1228,0.012601828
1229,-0.0047991923
1230,0.003801643
1231,0.008357954
1232,-0.014748718
1233,0.011707153
1234,-0.0001988513
1235,-0.0018491673
1236,-0.008513254
1237,0.0013664126
1238,0.005215731
1239,0.014481412
1240,-0.0024928178
1241,0.011052176
1242,-0.01395933
1243,0.013627959
1244,0.01068753
1245,0.0063855713
1246,0.005928979
1247,-0.0015662948
1248,0.006401591
1249,-0.015002406
1250,0.013974764
1251,-0.007399643
1252,0.01244881
1253,-0.009286644
1254,0.006431683
1255,0.00091983355
1256,0.005339783
1257,0.018088825
1258,0.0008078011
1259,-0.0048634526
1260,-0.0029163084
1261,0.015197848
1262,-0.0024769679
1263,0.004598158
1264,-0.0080344975
1265,-0.00944819
1266,0.01509156
1267,0.012316732
1268,-0.013551348
1269,-0.0019340757
1270,-0.0015910222
1271,0.009370613
1272,-0.0109215565
1273,-0.012524167
1274,-0.0061563
1275,-0.014301446
1276,-0.007940427
1277,-0.005223616
1278,0.007539909
1279,0.004031044
1280,-0.0038527218
1281,0.001677569
1282,-0.009133771
1283,0.008988659
1284,-0.006065494
1285,0.0031311247
1286,0.0054581044
1287,0.0012672705
1288,0.013251722
1289,-0.0041149524
1290,-0.011418553
1291,-0.0034416483
1292,-0.010379248
1293,0.00019883428
1294,-0.005020798
1295,-0.017634965
1296,-0.0055559403
1297,0.009872543
1298,0.0052012256
1299,-0.0038231253
1300,0.0016570472
1301,0.0049666823
1302,-0.007267581
1303,0.0006137962
1304,-0.009515423
1305,-0.00053342804
1306,0.0042992136
1307,0.006386287
1308,0.014775758
1309,0.00965497
1310,0.019307798
1311,0.00047513648
1312,0.0032860707
1313,-0.0039049026
1314,-0.015920801
1315,-0.0025062873
1316,-0.005615846
1317,-0.012630788
1318,-0.009534227
1319,0.015867824
1320,0.01094647
1321,0.00199195
1322,-0.0014524587
1323,0.011098595
1324,-0.0011008211
1325,-0.00889452
1326,0.0119875455
1327,-0.0013215507
1328,0.0056016706
1329,0.0025793698
1330,0.0068539088
1331,0.0032551235
1332,-0.007797579
1333,-0.013667975
1334,-0.0017209513
1335,0.013172816
1336,-0.0042136568
1337,-0.0048450097
1338,-0.003921496
1339,0.008551526
1340,0.007902869
1341,0.0089674005
1342,0.0004211482
1343,-9.3719257e-07
1344,-0.0068954895
1345,0.0016594646
1346,0.0007468153
1347,0.002218179
1348,0.017514408
1349,-0.015549332
1350,-0.009759712
1351,0.0065033636
1352,0.012266706
1353,0.0040296996
1354,0.0058448496
1355,-0.0023606112
1356,0.002002273
1357,-0.006911793
1358,-0.0033068922
1359,-0.005704944
1360,0.0041799513
1361,-0.0041066417
1362,0.010472455
1363,0.002498914
1364,-0.008338839
1365,0.008561373
1366,0.011765877
1367,0.004952204
1368,-0.012383365
1369,0.006152152
1370,0.00783354
1371,-0.0051781028
1372,0.010354744
1373,-0.016446833
1374,0.01413821
1375,-0.0026467065
1376,-0.014258078
1377,-0.009454874
1378,-0.00462929
1379,0.0012812127
1380,0.007680068
1381,0.008910564
1382,-0.009628793
1383,-0.007041643
1384,-0.011482793
1385,-0.008304545
1386,0.0059468243
1387,-0.00092142477
1388,0.0038755538
1389,-0.002536564
1390,-0.009375581
1391,0.011031997
1392,0.007844062
1393,0.01961014
1394,-0.009741892
1395,0.00043247294
1396,-0.0032660146
1397,0.0017271118
1398,0.002382188
1399,0.00657247
1400,0.014386872
1401,-0.004133569
1402,0.0034755876
1403,-0.0010287038
1404,-0.005027792
1405,-0.01698446
1406,-0.0071119573
1407,0.007778634
1408,-0.0029061234
1409,-0.01454758
1410,-0.0039223563
1411,-0.017955732
1412,-0.0048450856
1413,0.0061731413
1414,0.0016984271
1415,-0.0011149745
1416,-0.0065396973
1417,0.0006784375
1418,0.008288934
1419,-0.019985683
1420,-0.010131631
1421,0.011829895
1422,0.011161776
1423,0.002245057
1424,-6.128385e-05
1425,-0.0016984477
1426,0.0145136425
1427,-0.008630916
1428,-0.0036741788
1429,-0.0042873337
1430,0.0056711105
1431,-0.014781196
1432,-0.0131954765
1433,-0.0038457694
1434,0.0029488371
1435,-0.0084611
1436,-0.011117695
1437,0.0010965798
1438,-0.007718516
1439,-0.0007407229
1440,-0.013589618
1441,-0.0033879494
1442,0.011819321
1443,-0.0062186513
1444,0.0024050314
1445,-0.0040526288
1446,0.00081622787
1447,0.0019908813
1448,-0.018567529
1449,-0.008627209
1450,0.0070432997
1451,-0.016699037
1452,-0.011912937
1453,-0.011587575
1454,0.0058848886
1455,-0.01650932
1456,-0.0067528533
1457,-0.005320662
1458,-0.009311473
1459,-0.005114033
1460,-0.002972714
1461,0.0031687566
1462,-0.0035953007
1463,-0.0069402037
1464,-0.004374344
1465,0.00022032458
1466,0.006131739
1467,-0.008783051
1468,6.2165316e-05
1469,-0.002159859
1470,0.012854989
1471,0.013146765
1472,0.00632002
1473,-0.0086001735
1474,-0.006277892
1475,-0.012814237
1476,-0.0077553904
1477,-0.00048356564
1478,-0.007830685
1479,0.015193719
1480,0.010160118
1481,-0.00496048
1482,-5.3777378e-05
1483,-0.007298706
1484,0.0034258042
1485,0.008289179
1486,0.00057309587
1487,5.79416e-05
1488,-0.003771912
1489,0.0060223495
1490,-0.009068872
1491,-0.018471655
1492,0.0004418791
1493,-0.0005004618
1494,-0.0036408044
1495,-0.0069000493
1496,0.003901831
1497,-0.013239299
1498,-0.0020040844
1499,-0.011015166
1500,-0.00412659
1501,-0.019474406
1502,-0.019229366
1503,0.0048560584
1504,-0.006942234
1505,-0.002117863
1506,0.00011951537
1507,-0.016533628
1508,-0.011058383
1509,-0.011988592
1510,0.00815156
1511,0.0019499351
1512,-0.008475031
1513,0.012108275
1514,0.0024631901
1515,-0.01619391
1516,-0.008022067
1517,-0.015104461
1518,-0.002055077
1519,0.004052697
1520,0.00078692776
1521,-0.005900775
1522,0.017940013
1523,0.010125136
1524,0.0026017274
1525,-0.00956328
1526,0.0032935592
1527,0.009061855
1528,-0.009348302
1529,0.009573743
1530,-0.008704537
1531,-0.009978745
1532,-0.011298065
1533,0.011652489
1534,-0.012724929
1535,-0.010419381
1536,-0.0109586315
1537,-0.0038697023
1538,-0.002148637
1539,0.016636042
1540,0.019626815
1541,-0.0067805243
1542,0.009217224
1543,-0.00015354806
1544,0.0018869232
1545,0.012935338
1546,0.0013906909
1547,-0.010653591
1548,-0.00792954
1549,0.0029741835
1550,-0.014445469
1551,0.004889105
1552,0.006443848
1553,0.0043481337
1554,0.005330105
1555,-0.0047184536
1556,-0.0059783785
1557,-0.0059192698
1558,0.002931885
1559,0.001068898
1560,-0.019270256
1561,0.011824855
1562,-0.0024990716
1563,-0.004608677
1564,0.0004292875
1565,-0.0047804113
1566,-0.0048596994
1567,0.0060066353
1568,-0.011375893
1569,0.0050969124
1570,-0.0063718716
1571,0.009379396
1572,-0.012499865
1573,0.0010779042
1574,0.010882698
1575,-0.014748474
1576,0.004289854
1577,-0.01186856
1578,-0.017688544
1579,-0.0007383776
1580,0.0008292329
1581,-0.019683382
1582,-0.015634006
1583,0.006362734
1584,-0.007978942
1585,0.0041154004
1586,0.008950717
1587,-0.008120532
1588,-0.017744787
1589,-0.0048323516
1590,-0.010861364
1591,-0.015202656
1592,0.013204824
1593,-0.0003122953
1594,0.01952335
1595,-0.004804338
1596,0.0039000208
1597,-0.008136638
1598,0.0071086064
1599,0.013384415
1600,-0.0063267564
1601,-0.010257544
1602,0.015052155
1603,0.003700126
1604,0.0017140561
1605,0.007893913
1606,0.002807551
1607,0.0056540905
1608,0.008290424
1609,0.0015343893
1610,0.0018963942
1611,0.0056661763
1612,-0.0119151315
1613,-0.00856952
1614,0.0028214736
1615,-0.004157859
1616,0.0010213036
1617,0.0020853
1618,-0.013405778
1619,-0.0051187593
1620,0.009503201
1621,-0.0140515575
1622,-0.010936099
1623,0.013965575
1624,0.006783743
1625,-0.00079371687
1626,-0.010719459
1627,-0.0028448787
1628,-0.004707516
1629,0.00746974
1630,0.0049856654
1631,-0.0023419287
1632,-0.0039614635
1633,0.0066495133
1634,-0.007987886
1635,0.007026253
1636,0.007661035
1637,-0.0026829557
1638,0.0060703694
1639,0.005571068
1640,0.0052683163
1641,0.0030650925
1642,-0.004264227
1643,0.007101013
1644,-0.0009947106
1645,-0.0053101503
1646,0.005500785
1647,-0.002567526
1648,0.0007887576
1649,0.008430316
1650,-0.00043416282
1651,0.013666938
1652,0.009531356
1653,-0.0053941193
1654,-0.019169645
1655,0.006652429
1656,-0.015587707
1657,-0.010559706
1658,0.0068103615
1659,0.0034928578
1660,-0.007940104
1661,-0.00029971643
1662,-0.005323126
1663,0.009522478
1664,0.0010141258
1665,0.01745247
1666,-0.004445776
1667,0.008258322
1668,0.009899858
1669,0.013834524
1670,-0.0010283199
1671,0.004443711
1672,-0.0007958357
1673,-0.0019590184
1674,-0.018113513
1675,-0.012539048
1676,-0.0017370248
1677,-0.005125923
1678,-0.015206645
1679,-0.0029420415
1680,-0.0072391443
1681,0.0045011663
1682,0.00076288264
1683,0.007189654
1684,-0.00034846898
1685,0.0072336583
1686,0.008046122
1687,0.0050667506
1688,0.0145031
1689,0.008245834
1690,-0.0048186705
1691,0.002374829
1692,0.002183494
1693,-0.0067533473
1694,-0.0029421838
1695,-0.008590309
1696,0.00206173
1697,-0.010635024
1698,-0.009758648
1699,-0.00084923685
1700,0.016705679
1701,0.0022549261
1702,0.0006563251
1703,-0.0011297803
1704,-0.0071571567
1705,-0.0035719834
1706,0.0021359716
1707,0.0009972817
1708,-0.006353711
1709,0.0032250811
1710,0.0039303717
1711,-6.0411825e-05
1712,-0.004131758
1713,-0.010554758
1714,0.0006349326
1715,-0.016119558
1716,0.0067843567
1717,-0.0046794624
1718,-0.003831393
1719,0.00411561
1720,-0.017880274
1721,-0.013336009
1722,-0.0013524091
1723,0.004286108
1724,0.0026312186
1725,-0.0017426157
1726,0.008936848
1727,0.0026943856
1728,-0.0056953602
1729,0.0025831345
1730,-0.0046622595
1731,-0.0065792245
1732,-0.009001042
1733,0.00014539671
1734,0.008066365
1735,-0.011374883
1736,0.0012479736
1737,0.0009806916
1738,-0.00079472724
1739,0.011823384
1740,-0.0077405265
1741,-0.007260911
1742,-0.004910323
1743,-0.00031176407
1744,-0.0034492123
1745,0.0055440944
1746,0.018259648
1747,-0.0046376646
1748,-0.008696876
1749,-0.0073373774
1750,-0.017858313
1751,0.004519987
1752,-0.017626682
1753,0.0020047196
1754,0.009522334
1755,0.0075516785
1756,-6.948838e-05
1757,0.006888781
1758,0.00087791804
1759,0.00025633973
1760,0.016701229
1761,0.011530502
1762,0.0026147293
1763,-0.01045174
1764,0.0032113867
1765,0.000115500334
1766,-0.0005527589
1767,0.007054358
1768,-0.007853373
1769,0.0013778972
1770,0.008815832
1771,-0.0094919065
1772,0.012171543
1773,-0.008470564
1774,-0.003195061
1775,0.0028627452
1776,0.0051004067
1777,0.008795063
1778,-0.006955073
1779,0.0017812324
1780,-0.016105114
1781,-0.0053762496
1782,0.0057299454
1783,-0.01135332
1784,0.014469162
1785,0.0040014843
1786,0.0012875317
1787,0.0134809865
1788,-0.0025429837
1789,-0.010537326
1790,0.004461139
1791,-0.009819905
1792,-0.0075839716
1793,-0.004488768
1794,-0.0029317325
1795,-0.011989574
1796,0.008890487
1797,-0.0012645791
1798,0.0034722511
1799,-0.012323328
1800,-0.004787743
1801,-0.0036011767
1802,0.016402872
1803,-0.0001383746
1804,-0.00023709268
1805,0.0050936765
1806,-0.016519804
1807,-0.0060867397
1808,-0.00936324
1809,-0.0100688515
1810,0.00819639
1811,0.0017985989
1812,-0.0063906107
1813,-0.0025094838
1814,-0.0021472254
1815,0.010284961
1816,-0.009242783
1817,0.0004684473
1818,0.008796066
1819,0.004830234
1820,0.0015669765
1821,-0.002117723
1822,0.011067451
1823,0.005645262
1824,-0.0011725278
1825,-0.013341774
1826,0.0071908617
1827,-0.011285544
1828,-0.01101832
1829,-0.0025094992
1830,-0.001083732
1831,-0.0005934721
1832,0.009781975
1833,0.018661039
1834,-0.0023406255
1835,-0.0067352685
1836,-0.01248362
1837,0.006873943
1838,0.0043396945
1839,-0.008748023
1840,0.013424423
1841,-0.0077552893
1842,0.008941899
1843,0.005369304
1844,0.0019521342
1845,0.013038943
1846,-0.016912252
1847,-0.005812146
1848,-0.0002061858
1849,-0.012067114
1850,-0.005306349
1851,0.00402911
1852,-0.016694304
1853,0.0012806995
1854,0.0010197683
1855,0.015175242
1856,0.007932512
1857,-0.011557677
1858,0.005681507
1859,0.011876758
1860,0.017632905
1861,0.010526615
1862,-0.009723831
1863,-0.0012382641
1864,-0.0010172114
1865,-0.010815533
1866,0.0017960594
1867,0.0035236573
1868,-0.019555088
1869,-0.0032245093
1870,0.0028622255
1871,-0.0112911295
1872,0.008505563
1873,0.0037423319
1874,-0.0062896954
1875,-0.0060332553
1876,-0.017453939
1877,0.017406724
1878,0.0005199959
1879,0.0027704004
1880,0.006535248
1881,0.0011296775
1882,-0.017404862
1883,-0.0033392033
1884,0.007556416
1885,-0.004338647
1886,0.0103013795
1887,0.019317295
1888,0.009467893
1889,0.0118142245
1890,-0.001184667
1891,0.010132042
1892,-0.004290636
1893,0.0024510722
1894,0.00056156964
1895,0.013307887
1896,0.0024116368
1897,-0.0007760973
1898,0.003325346
1899,-0.0076019466
1900,-0.006398907
1901,-0.004056757
1902,-0.0007570384
1903,0.0044573266
1904,0.011743312
1905,0.0032920383
1906,0.018234838
1907,0.0011104842
1908,-0.0029330575
1909,0.0014224361
1910,-0.014523861
1911,-0.003426032
1912,-0.0076232515
1913,-0.004930776
1914,0.0027846533
1915,0.007758356
1916,0.002155903
1917,0.012534943
1918,0.010339944
1919,0.0013380855
1920,0.007230824
1921,0.011710635
1922,0.000874973
1923,0.0036511722
1924,0.005506443
1925,0.0037279835
1926,-0.0012235154
1927,-0.012950901
1928,-0.008503969
1929,-0.017545959
1930,-0.0053539905
1931,-0.010513354
1932,-0.013719279
1933,-0.014998416
1934,0.013568345
1935,-0.0055951453
1936,-0.0017407831
1937,0.014045075
1938,-0.0015845508
1939,0.009102597
1940,0.0043498203
1941,-0.01673259
1942,-0.003604343
1943,0.0017356889
1944,-0.005202385
1945,0.0083367415
1946,-0.006853649
1947,0.0020176494
1948,0.01647127
1949,0.007064086
1950,0.017749818
1951,0.0120949
1952,-0.0113782305
1953,0.0041828225
1954,-0.00045653473
1955,0.00013832185
1956,0.015574176
1957,-0.0014969932
1958,0.00972685
1959,0.004234713
1960,-0.009105154
1961,-0.01758417
1962,0.0059729093
1963,0.008786162
1964,0.0066587874
1965,0.0071403617
1966,0.010096138
1967,0.0029531084
1968,0.0076407376
1969,0.008194667
1970,0.009811422
1971,0.00064217194
1972,0.0076822117
1973,-0.0056240843
1974,-0.00035813253
1975,-0.004405314
1976,0.00781599
1977,0.0024015077
1978,-0.0059231794
1979,0.00604138
1980,-0.0018930277
1981,0.0125885205
1982,-0.00042844066
1983,-0.00438633
1984,-0.0038016029
1985,-0.0046911454
1986,-0.008553696
1987,-0.004283564
1988,-0.002122216
1989,0.00554431
1990,-0.0072586886
1991,-0.00972166
1992,-0.005537332
1993,-0.0071275327
1994,0.007766001
1995,-0.0070015066
1996,0.012075915
1997,0.008884417
1998,0.0030014187
1999,0.00569281
2000,-0.006044263
2001,-0.006458524
2002,-0.0037551154
2003,-0.0046609677
2004,0.005835684
2005,0.007996993
2006,-0.00455251
2007,-0.011926736
2008,-0.018399395
2009,-0.0149279265
2010,-0.009870997
2011,-0.010641964
2012,0.0023562997
2013,0.0005006713
2014,-0.0020251432
2015,0.008661201
2016,0.0027137503
2017,-0.0041925237
2018,-0.0042558224
2019,6.785253e-05
2020,-0.013681797
2021,0.00061626144
2022,0.008239349
2023,0.007024021
2024,0.0021704426
2025,0.013350313
2026,0.0008897739
2027,-0.0013073717
2028,0.0038736379
2029,-0.0025268756
2030,-0.010446899
2031,-0.0060380152
2032,0.0047143158
2033,-0.0033928542
2034,0.007397203
2035,-0.009718203
2036,0.0058722356
2037,0.0060164565
2038,-0.007008081
2039,-0.012136689
2040,-0.0076696402
2041,-0.006352912
2042,-0.013521244
2043,0.003265483
2044,-0.0046206224
2045,-0.013474252
2046,-0.0020551856
2047,0.01643077
2048,0.015564716
2049,0.0024370507
2050,0.0029429304
2051,0.004354651
2052,-0.009117086
2053,0.004479858
2054,-0.008379268
2055,-0.016103389
2056,-0.0136913005
2057,0.003993664
2058,0.017662637
2059,-0.014799785
2060,0.014412449
2061,0.0066669183
2062,0.0018613635
2063,0.0056144786
2064,-0.003154457
2065,-0.017387666
2066,0.008992699
2067,0.00050165714
2068,0.008438001
2069,-0.017160414
2070,0.0021826301
2071,0.0135528715
2072,0.0026978771
2073,-0.0094949035
2074,-0.012245332
2075,-0.0004168545
2076,-0.0012565466
2077,-0.0039235903
2078,-0.0046488023
2079,-0.0104281455
2080,-0.0030986774
2081,0.008776389
2082,0.008131189
2083,0.014959456
2084,5.4792872e-05
2085,0.011548618
2086,-0.0061377613
2087,-0.0056121694
2088,0.00044759028
2089,0.014167982
2090,-0.0093185315
2091,-0.0045840456
2092,-0.005499482
2093,0.017226098
2094,-0.0013845984
2095,-0.002386382
2096,0.0020844056
2097,0.010424035
2098,0.012099454
2099,-0.0041102944
2100,0.0014093822
2101,0.0028054758
2102,-0.015269129
2103,0.0015655645
2104,-0.0038612909
2105,0.010902139
2106,0.015759569
2107,-0.0054231235
2108,-0.0052646766
2109,-0.011938702
2110,0.008426634
2111,-0.010746186
2112,-0.003756824
2113,-0.003726004
2114,-0.014709225
2115,0.014758235
2116,0.0043693646
2117,0.021611473
2118,-0.0063505014
2119,-0.0056962436
2120,0.016021565
2121,0.006095241
2122,0.0007074856
2123,-0.009087066
2124,-0.012780216
2125,-0.015057276
2126,-0.0011436738
2127,-0.00045275706
2128,0.009283637
2129,-0.001169827
2130,-0.0069618043
2131,0.0039678677
2132,0.0053348187
2133,-0.0017882084
2134,0.0066646924
2135,-0.0073864697
2136,-0.012874628
2137,-0.010193562
2138,0.0009779339
2139,0.010541325
2140,0.0045830375
2141,-0.015944185
2142,0.013336622
2143,0.004952371
2144,0.009943728
2145,0.011856908
2146,-0.0026411375
2147,0.0018499832
2148,0.0073732072
2149,0.008410799
2150,0.006891559
2151,0.0031407708
2152,0.014927098
2153,-0.005386108
2154,0.017919404
2155,0.00084620685
2156,0.0024368728
2157,0.011512739
2158,-0.011107295
2159,-0.004262323
2160,0.00022648349
2161,0.01412123
2162,-0.015781414
2163,0.0011778281
2164,0.024920767
2165,0.020927103
2166,-0.008080835
2167,0.002692888
2168,-0.0018096243
2169,0.005668673
2170,0.010634657
2171,-0.017560555
2172,0.0032534488
2173,-0.007871445
2174,0.00862092
2175,0.0074098194
2176,0.010747072
2177,0.00667711
2178,-0.003078004
2179,0.00553204
2180,-0.000703398
2181,0.0061854776
2182,-0.005109204
2183,0.000299353
2184,0.0010470507
2185,-0.012340826
2186,-0.0028759898
2187,-0.008811136
2188,0.00740563
2189,0.0031409683
2190,0.009724879
2191,0.012204709
2192,0.0022539077
2193,0.0089134155
2194,0.0018583016
2195,0.0003001874
2196,0.0037823932
2197,0.001913524
2198,0.0016290548
2199,-0.019521475
2200,-0.012352443
2201,0.016111795
2202,-0.014612298
2203,-0.00378724
2204,0.012332529
2205,-0.0045267753
2206,-0.016918724
2207,0.0023728223
2208,-0.0035728833
2209,-0.012047506
2210,0.0022829142
2211,-0.0023711794
2212,-0.009698746
2213,0.0069668656
2214,-0.006609821
2215,-0.016551975
2216,-0.014718045
2217,0.0044000307
2218,-0.0020482137
2219,0.02072484
2220,-0.0014771606
2221,0.0064682453
2222,0.009345642
2223,0.005590226
2224,-0.004596012
2225,0.0021044742
2226,-0.00366244
2227,-0.009423809
2228,0.0090510035
2229,0.01498705
2230,0.0047635436
2231,0.014918343
2232,0.0020247905
2233,0.007202744
2234,-0.004775967
2235,-0.0065398016
2236,-0.007553288
2237,-0.0016815057
2238,-0.008889906
2239,-0.010768305
2240,-0.004157271
2241,-0.012525665
2242,0.0014146194
2243,-0.004974825
2244,-0.0021216534
2245,0.0017103069
2246,-0.00072184275
2247,-0.000103271355
2248,0.0069383094
2249,-0.009554231
2250,8.8296234e-05
2251,-0.006395508
2252,-0.006134517
2253,-0.0066719432
2254,0.0017238803
2255,-0.0005855063
2256,-0.00041846433
2257,-0.002030706
2258,-0.012048684
2259,-0.0075925784
2260,-0.0029710403
2261,0.0026784923
2262,0.014223491
2263,-0.007785033
2264,0.011144667
2265,-0.0028137364
2266,0.0022116983
2267,0.008009897
2268,-0.003416842
2269,0.010121557
2270,-0.013673683
2271,0.0069883177
2272,-0.004854229
2273,-0.015277931
2274,-0.006056944
2275,4.6319823e-05
2276,0.019589672
2277,0.008061909
2278,-0.010118246
2279,-0.015951162
2280,-0.008207113
2281,-0.009917707
2282,0.011416377
2283,0.0008433761
2284,-0.0008850476
2285,0.0064655524
2286,0.010643827
2287,0.0018079171
2288,0.0028884672
2289,-0.0103342105
2290,0.0078047784
2291,0.009539832
2292,0.0054195523
2293,-0.0031873088
2294,0.0068259183
2295,0.018499773
2296,-0.011578807
2297,0.007000366
2298,0.00024380561
2299,-0.008972067
2300,0.0065477616
2301,-0.017599292
2302,-0.011592587
2303,0.010477493
2304,-0.0163085
2305,0.007889723
2306,0.005280468
2307,-0.012725446
2308,-0.005472216
2309,-0.014636747
2310,0.01597937
2311,-0.013580513
2312,-0.007443165
2313,0.0057817544
2314,-0.009158155
2315,0.004858781
2316,0.003461456
2317,0.0020486112
2318,0.00749558
2319,-0.00824939
2320,-0.00139691
2321,-0.00051396067
2322,0.011891882
2323,0.011996918
2324,0.0145355705
2325,0.010305696
2326,-0.013299224
2327,-0.007405855
2328,-0.0025168457
2329,-0.00549742
2330,-0.002812692
2331,-0.002800935
2332,0.0028495917
2333,0.006481906
2334,-0.0005269528
2335,-0.0108021
2336,0.003274551
2337,0.0007725019
2338,-0.0014805688
2339,0.00097123696
2340,-0.0015938916
2341,0.01760014
2342,0.013404624
2343,0.004765852
2344,0.010002086
2345,0.0062196497
2346,-0.0017266631
2347,0.0040815496
2348,0.0005261797
2349,-0.011563855
2350,-0.010100378
2351,-0.0022909346
2352,0.008934221
2353,-0.001949042
2354,0.00042762462
2355,0.007712264
2356,0.0021864527
2357,-0.0009928356
2358,0.011810636
2359,0.008581467
2360,-0.005077738
2361,0.0028457532
2362,0.0055815787
2363,0.0007766319
2364,-0.0020617684
2365,0.01724265
2366,-0.0010958806
2367,-0.0018366582
2368,0.0031658649
2369,0.0063824845
2370,6.1736166e-05
2371,-0.0028994638
2372,0.009647825
2373,0.01578802
2374,0.00028736246
2375,0.018227145
2376,0.010548641
2377,0.017647257
2378,0.0048853136
2379,0.0056847236
2380,-0.0076741055
2381,0.0033297748
2382,0.011322619
2383,0.007232109
2384,0.0044629527
2385,0.0015653347
2386,0.013070369
2387,0.009790713
2388,-0.0031941733
2389,0.013718875
2390,-0.011419139
2391,0.0023336404
2392,-0.006720689
2393,0.006065642
2394,0.0141072655
2395,0.01479438
2396,-0.0064938515
2397,-0.009867402
2398,-0.015525024
2399,-0.014408965
2400,0.005177578
2401,-0.005802278
2402,0.0027151678
2403,0.011911691
2404,-0.001602966
2405,-0.010702418
2406,0.01011507
2407,-0.0027872762
2408,0.0073301615
2409,0.016679298
2410,-0.005546619
2411,0.00952235
2412,0.003602337
2413,0.0069955033
2414,0.0026513054
2415,0.0059049185
2416,-0.0020909272
2417,0.010504699
2418,0.0005314049
2419,0.00033761977
2420,0.0073313382
2421,-0.007358028
2422,0.00934772
2423,0.006037093
2424,0.002880299
2425,0.0150395585
2426,0.014928161
2427,0.013914192
2428,-0.006721979
2429,-0.003133992
2430,-0.014610644
2431,0.004649297
2432,-0.0040396214
2433,0.009791167
2434,-0.012929161
2435,-0.0014314126
2436,0.002190269
2437,-0.002543933
2438,0.0008532191
2439,0.0013791252
2440,0.0014609124
2441,0.0127881775
2442,-0.009263678
2443,-0.008636104
2444,0.012955838
2445,-0.007609296
2446,0.016329257
2447,-0.0022093165
2448,-0.0050213397
2449,0.0025355339
2450,0.0027997796
2451,-0.0073959026
2452,0.015919222
2453,0.007578869
2454,-0.0040657595
2455,-0.004637694
2456,0.0067948406
2457,-0.008890354
2458,0.005677976
2459,0.00064170576
2460,0.0062025166
2461,-0.017627938
2462,0.014276573
2463,0.001108036
2464,-0.00057620957
2465,0.007226885
2466,-0.0076252776
2467,-0.018557662
2468,-0.00119749
2469,-0.0008619474
2470,0.016238416
2471,0.0057700644
2472,0.0057771844
2473,-0.0035574
2474,0.0033320398
2475,-0.010624255
2476,-0.008054215
2477,0.0151865985
2478,0.0018306265
2479,-0.0057270085
2480,0.007819184
2481,0.00031068735
2482,-0.006638036
2483,-0.009861918
2484,-0.002465692
2485,0.01148235
2486,-0.01077804
2487,0.0025071155
2488,-0.0011253856
2489,0.0057734824
2490,0.0028330286
2491,-0.014407499
2492,0.006445465
2493,-0.013918986
2494,0.0018035138
2495,-0.00094119034
2496,-0.006233736
2497,-0.001913469
2498,0.0011549063
2499,-0.007830361
2500,-0.0008835448
2501,-0.0010169856
2502,0.0052010273
2503,-0.00089072384
2504,0.006847162
2505,0.0027851593
2506,-0.017930035
2507,0.0017682838
2508,-0.0075980206
2509,0.012269184
2510,-0.011505354
2511,0.004075854
2512,-0.0018501247
2513,-0.007033645
2514,0.0073579876
2515,-0.0009937374
2516,-0.01016447
2517,-0.014411863
2518,8.383837e-05
2519,0.0011167083
2520,-0.006645033
2521,-0.0026363216
2522,0.016892424
2523,0.00533573
2524,-0.0047500976
2525,0.004472558
2526,0.015225757
2527,0.0026356077
2528,-0.011725396
2529,0.010074899
2530,-0.000741281
2531,-0.012689901
2532,0.009934571
2533,0.009231253
2534,0.002672084
2535,0.013042997
2536,0.0015156926
2537,0.017525464
2538,-0.007485769
2539,-0.010603605
2540,-0.009480297
2541,0.014437676
2542,0.015561756
2543,0.0067706183
2544,-0.0062393295
2545,-0.010212809
2546,-0.0008949891
2547,0.0013935876
2548,0.001938763
2549,0.004127783
2550,-0.010886037
2551,0.0017030209
2552,0.014862855
2553,-0.014563162
2554,0.012521085
2555,-0.0029820171
2556,0.006579518
2557,-0.01093267
2558,-0.0031069263
2559,0.004962823
2560,-0.016581574
2561,-0.005609146
2562,-0.00420352
2563,-0.004978258
2564,-0.0036637725
2565,0.0039542583
2566,0.009354658
2567,0.0062943352
2568,-0.0035217407
2569,-0.002910175
2570,-0.015672568
2571,0.0024172696
2572,-0.0118146455
2573,0.013579388
2574,0.008066522
2575,0.006689018
2576,-0.0056784432
2577,0.006746337
2578,0.014301255
2579,-0.008084329
2580,0.0058919764
2581,-0.013581224
2582,-0.0089071905
2583,-0.0061569484
2584,-0.0008682272
2585,-0.012452809
2586,-0.007787341
2587,0.0060796253
2588,-0.0003899038
2589,-0.0058153053
2590,-0.019023718
2591,-0.009046089
2592,0.0044741556
2593,-0.009657053
2594,-0.0138829565
2595,0.0063036936
2596,0.010779292
2597,-0.003958921
2598,-0.005728621
2599,-0.005915463
2600,-0.00045827983
2601,0.0028197563
2602,0.0007152541
2603,0.0068075936
2604,0.0064270995
2605,0.0110267
2606,-0.012244081
2607,-0.007440272
2608,0.00028003618
2609,-0.0007294193
2610,-0.004766916
2611,-6.3220214e-06
2612,0.0051511554
2613,0.018851772
2614,0.009448054
2615,0.0025825403
2616,0.0008447174
2617,-0.0042809523
2618,0.011106342
2619,-0.0014647814
2620,-0.007356936
2621,-0.012764478
2622,-0.004080845
2623,-0.00076411216
2624,0.013933484
2625,-0.010038518
2626,0.0023455229
2627,-0.015588152
2628,-0.0046365377
2629,0.0100819
2630,-0.0068546967
2631,-0.007938344
2632,0.0048561646
2633,0.009240272
2634,0.012181306
2635,0.0073641813
2636,-0.014355057
2637,-0.00613586
2638,-0.0065235784
2639,0.006662957
2640,0.0018610603
2641,-0.013650782
2642,-0.019866878
2643,-0.01980912
2644,0.0040115844
2645,0.011955911
2646,0.00065113086
2647,-0.004054377
2648,0.00201416
2649,0.0042070276
2650,0.0071301726
2651,-0.00087587617
2652,0.0077828546
2653,0.0018430734
2654,-0.010272863
2655,0.0063577415
2656,-0.0048315944
2657,-0.008854994
2658,-0.002422456
2659,-0.01052374
2660,0.009468585
2661,0.017843574
2662,-0.016898086
2663,-0.005710991
2664,0.005673051
2665,0.008990839
2666,-0.010374706
2667,0.004691782
2668,0.010658122
2669,0.0016062798
2670,0.0035393713
2671,-0.01940793
2672,-0.010767727
2673,-0.004822374
2674,-0.00073159655
2675,0.0029367765
2676,-0.0053952043
2677,-0.007812886
2678,-0.0011996351
2679,-0.0019773482
2680,-0.008079754
2681,0.009151603
2682,0.008638535
2683,-0.0012614706
2684,0.0032631122
2685,0.0071599297
2686,0.008053296
2687,0.006510268
2688,0.010161482
2689,-0.0032368714
2690,-0.0056574116
2691,-0.01858068
2692,-0.002820742
2693,0.0036155537
2694,-0.01564644
2695,-0.0029731933
2696,-0.008376776
2697,0.0050385995
2698,-0.001728391
2699,-0.0033665171
2700,0.012736681
2701,-0.0011840531
2702,0.00029370026
2703,0.018545957
2704,-0.0015841548
2705,-0.018845323
2706,-0.002817218
2707,0.0005110804
2708,-0.010554001
2709,-0.0031468212
2710,0.0013011945
2711,0.000771766
2712,-0.006901499
2713,-0.009456722
2714,-0.0028925375
2715,-0.0018398762
2716,0.00987596
2717,-0.0063401177
2718,-0.011207725
2719,0.005254842
2720,-0.005236671
2721,0.012303525
2722,0.0050157374
2723,0.0036704629
2724,0.0126828
2725,-0.0077181896
2726,-0.00368983
2727,-0.0074644927
2728,-0.011805864
2729,-0.007088446
2730,-0.008828647
2731,0.0046385624
2732,0.011392244
2733,0.012403378
2734,0.0037459268
2735,0.008454147
2736,0.0049802302
2737,-0.004670257
2738,0.011620813
2739,-0.002727168
2740,0.0050747483
2741,0.009234421
2742,0.0028793262
2743,-0.0048653586
2744,0.0126418155
2745,0.013914619
2746,0.0012505531
2747,0.004975886
2748,0.0016939677
2749,0.0010633393
2750,-0.0035749972
2751,0.0073146913
2752,-0.0074563073
2753,-0.004334196
2754,-0.0011018377
2755,0.0066921134
2756,-0.0015979521
2757,0.001653336
2758,-0.00027492677
2759,-0.011364785
2760,1.1650814e-05
2761,-0.0013035111
2762,0.005645088
2763,0.0010398366
2764,0.0062884754
2765,-0.0054917717
2766,0.011319844
2767,0.006884859
2768,0.01829751
2769,0.017141113
2770,-0.0036850737
2771,-0.00030175378
2772,0.007468628
2773,-0.006816387
2774,-0.012213207
2775,0.01414694
2776,-0.00619577
2777,-0.0044413307
2778,0.013105969
2779,-0.017334832
2780,-0.01190463
2781,0.0016437632
2782,0.0009900044
2783,-0.0012160923
2784,0.0059689404
2785,0.0034508437
2786,0.0040864483
2787,-0.010479274
2788,-0.017623343
2789,0.013853564
2790,-0.00614013
2791,-0.00081860495
2792,-0.0037694268
2793,0.016229138
2794,-0.0010682784
2795,0.00407747
2796,0.0075710895
2797,-0.018910227
2798,-0.0070893182
2799,0.01417983
2800,0.00066391146
2801,0.011673084
2802,0.003968389
2803,0.008756333
2804,0.0026269164
2805,-0.0047710384
2806,0.011518975
2807,0.012120504
2808,0.00089874375
2809,0.00810532
2810,0.013779642
2811,-0.013171216
2812,-0.014842161
2813,0.018560238
2814,0.008470305
2815,-0.0017238178
2816,-0.011327094
2817,-0.01024627
2818,-0.0113846995
2819,-0.01183236
2820,-0.00040494173
2821,0.0015297292
2822,0.020117475
2823,-0.014573435
2824,-0.007046683
2825,-0.017757002
2826,0.019194825
2827,0.000847324
2828,0.005556307
2829,0.008340901
2830,-0.0012902445
2831,0.006456891
2832,-0.0059855976
2833,0.00055545056
2834,0.01068209
2835,0.011025132
2836,0.0130879935
2837,0.0064773266
2838,-0.017930966
2839,0.00897326
2840,0.017070184
2841,0.004377437
2842,-0.017337587
2843,0.013445546
2844,0.0054869032
2845,0.013635592
2846,-0.0022504018
2847,0.001687108
2848,0.0028382377
2849,0.0044275667
2850,-0.014140822
2851,-0.019098116
2852,0.0091034565
2853,-0.0014622505
2854,-0.014720768
2855,0.0048572314
2856,-0.0054036607
2857,-0.011187873
2858,0.007849417
2859,0.011397783
2860,-0.0042486116
2861,-0.0066089253
2862,-0.008703191
2863,-0.01520358
2864,-0.009448737
2865,0.017468404
2866,0.0038114055
2867,-0.0057134214
2868,0.01135978
2869,-0.0025980042
2870,-0.00980521
2871,0.010182958
2872,0.012401601
2873,0.0012861497
2874,-0.0016702501
2875,0.0059467116
2876,0.0035587614
2877,-0.008397351
2878,0.016208192
2879,-0.007305517
2880,-0.01637277
2881,0.003283451
2882,0.0072934143
2883,-0.0051877755
2884,-0.00884112
2885,0.0015641212
2886,-0.005110396
2887,-0.0009410638
2888,0.013431067
2889,0.0016620132
2890,0.008586315
2891,-0.008662435
2892,0.004913733
2893,0.0064270976
2894,0.0034701878
2895,0.0024934572
2896,-0.018508807
2897,-0.0065064817
2898,0.00014872167
2899,-0.0036791854
2900,0.0010845842
2901,-0.0046708803
2902,-0.011155909
2903,-0.011739393
2904,0.009004579
2905,0.0061252597
2906,0.009066448
2907,0.006195799
2908,0.0051697968
2909,0.009540643
2910,0.002257733
2911,0.009276641
2912,0.0069361236
2913,0.016776046
2914,-0.008359106
2915,0.008570216
2916,-0.0034820542
2917,0.0147892255
2918,0.010524761
2919,0.0028085273
2920,-0.007612343
2921,0.01737981
2922,-0.0076737413
2923,0.006292583
2924,-0.005498345
2925,-0.01689658
2926,-0.008781773
2927,-0.011833783
2928,-0.001144989
2929,-0.01635849
2930,-0.010386613
2931,0.0019377389
2932,-0.012622146
2933,-0.0051265666
2934,-0.0055785533
2935,0.0027777785
2936,0.01519449
2937,-0.016428357
2938,-0.012857283
2939,-0.0110027315
2940,0.014029079
2941,-0.0029139714
2942,-0.011252271
2943,-0.016040234
2944,-0.014556248
2945,0.002896435
2946,-0.009716747
2947,-0.011986627
2948,0.017676087
2949,-0.0077781216
2950,-0.009852956
2951,0.00090277067
2952,0.0022013758
2953,-0.0016226682
2954,0.0069036586
2955,-0.01077945
2956,-0.0016986568
2957,-0.0019620273
2958,-0.002657413
2959,-0.0002085648
2960,0.002354265
2961,0.015090524
2962,0.012101255
2963,0.0065391953
2964,0.0021152229
2965,0.011682233
2966,0.003072951
2967,-0.0018121128
2968,-0.013209682
2969,-0.01241461
2970,0.0075902715
2971,-0.0014533739
2972,0.008757221
2973,0.003024411
2974,-0.004910515
2975,-0.013795764
2976,-0.0021197614
2977,-0.0019263398
2978,-0.005629152
2979,-0.0011289499
2980,0.0066203317
2981,-0.0021088945
2982,-0.017980935
2983,0.0012166062
2984,-0.009356919
2985,-0.009279472
2986,-0.010359977
2987,-0.0024530846
2988,-0.0066168066
2989,0.0064863805
2990,-0.007523959
2991,0.0051528253
2992,-0.003546223
2993,-0.0030071086
2994,0.016451739
2995,0.0018597143
2996,0.0016251979
2997,-0.0018333952
2998,0.00063333125
2999,0.0025316435
3000,-0.004679319
3001,-0.014966919
3002,0.0012436403
3003,-0.0063730525
3004,0.0014754292
3005,-0.0025389653
3006,-0.011383576
3007,0.0061688214
3008,-0.009932907
3009,0.017424095
3010,0.0047841966
3011,-0.005842021
3012,-0.0030543678
3013,-0.0066494397
3014,0.0052720625
3015,-0.0083104195
3016,-0.0027082239
3017,0.01117806
3018,0.016273953
3019,0.0032698323
3020,-0.010024393
3021,-0.014549273
3022,0.0018890713
3023,-0.0043367906
3024,-0.0019651877
3025,-0.0005341644
3026,0.005751208
3027,-0.0074892216
3028,-0.007876604
3029,-0.0022305173
3030,0.011576572
3031,-0.016507622
3032,0.002802227
3033,-0.013696428
3034,0.008551772
3035,-0.011447211
3036,-0.004310958
3037,0.004216651
3038,0.002267834
3039,-0.0011737362
3040,0.0047362787
3041,0.009194647
3042,0.018488366
3043,-0.01060518
3044,0.009428063
3045,-0.00558605
3046,-0.0011270909
3047,0.0006663665
3048,-0.009252058
3049,-0.0076483833
3050,0.0013186525
3051,-0.008567474
3052,0.010024231
3053,0.00034357508
3054,-0.011427736
3055,0.010314384
3056,0.0014332681
3057,0.000562663
3058,0.0018990224
3059,-0.003266141
3060,-0.006669173
3061,0.0055163456
3062,-0.009827837
3063,-0.00072659913
3064,0.0006381212
3065,-0.004103707
3066,-0.0024547495
3067,0.009865115
3068,0.005959316
3069,0.0045073777
3070,-0.005075048
3071,0.015775474
3072,0.0025855934
3073,-0.0039574853
3074,-0.0041748774
3075,-0.0041872496
3076,-0.0058457498
3077,-0.007371125
3078,-0.0066284835
3079,0.007753852
3080,-0.008344935
3081,-0.0007812875
3082,0.002157716
3083,-0.008287276
3084,0.00854847
3085,-0.0056523615
3086,-0.002164807
3087,-0.011715036
3088,0.008615199
3089,-0.009118257
3090,0.0019809634
3091,-0.0011555918
3092,-0.007596139
3093,-0.00057176425
3094,0.014503596
3095,-0.005366404
3096,-0.0057906937
3097,-0.01518953
3098,-0.011873132
3099,-0.01877242
3100,0.0037299995
3101,-0.002446396
3102,0.0036500979
3103,-0.013343886
3104,-0.006073883
3105,-0.006928018
3106,-0.010645883
3107,-0.0069879857
3108,-0.016381068
3109,-0.01195711
3110,-0.0059378888
3111,-0.0023092506
3112,0.0011126897
3113,0.012321221
3114,0.006737207
3115,0.0039636935
3116,0.012179675
3117,-0.0021232993
3118,-0.019434758
3119,-0.00074246957
3120,-0.0023147694
3121,-0.0069445525
3122,-0.00842904
3123,-0.008324436
3124,0.005669612
3125,-0.014406946
3126,0.012354762
3127,-0.0064091645
3128,-0.005072112
3129,0.004758013
3130,0.018640978
3131,-0.009227407
3132,0.00138183
3133,0.0051396713
3134,-0.0020254562
3135,0.0058861063
3136,-0.0003695534
3137,0.00010544028
3138,-0.0068481113
3139,0.011960789
3140,-0.0069384594
3141,0.00034433312
3142,-0.0071061114
3143,0.011279602
3144,-0.00960641
3145,0.0035425902
3146,0.00517537
3147,0.010614256
3148,-0.0005837157
3149,0.0092527615
3150,0.0020536087
3151,-0.010598007
3152,0.0027569323
3153,-0.0076155085
3154,0.00994463
3155,0.011409438
3156,-0.0087867845
3157,0.012713392
3158,-0.0031591845
3159,0.011152653
3160,-0.010265728
3161,-0.01268751
3162,-0.00581745
3163,0.007932685
3164,0.010555643
3165,0.0063211946
3166,-0.008443047
3167,-0.011230341
3168,0.00023291631
3169,-0.015193481
3170,0.0014875606
3171,0.009948554
3172,-0.00088356575
3173,-0.0049727755
3174,-0.01610833
3175,0.016700368
3176,0.004267337
3177,-0.01750124
3178,0.0064093466
3179,0.00023254551
3180,-0.00486964
3181,0.012734955
3182,0.009546949
3183,0.0033013828
3184,0.0066936384
3185,0.008122798
3186,-0.007911437
3187,-0.004674886
3188,-0.012135079
3189,-0.010560757
3190,-0.0050203344
3191,-0.0186255
3192,-0.013367832
3193,0.0058785235
3194,0.014163661
3195,0.014148231
3196,0.0071542817
3197,-0.0053209397
3198,0.00832862
3199,0.00017601966
3200,-0.012341333
3201,0.007929701
3202,0.018155884
3203,0.0115967095
3204,0.011261537
3205,0.0027098763
3206,0.013264375
3207,-0.0041047246
3208,0.00704233
3209,0.0021377194
3210,0.008323137
3211,0.0011986321
3212,-0.007642181
3213,-0.018696269
3214,-0.01659182
3215,-0.00043450115
3216,0.01580016
3217,-0.013439622
3218,-0.018670466
3219,-0.0025165863
3220,0.009075503
3221,-0.014190642
3222,0.014415258
3223,-0.008684263
3224,0.016036786
3225,0.011214691
3226,-0.0073302486
3227,-0.0063340496
3228,0.009540684
3229,0.013870988
3230,0.002096745
3231,-0.0038095545
3232,0.0038004804
3233,-0.0014485613
3234,0.010297711
3235,-0.0116740065
3236,0.0065902118
3237,0.0048366818
3238,-0.0053436207
3239,-0.007870237
3240,-0.009229241
3241,-0.007231121
3242,-0.0030427459
3243,-0.010757902
3244,-0.010506979
3245,-0.0002716188
3246,-0.0016434459
3247,0.0024257877
3248,0.006236253
3249,0.0008988636
3250,0.003975273
3251,-0.0029252921
3252,-0.0010378554
3253,-0.0022085991
3254,-0.0017167905
3255,0.015282611
3256,-0.005692468
3257,-0.0065267063
3258,-0.009566081
3259,0.003452012
3260,-0.0048016165
3261,0.0049366164
3262,-0.0026313183
3263,-0.008132804
3264,-0.004369835
3265,0.010401156
3266,-0.008633077
3267,-0.011914243
3268,-0.012204325
3269,0.01021061
3270,-0.0010540598
3271,-0.010240055
3272,0.0047883005
3273,-0.016322391
3274,-0.006822408
3275,-0.011901626
3276,0.0038201788
3277,0.0032362458
3278,0.010503107
3279,0.013731272
3280,-0.0033999258
3281,0.011184829
3282,-0.008897523
3283,-0.004336958
3284,-0.006883209
3285,-0.0073238784
3286,0.013306861
3287,-0.008924328
3288,-0.0034579455
3289,0.00702827
3290,0.009130722
3291,0.00046776008
3292,0.007875649
3293,-0.0019170261
3294,0.0012309147
3295,0.0017627858
3296,-0.003573829
3297,-0.0037814034
3298,0.0135891605
3299,0.00020890895
3300,0.0069720326
3301,6.1001283e-05
3302,-0.016885053
3303,0.015403464
3304,-0.005162259
3305,-0.010227133
3306,0.009568126
3307,0.01531034
3308,-0.0034551828
3309,-0.0049033132
3310,-0.0030796626
3311,0.012227295
3312,-0.009103385
3313,-0.007763944
3314,0.01787305
3315,-0.010720657
3316,0.0050903517
3317,-0.009755383
3318,0.0076593333
3319,-0.005258538
3320,0.008279075
3321,-0.016551316
3322,-0.0035830901
3323,-0.013614906
3324,0.01014835
3325,0.0048234225
3326,-0.0035110586
3327,0.0023594287
3328,0.011028712
3329,-0.008356476
3330,0.0060220542
3331,-0.00853116
3332,-0.0037107212
3333,-0.0042642313
3334,-0.012690613
3335,-0.004262208
3336,-0.0061100493
3337,0.012658082
3338,-0.00066667906
3339,-0.0026353383
3340,-0.0021253047
3341,0.012369
3342,-0.005670319
3343,0.0033176437
3344,-0.0026085826
3345,-0.00020029262
3346,-0.006030283
3347,-0.011496936
3348,-0.0017881368
3349,0.009215485
3350,0.007686569
3351,-0.00543066
3352,-0.012852507
3353,0.0022243038
3354,-0.002778872
3355,0.0035537614
3356,-0.0008276793
3357,-0.005330129
3358,0.0054855803
3359,-0.002107422
3360,-0.0033437787
3361,-0.010852716
3362,0.010336923
3363,-0.011963514
3364,0.004080854
3365,-0.013391909
3366,-0.0011401807
3367,0.0040388103
3368,5.187228e-05
3369,-0.0003806535
3370,-0.0064732498
3371,0.017138869
3372,0.0063405917
3373,-0.009589144
3374,-0.010412103
3375,0.010062567
3376,0.017878989
3377,-0.014877367
3378,0.0059514833
3379,0.015994968
3380,-0.0071670413
3381,-0.009716925
3382,-0.005972101
3383,-0.004848236
3384,0.011369119
3385,-0.005235911
3386,0.011957566
3387,0.005291554
3388,0.007023082
3389,-0.011316465
3390,-0.0004320105
3391,0.0036413847
3392,0.011162917
3393,0.0006844666
3394,0.00273226
3395,-0.0012731436
3396,-0.0077483957
3397,0.008587393
3398,0.0040795817
3399,0.013614162
3400,0.010026908
3401,-0.0014476448
3402,-0.005898668
3403,0.0016024497
3404,0.0047083944
3405,-0.008801822
3406,-0.00045791882
3407,0.0022829184
3408,-0.00048276462
3409,0.0043701385
3410,-0.0023956727
3411,0.0062301117
3412,0.009893836
3413,-0.007848071
3414,-0.010558969
3415,-0.008501261
3416,0.008062475
3417,-0.003444492
3418,0.008375506
3419,0.0028504666
3420,0.004145386
3421,-0.009531132
3422,0.013512624
3423,-0.0015414357
3424,0.007389717
3425,-0.0018845807
3426,0.008504792
3427,0.01304363
3428,0.018997412
3429,-9.892242e-05
3430,-0.0011123691
3431,-0.00011584211
3432,0.011539997
3433,-0.009902951
3434,0.001924667
3435,-0.010911929
3436,0.0065585813
3437,0.0028113243
3438,0.015838236
3439,0.0017280201
3440,-0.013276558
3441,-0.01091896
3442,-0.0054250825
3443,-0.0012258954
3444,0.0064483886
3445,0.018548287
3446,0.0029359062
3447,-0.0072095403
3448,-0.0068520554
3449,0.0045316177
3450,0.0020821758
3451,0.0025290356
3452,-0.016706165
3453,-0.0033536823
3454,0.00881288
3455,-0.016890772
3456,-0.0035467723
3457,-0.0035833237
3458,0.010038286
3459,0.007087106
3460,-0.0060460214
3461,0.0048102494
3462,4.6520545e-05
3463,-0.00090230367
3464,0.016296867
3465,-0.008036962
3466,0.018513586
3467,0.00044685166
3468,-0.0062496546
3469,-0.011388999
3470,0.013665237
3471,0.0019619416
3472,-0.00014888664
3473,-0.006360695
3474,0.01037822
3475,0.0020720102
3476,0.008222763
3477,-0.010563506
3478,-0.007142748
3479,-0.00495315
3480,-0.008189462
3481,-0.011005832
3482,-0.0016846083
3483,-0.0047448617
3484,0.00094321085
3485,-0.013469668
3486,0.00232212
3487,0.0026515888
3488,-0.0014242594
3489,-0.015222509
3490,0.002155166
3491,0.0012411565
3492,0.010674557
3493,-0.0034985282
3494,0.018049674
3495,0.018705888
3496,-0.003991064
3497,0.0038597088
3498,-0.0040033567
3499,0.014585597
3500,-0.015776558
3501,-0.010521978
3502,-0.00067234796
3503,0.0011557915
3504,0.007758926
3505,-0.006227
3506,0.0052577597
3507,0.0031224105
3508,-0.0067406604
3509,-0.004700472
3510,-0.00058008544
3511,-0.0027294587
3512,-0.0035728263
3513,-0.014973412
3514,-0.013869824
3515,0.0015182315
3516,-0.00024325964
3517,0.00778931
3518,-0.00806475
3519,-0.009957719
3520,-0.0036910144
3521,0.00047608584
3522,-0.0063385805
3523,-0.0018180615
3524,-0.003163224
3525,0.0068398146
3526,-0.001912224
3527,0.010578828
3528,0.014727389
3529,-0.0036944123
3530,0.008837436
3531,-0.018603576
3532,0.0096594095
3533,-0.0035342842
3534,-0.016198952
3535,-0.009576077
3536,-0.005215792
3537,0.011721136
3538,-0.0043268483
3539,0.00015349753
3540,-0.005248385
3541,0.0046357396
3542,-0.010077636
3543,-0.0023786784
3544,0.0039363406
3545,-0.006962178
3546,-0.0051564933
3547,0.0008737435
3548,-0.00016146593
3549,0.007319721
3550,-0.0032245382
3551,0.0008195627
3552,0.008463117
3553,0.01520059
3554,-0.019415183
3555,0.0066469447
3556,0.01882342
3557,0.00047213282
3558,-0.004486571
3559,0.0035142535
3560,-0.0021856437
3561,-0.003183979
3562,-0.0038139215
3563,0.010789101
3564,-0.0050952667
3565,0.012273691
3566,0.0036955862
3567,0.0014415218
3568,-0.0013297782
3569,0.0061276793
3570,-0.012876155
3571,-0.01676933
3572,0.0027926068
3573,0.0005959501
3574,-0.0018847084
3575,0.013675986
3576,-0.018161764
3577,0.01108015
3578,0.0094246715
3579,-0.011457686
3580,-0.010900868
3581,0.0016021581
3582,-0.00020082922
3583,0.006896092
3584,0.0037594822
3585,-0.0009471376
3586,-0.006306905
3587,0.016883789
3588,-0.007964455
3589,-0.010650568
3590,0.009669128
3591,0.010977694
3592,0.017817836
3593,0.009884982
3594,-0.011362481
3595,0.0027744826
3596,0.0098479055
3597,0.0034624427
3598,-0.00033075296
3599,-0.0063074557
3600,-0.012463248
3601,-0.012658662
3602,0.005628436
3603,-0.0026099272
3604,-0.007235717
3605,-0.0038155012
3606,0.006298409
3607,-0.01012353
3608,0.013609626
3609,0.0060770353
3610,0.013636519
3611,0.009208335
3612,-0.001091424
3613,-0.01143508
3614,0.017163722
3615,-0.0016848592
3616,-0.011153201
3617,0.00033137738
3618,0.01733831
3619,0.0020345799
3620,0.004842746
3621,-0.0058678635
3622,0.006293584
3623,-0.006536455
3624,-0.017171757
3625,-0.00031428717
3626,0.004820688
3627,-0.0022811957
3628,-0.0052552884
3629,0.0143537875
3630,-0.0036265142
3631,-0.004919978
3632,-0.0007613707
3633,0.0071152966
3634,0.00030530302
3635,-0.013283462
3636,-0.008280314
3637,-0.013665161
3638,0.0053663095
3639,-0.0074411537
3640,0.0035205728
3641,-0.005450617
3642,-0.0011845807
3643,-0.008829778
3644,-0.008505103
3645,-0.0012671752
3646,-0.010786613
3647,0.0059156613
3648,0.004534333
3649,-0.0017989106
3650,-0.012834129
3651,-0.01247734
3652,0.01139598
3653,-0.006748939
3654,0.013681018
3655,0.012264427
3656,-0.00647735
3657,-0.0024141339
3658,-0.004681882
3659,0.0006784321
3660,-0.00981335
3661,-0.008348466
3662,-0.0030976038
3663,-0.008071929
3664,0.0026607001
3665,0.00030088556
3666,-0.0048727132
3667,0.013098534
3668,-0.0034115398
3669,-0.011892213
3670,0.00621209
3671,0.011902202
3672,-0.015981268
3673,-0.008725225
3674,-0.00888487
3675,-0.009037927
3676,-0.0017202614
3677,-0.016310897
3678,-0.0033302708
3679,-0.009034225
3680,-0.014387139
3681,0.015550803
3682,0.0046306583
3683,-0.010971523
3684,0.0061928607
3685,-0.011694739
3686,0.0066044414
3687,-0.0077833193
3688,-0.0022439712
3689,0.0032158676
3690,0.008990696
3691,-0.006223545
3692,0.0050976067
3693,-0.002031638
3694,-0.0022859098
3695,-0.00085256476
3696,0.011407431
3697,0.0023037489
3698,0.00060731394
3699,0.008147886
3700,0.0069391355
3701,-0.012218133
3702,0.005893557
3703,-0.008739344
3704,-0.014011001
3705,-0.015661968
3706,8.501637e-06
3707,0.008559904
3708,0.014163632
3709,2.537661e-05
3710,0.0023928802
3711,0.0025487938
3712,0.003496863
3713,-0.019654129
3714,-0.0008497203
3715,-0.013438455
3716,-0.002004711
3717,-0.005491185
3718,0.016063556
3719,0.00012772297
3720,0.010483035
3721,-0.0036445593
3722,0.0040102163
3723,-0.010646941
3724,-0.0005734299
3725,0.016580645
3726,0.013791463
3727,-0.0019961444
3728,-0.010057467
3729,-0.0072096153
3730,0.011126967
3731,-0.010264905
3732,-0.011829759
3733,-0.0034904715
3734,-0.006011816
3735,-0.001778142
3736,0.008188269
3737,0.017868198
3738,-0.0029169247
3739,-0.008179654
3740,0.009475003
3741,0.004631086
3742,0.0065697012
3743,0.008518643
3744,0.009542414
3745,0.0018163108
3746,0.0044787177
3747,0.019700829
3748,-0.0110485125
3749,-0.015539264
3750,0.00025741846
3751,0.005003912
3752,0.0116866315
3753,0.0033049446
3754,-0.0009556896
3755,-0.005749143
3756,-0.00022206223
3757,0.0111517375
3758,0.0052710646
3759,0.012552089
3760,-0.01032851
3761,0.00943327
3762,-0.0022049407
3763,-0.0027817672
3764,-0.0035503863
3765,-0.019394808
3766,0.012430439
3767,-0.012899374
3768,-0.0041845357
3769,0.010300676
3770,0.0031020853
3771,-0.007731521
3772,-0.0012636724
3773,-0.00081703824
3774,0.0029407754
3775,0.0021071509
3776,-0.0041019884
3777,0.002232994
3778,-0.003677963
3779,0.0014066016
3780,0.008897426
3781,6.0712493e-05
3782,0.007597835
3783,-0.015931655
3784,0.016674865
3785,0.0060861926
3786,0.014508906
3787,0.0066092894
3788,0.0013379472
3789,-0.012961295
3790,-0.013160293
3791,-0.010366769
3792,-0.0040814155
3793,0.008898545
3794,-0.0070573413
3795,0.0064517865
3796,-0.0014368638
3797,0.0064625167
3798,-7.744834e-05
3799,-0.0017212027
3800,-0.0032775193
3801,0.0046515507
3802,0.005984337
3803,-0.0126806
3804,-0.0018632476
3805,0.0014555141
3806,-0.0010494052
3807,-0.010020322
3808,0.0146798715
3809,0.0069966484
3810,0.007987369
3811,0.007011588
3812,-0.0011223786
3813,-0.009363249
3814,0.013547711
3815,-0.0018229716
3816,-0.0068242876
3817,-0.008285258
3818,-0.008013582
3819,-0.016426772
3820,-0.010799281
3821,-0.0015391305
3822,-0.00265838
3823,0.0046369885
3824,0.016816275
3825,-0.0026110373
3826,-0.003514416
3827,0.01777335
3828,-0.0030708325
3829,-0.0039432575
3830,0.008085144
3831,0.006984639
3832,0.011249765
3833,0.0021360775
3834,-0.006274691
3835,0.002920907
3836,-0.007969734
3837,-0.019754577
3838,-0.0046198866
3839,-0.012036034
3840,0.009296893
3841,-0.0005817573
3842,-0.004644136
3843,0.01448842
3844,0.01651829
3845,-0.0071935747
3846,-0.0019190488
3847,0.014542858
3848,-0.0054161204
3849,-0.0012414234
3850,0.008757784
3851,0.0048121074
3852,-0.013974106
3853,0.0014382448
3854,-0.0049504125
3855,-0.0023101622
3856,0.0023097466
3857,0.0054301415
3858,-0.0014404511
3859,-0.00868051
3860,-0.010947052
3861,-0.01242016
3862,-0.0042104535
3863,0.0047988743
3864,-0.01264266
3865,-0.0020391685
3866,0.015171337
3867,-0.0032449125
3868,-0.0028030036
3869,0.00980195
3870,0.009810387
3871,-0.008639725
3872,0.0066718613
3873,-0.0028109301
3874,-0.0055563385
3875,0.005399719
3876,0.00035894747
3877,0.005119893
3878,-0.0057594916
3879,0.0067932922
3880,-0.004229416
3881,0.013473043
3882,0.009933303
3883,0.0015108836
3884,0.010611528
3885,-0.0009662393
3886,-0.0027581677
3887,0.014522401
3888,0.0027844433
3889,-0.011404129
3890,-0.011321269
3891,-0.0074314647
3892,-0.0072177285
3893,0.00077866885
3894,0.007666837
3895,0.0100715
3896,0.0017811966
3897,0.0025294991
3898,-0.0015212946
3899,-0.003952402
3900,-0.0020864927
3901,-0.00035049094
3902,-0.00038263528
3903,0.0031671901
3904,-0.007982303
3905,0.0013605604
3906,0.01254617
3907,0.0047698733
3908,-0.014279382
3909,0.0127238585
3910,-0.010216821
3911,0.017885033
3912,-0.0028652232
3913,0.0015613035
3914,-0.0034486572
3915,-0.0022361353
3916,-0.0082165385
3917,0.009542554
3918,0.005538579
3919,-0.012419233
3920,0.014318054
3921,0.00393342
3922,0.006309741
3923,0.001717787
3924,-0.004088603
3925,0.01838114
3926,-0.0048743505
3927,0.0060081217
3928,0.008744901
3929,-0.013025655
3930,-0.0066301245
3931,4.7481186e-05
3932,-0.010044759
3933,0.007493572
3934,-0.0043173623
3935,0.008043994
3936,0.0006763877
3937,0.011223543
3938,0.011450305
3939,0.0019939018
3940,0.011972347
3941,-0.005691706
3942,-0.007781195
3943,0.0076803043
3944,-0.01525076
3945,-0.015925273
3946,0.0021956482
3947,-0.016943952
3948,-0.004608455
3949,-0.002346654
3950,0.0038038827
3951,0.0004885009
3952,0.010717068
3953,0.0018571487
3954,-0.0062426394
3955,0.010559218
3956,0.009307002
3957,0.0038873777
3958,-0.013051042
3959,0.010046027
3960,-0.0006802968
3961,0.002989887
3962,0.015372605
3963,0.0077372706
3964,-0.0074248705
3965,-0.008278368
3966,0.011050567
3967,0.0006593599
3968,0.0110480795
3969,-0.018242046
3970,0.015121129
3971,-0.013941407
3972,0.009678668
3973,-0.003715638
3974,-0.012591554
3975,0.009489342
3976,0.008173722
3977,-0.012654459
3978,0.013622757
3979,-0.006365553
3980,0.011166817
3981,0.0026834123
3982,0.0052675963
3983,-0.005114277
3984,0.0144472355
3985,-0.012462933
3986,-0.0068035224
3987,-0.0038990434
3988,-0.011997491
3989,0.00021747347
3990,-0.0011886209
3991,-0.01431174
3992,-0.0054329913
3993,-0.009107211
3994,-0.0045395656
3995,0.010297146
3996,0.005879446
3997,0.0031979713
3998,0.010509474
3999,0.0041758306
4000,0.015012558
4001,-0.0035715092
4002,0.0027132016
4003,0.004304639
4004,-0.006720639
4005,-0.015764331
4006,-0.0012376294
4007,-0.01734723
4008,0.007824699
4009,0.00047360934
4010,0.0077134846
4011,0.003929608
4012,-0.0018247407
4013,0.01862585
4014,0.009152948
4015,-0.009968458
4016,0.0037526907
4017,-0.0079048425
4018,-0.0054071653
4019,0.019083342
4020,0.006138559
4021,0.0025061762
4022,-0.009548247
4023,-0.010276654
4024,0.0032203628
4025,0.003824181
4026,-0.0010141693
4027,0.00045693116
4028,-0.0009550718
4029,-0.010423094
4030,-0.0047798306
4031,-0.00850634
4032,0.008837731
4033,-0.008049241
4034,0.00695098
4035,-0.0139224045
4036,0.004310773
4037,-0.0035578408
4038,-0.0040630964
4039,-0.016581737
4040,-0.008513312
4041,-0.0012140595
4042,0.003647682
4043,0.0076740454
4044,0.010933641
4045,-0.0007125634
4046,-0.010676346
4047,-0.010240365
4048,-0.008917857
4049,0.002195922
4050,0.0029763484
4051,0.004120934
4052,0.0030247858
4053,0.013563525
4054,0.013675958
4055,0.00058443047
4056,0.0024161062
4057,-0.01988203
4058,0.018786594
4059,0.0032497966
4060,0.00013377248
4061,0.0062586186
4062,-0.0060882494
4063,0.00034436988
4064,0.00044124865
4065,0.0037572256
4066,0.013907108
4067,-0.013944997
4068,-0.008760516
4069,0.004877478
4070,-0.004121245
4071,0.0007579694
4072,-0.0057398635
4073,0.0072278273
4074,0.010365154
4075,0.0026748267
4076,0.0051822206
4077,0.019862212
4078,0.00096033333
4079,-0.0035471835
4080,-0.007480094
4081,-0.010437891
4082,-0.010358957
4083,-0.0015915526
4084,0.015371418
4085,0.013983495
4086,-0.0069240895
4087,0.0067971596
4088,0.0017253677
4089,-0.0110078305
4090,-0.011593618
4091,-0.014299287
4092,0.0049030166
4093,-0.014849484
4094,0.019085245
4095,0.019696321
