Sno,Weight
0,-0.0040918146
1,-0.008468241
2,-0.016649878
3,-0.0106730955
4,-0.003655856
5,0.0057112076
6,-0.00314655
7,0.00043052825
8,0.0036486702
9,-0.008246714
10,-0.016705345
11,0.013666345
12,0.006614085
13,-0.008931184
14,0.0018438526
15,-0.0074030496
16,0.018026827
17,-0.014815441
18,-0.01552558
19,0.0043059126
20,0.013599345
21,0.0075441357
22,0.009474604
23,0.01250406
24,-0.00089491415
25,-0.008639804
26,-0.0061829663
27,-0.0020104654
28,0.0038468293
29,-0.0051952396
30,-0.0045357165
31,0.0030970357
32,0.0006609078
33,-0.008597591
34,0.0010833485
35,0.016023217
36,-0.0076409327
37,-0.014713843
38,-0.015092221
39,0.016685007
40,0.0018457661
41,-5.2791394e-05
42,-0.007773121
43,-0.004878717
44,0.008777618
45,-0.012916802
46,-0.01257654
47,0.0024063278
48,0.007916585
49,-0.0025034314
50,0.0019744665
51,-0.001968522
52,0.018448919
53,0.008449026
54,-0.007981312
55,-0.0046166913
56,0.0071747005
57,-0.010349218
58,0.004121633
59,0.018847853
60,0.0007284436
61,0.00848502
62,-0.0046387864
63,-0.001823232
64,-0.00012449638
65,0.0027848405
66,-0.012151005
67,0.010989157
68,0.009298245
69,-0.016149485
70,-0.003217671
71,-0.0058030398
72,0.005282105
73,0.0065103783
74,0.0058385357
75,0.008541513
76,-0.0115043465
77,-0.005895068
78,0.012622188
79,0.005468649
80,0.0077106166
81,-0.010786795
82,0.018364962
83,-0.012238747
84,0.0020252515
85,0.013747561
86,-0.00105186
87,0.013598138
88,0.016056199
89,-0.004810921
90,0.009962986
91,0.0047199503
92,-0.011577232
93,-0.007009598
94,-0.00408932
95,0.000926523
96,-0.011310583
97,0.010959298
98,0.0047016125
99,0.011580956
100,0.007275621
101,-0.008757429
102,-0.0017575389
103,0.0089570265
104,0.0033008545
105,0.0044966345
106,0.0008182753
107,0.013550419
108,0.017790304
109,-0.0086002145
110,0.0044679255
111,-0.004778381
112,0.0097961
113,0.013952433
114,-0.003809668
115,-0.007923017
116,-0.0021519943
117,0.0020195618
118,-0.0017155412
119,0.007953964
120,-0.002323347
121,0.0021422782
122,0.011334286
123,0.005099627
124,0.0030410734
125,-0.003162113
126,-0.0066505806
127,-0.003290272
128,0.0077012535
129,0.0020419597
130,0.0007188547
131,-0.001433286
132,0.00088532944
133,0.004691307
134,-0.005321985
135,0.015907345
136,0.00922355
137,0.0026751691
138,-0.007678774
139,0.000613683
140,-0.0038189737
141,-8.502089e-05
142,0.0027609265
143,-0.0012924152
144,0.0013831749
145,-0.0015762293
146,-0.0045155766
147,-0.00941985
148,0.010752848
149,0.0051095416
150,0.0005132414
151,-0.01929569
152,0.0025404696
153,0.0037637756
154,-0.012399394
155,0.0025333671
156,0.016035885
157,0.01528921
158,0.012272144
159,0.004724218
160,0.0034708327
161,0.0012775726
162,0.009881165
163,-0.016682072
164,-0.00054112606
165,0.002543268
166,0.0056325127
167,-0.019716734
168,0.0060450644
169,0.0067502763
170,0.005643378
171,-0.0026850074
172,-0.013708444
173,-0.004639
174,0.006906773
175,-0.011056235
176,0.0015451164
177,0.008036224
178,0.0031659482
179,-0.0040515894
180,0.009549893
181,-0.019059084
182,0.006138258
183,-0.012377407
184,0.0046992637
185,0.014142078
186,0.014874871
187,-0.0028324984
188,0.0044225655
189,-0.019217037
190,0.0046880348
191,0.00424935
192,0.00484613
193,-0.0027173825
194,8.4907715e-06
195,-0.004843376
196,0.004824915
197,0.0053164284
198,-0.008210592
199,-0.01947749
200,-0.005988841
201,0.0076808557
202,-0.0048034876
203,0.008717553
204,-0.0052441717
205,0.0013225767
206,0.00016262894
207,-0.008200406
208,-0.00010511616
209,-3.3825367e-05
210,0.0029410634
211,0.019493278
212,-0.0003670334
213,0.0057741585
214,-0.017809765
215,-0.005626477
216,-0.00072705146
217,-0.00933595
218,-0.0039559756
219,0.0069678933
220,-0.009705189
221,0.005369231
222,-0.008272883
223,0.0083524985
224,0.006362734
225,0.0012945632
226,0.003983885
227,0.013236007
228,0.014547048
229,-0.0012946584
230,-0.005935504
231,-0.008270831
232,0.009073269
233,0.004641713
234,-0.0056041325
235,0.0059058517
236,0.010932711
237,0.0010847865
238,0.0015054441
239,0.014156566
240,0.0006069797
241,0.003597516
242,0.013307768
243,-0.0010180222
244,0.01060853
245,-0.004918103
246,0.014798128
247,0.0036059485
248,-0.010048015
249,0.0026561033
250,0.009455664
251,-0.018768173
252,-0.010583399
253,-0.00021840185
254,-0.0010097838
255,0.019457486
256,-0.010590296
257,-0.0033305925
258,-0.005792636
259,0.0010151777
260,0.0024746761
261,-0.018879684
262,-0.009366778
263,-0.009718392
264,-0.019989666
265,-0.017634932
266,-0.0024181514
267,-0.011001543
268,0.0043959515
269,0.0062329727
270,0.0017237175
271,0.015783545
272,0.005708038
273,0.0112376325
274,-0.008360229
275,-0.00034785483
276,-0.0027338117
277,-0.00857162
278,0.003763396
279,0.015510899
280,-0.010392029
281,-0.0043640644
282,0.002424965
283,0.0010555882
284,-0.008460272
285,0.006125661
286,-0.009574209
287,-0.0093073435
288,0.013968454
289,-0.0043645557
290,-0.006376801
291,0.00010400779
292,0.011414222
293,0.008762716
294,-0.011928768
295,-0.0037039004
296,0.0031972593
297,0.004740061
298,-0.003708676
299,0.0145084765
300,0.010477695
301,0.002228807
302,0.0033362983
303,0.00027200257
304,0.0009530554
305,0.00047214754
306,0.00069497805
307,-0.014461742
308,-0.0042582313
309,-0.0055361846
310,-0.018631928
311,-0.014201408
312,-0.0015129088
313,-0.004386613
314,-0.015565996
315,-0.003597249
316,-0.013387216
317,-0.005311514
318,0.0074613206
319,0.0081987325
320,-0.016896782
321,0.00849429
322,0.003083794
323,0.007101332
324,-0.009269977
325,-0.0048648724
326,0.009752397
327,-0.007386738
328,0.00037742034
329,-0.0036026111
330,0.015877618
331,0.0050635687
332,0.01754778
333,0.006486657
334,-0.0102718165
335,0.0067435107
336,0.002357285
337,0.0035642171
338,-0.012183639
339,-0.004487452
340,-0.001318931
341,0.0063033323
342,0.008861115
343,0.0011588858
344,0.008313276
345,0.0029552134
346,-0.0012885856
347,0.0037750176
348,0.003237338
349,0.0105906045
350,0.0109431315
351,0.0022268377
352,0.015285784
353,-0.0070052277
354,0.005031964
355,0.016485393
356,0.012414891
357,0.0050783153
358,-0.007214445
359,-0.0037924736
360,-0.0010653272
361,-0.002021012
362,0.003939194
363,0.00043472223
364,-0.0043186094
365,-0.004129196
366,0.0028716356
367,0.014585185
368,0.00046006934
369,-0.01879655
370,0.006314032
371,-0.0017859201
372,0.006718363
373,0.011769289
374,0.0013246709
375,0.0032136592
376,-0.0008177272
377,0.0040919306
378,0.018610522
379,-0.0033022682
380,-0.010403045
381,-0.0007915234
382,0.001433296
383,0.002301559
384,0.0122310845
385,0.0136387935
386,-0.004705911
387,0.0114962375
388,-0.008069211
389,-0.0089485245
390,0.005225068
391,0.015034119
392,0.0047387704
393,-0.014921506
394,0.002026669
395,-0.0017261123
396,-0.015700579
397,0.01489411
398,-0.0036465987
399,0.0080799125
400,-0.00823768
401,-0.00685448
402,0.0053685424
403,-0.007161863
404,-0.005193374
405,0.011422421
406,0.006109089
407,0.012179459
408,-0.0136145195
409,0.0048405803
410,-0.006606201
411,-0.0008452306
412,-0.008381627
413,-0.0023563122
414,-0.019466823
415,-0.0012781941
416,0.011505071
417,-0.002154316
418,-0.008286037
419,-0.0014773321
420,0.009354488
421,0.005569067
422,-0.008265123
423,0.00038480168
424,-0.006067406
425,-0.0014265757
426,-0.009954542
427,-0.009617501
428,-0.0003715395
429,-0.01735095
430,-0.0046883645
431,-0.013212827
432,-0.0024285482
433,0.011665702
434,-0.0058746375
435,0.0050905175
436,-0.007953727
437,0.0069130757
438,-0.009931671
439,-0.005073464
440,0.0033366696
441,0.0037146572
442,-0.00015858212
443,-0.012102999
444,0.015606331
445,0.006745616
446,-0.005632548
447,-0.0055823517
448,-0.007802069
449,-0.008703158
450,-0.007584127
451,-0.0068597957
452,0.0018099429
453,0.0024207707
454,0.016932232
455,0.00848168
456,0.0007722025
457,0.015243133
458,-0.0071653556
459,0.0035567074
460,-0.008264116
461,-0.00502579
462,0.010255702
463,-0.01698002
464,-0.006353663
465,-0.006976327
466,-0.010372954
467,0.0052308976
468,-0.008205726
469,0.0007476422
470,-0.006826626
471,0.0075012096
472,0.0041284543
473,-0.0018456307
474,0.007962346
475,0.006923733
476,-0.002997043
477,0.013920159
478,0.016461428
479,-0.008915552
480,-0.005708847
481,-0.0052876747
482,-0.013115301
483,-0.008339623
484,-0.0013392727
485,-3.1932403e-05
486,-0.016613964
487,0.018723557
488,0.01133968
489,-0.007718469
490,0.0041871835
491,0.008902063
492,0.011897794
493,0.0021418578
494,-0.0024904695
495,0.0016268318
496,0.005376161
497,0.0009837169
498,-3.8261947e-05
499,0.0059882
500,-0.0071744653
501,-0.014269113
502,0.0009891065
503,0.017026734
504,-0.009124133
505,-0.015726585
506,0.007639881
507,-0.008942993
508,-0.010305441
509,0.0014051249
510,0.012644742
511,0.0016806345
512,-0.0027067405
513,-0.015483161
514,0.00074541406
515,-0.009425371
516,-0.002327097
517,-0.004056782
518,-0.003461698
519,0.018483326
520,0.017043518
521,0.010635722
522,0.015826255
523,-0.003089233
524,0.003010028
525,0.0044444795
526,-0.008771617
527,-0.00011258408
528,0.01666359
529,0.009690899
530,0.005866131
531,-0.001009494
532,0.00028116844
533,0.00021673858
534,5.4387598e-05
535,0.0043544956
536,-0.01684354
537,0.005043196
538,0.004086436
539,0.009608578
540,-0.011411318
541,-0.012153844
542,0.010651646
543,0.005317981
544,0.0055786786
545,0.010005376
546,-0.0010914445
547,-0.0068537625
548,-0.0013878769
549,-0.011923095
550,0.0034019195
551,-0.0025500813
552,-0.00032580848
553,0.0025911902
554,0.007346246
555,-0.013344728
556,-0.008280102
557,-0.0041036964
558,0.006327223
559,0.01045926
560,-0.017981242
561,-0.00034420207
562,0.010542349
563,-0.011446211
564,0.0130158095
565,0.017693322
566,0.008220557
567,-0.0005570337
568,-2.2356994e-06
569,-0.014734166
570,0.0024548573
571,-0.016808113
572,-0.0128974095
573,-0.0011814779
574,-0.005211078
575,0.0043372707
576,-0.00793638
577,0.007390645
578,-0.0022417763
579,-0.014946273
580,0.00044334927
581,0.0034706043
582,-0.0010631267
583,0.016715344
584,0.0008824503
585,0.0005072062
586,-0.009768097
587,-0.005048716
588,0.006715112
589,0.0011891084
590,0.00404447
591,0.007298925
592,0.0031535618
593,0.009053221
594,-0.004082958
595,0.0032632756
596,-0.0073925694
597,0.005999744
598,-0.0031812286
599,-0.005892278
600,-0.0046583335
601,-0.012411018
602,0.008736667
603,-0.0070611383
604,0.007099703
605,0.006980944
606,-0.013302288
607,0.0024901193
608,-0.011182408
609,-0.009524851
610,0.005565063
611,-0.007319889
612,-0.012426134
613,0.0048356634
614,-0.007926096
615,-0.008072187
616,0.0035859742
617,-0.010270797
618,0.009221596
619,-0.008037728
620,0.0033158222
621,0.011419661
622,-0.002608623
623,-0.013042691
624,0.00989163
625,0.002067965
626,0.0034554258
627,0.011196805
628,0.018566776
629,0.009642167
630,0.00530337
631,-0.0098798545
632,0.0056057437
633,0.015808724
634,0.007801587
635,-0.015148763
636,-0.0019372116
637,-0.012850956
638,0.006414537
639,-0.0149328355
640,-0.005481591
641,0.013199538
642,0.007927664
643,-0.002476871
644,0.0026874107
645,0.008545973
646,0.018537275
647,-0.019243097
648,0.0036300435
649,-0.005324285
650,0.005156154
651,-0.0012653525
652,0.0010742738
653,0.013270696
654,-0.0015781425
655,-0.012198484
656,-0.018406544
657,0.007781185
658,-0.0024283486
659,-0.0013439315
660,0.0077342745
661,-0.015183447
662,0.0027789494
663,0.00981154
664,0.007724206
665,0.009921496
666,0.009296303
667,-0.0062303348
668,0.011729308
669,0.0036914893
670,0.0015016667
671,0.001519267
672,-0.019627156
673,-0.016531516
674,0.011270684
675,0.013908101
676,0.003719098
677,-0.0012229132
678,-0.00022291357
679,-0.0031072327
680,0.019891601
681,0.016730364
682,0.009848306
683,-0.0009974424
684,-0.004444419
685,-0.0154954055
686,0.0078607295
687,0.012038494
688,-0.00888092
689,-0.01056724
690,-0.014583456
691,-0.00200373
692,-0.016501956
693,0.011174369
694,0.0014184945
695,-0.0019704395
696,-0.0063940478
697,-0.0004949501
698,0.0070455796
699,-0.015496745
700,0.004826871
701,-0.0017072649
702,-0.004767811
703,0.00293509
704,0.00533131
705,0.0073068184
706,-1.1608665e-05
707,-0.014715125
708,0.0011860919
709,0.0095040575
710,0.0028882308
711,0.0030797948
712,0.005194336
713,-0.0044136
714,0.0017621157
715,-0.0030862004
716,-0.0081413975
717,-0.01687366
718,0.008550325
719,0.0047122436
720,0.0017008788
721,0.009520866
722,-0.008146889
723,0.0133225955
724,0.009171421
725,-0.00028293201
726,0.005967751
727,-0.0031219865
728,-0.002041662
729,-0.009172453
730,-0.0036944118
731,0.005782997
732,0.008032097
733,-0.001719195
734,0.007818365
735,-0.01482309
736,-0.004181978
737,0.0038205478
738,0.00095475337
739,-0.0060685812
740,-0.006087267
741,0.007959597
742,-0.0054390742
743,-0.0037797068
744,0.0027486852
745,0.010858105
746,0.004566215
747,-0.007084817
748,0.0067729023
749,-0.0054933135
750,0.0031062555
751,-0.0060920347
752,-0.008108344
753,-0.0061537595
754,0.0036670605
755,-0.00027002825
756,-0.016891519
757,-0.0028517067
758,0.015535006
759,0.002271544
760,-0.0052492036
761,-0.0017873747
762,0.006763536
763,0.0011516568
764,0.0043081604
765,0.0027714611
766,-0.002782909
767,-0.0065220185
768,-0.016603943
769,-0.017807271
770,-0.012151112
771,0.017862666
772,-0.0036407148
773,-0.013726806
774,0.017097566
775,-0.002959817
776,0.0048610494
777,-0.018647557
778,0.00041146597
779,-0.002112743
780,-0.014635003
781,-0.008500674
782,0.0082844915
783,-0.004906402
784,0.004602717
785,-0.0020359608
786,0.0086351205
787,-0.011305286
788,-0.0061132805
789,0.006249661
790,0.009837759
791,-0.0036740927
792,0.0076900185
793,0.012354499
794,-0.015590619
795,0.00919691
796,0.00046339948
797,0.010955565
798,-0.008520013
799,-0.0135177905
800,0.013059388
801,0.015515946
802,0.0022792418
803,0.008951798
804,0.0100503815
805,0.00048402205
806,-0.015460308
807,0.014954504
808,-0.0017418761
809,0.009378428
810,0.0066627064
811,0.014722216
812,-0.0026464611
813,-0.0020920322
814,0.00066946744
815,-0.008337766
816,-0.0070990655
817,0.010495793
818,-0.019756064
819,0.01708694
820,0.00430519
821,0.0036805803
822,-0.0074175987
823,-0.004539204
824,-0.009933715
825,-0.009873786
826,-0.0026784572
827,0.008939095
828,0.007122452
829,-0.010284286
830,0.0047018924
831,-0.009971381
832,0.011213486
833,0.0078004524
834,0.0045720986
835,0.0057642153
836,0.0048910244
837,-0.0030863811
838,0.002197982
839,0.016186569
840,-0.0051924293
841,-0.013379006
842,0.004194172
843,-0.008013244
844,-0.012118409
845,0.0030730788
846,0.008379416
847,-0.0045196046
848,0.0017117192
849,-0.016161337
850,0.015837025
851,0.010655054
852,0.006185049
853,0.005194057
854,-0.0005449934
855,0.0026670045
856,-0.006493964
857,-0.0028303938
858,0.013757507
859,-0.0025544788
860,0.019018095
861,0.009223845
862,-0.0067982334
863,0.008593174
864,-0.0073005566
865,0.0022305355
866,0.010357878
867,0.009193913
868,0.016614908
869,-0.012033579
870,0.00604393
871,0.006579356
872,-0.0040669586
873,0.012777756
874,0.001960743
875,-0.00017166807
876,-0.00025713726
877,-0.0051916954
878,3.7704744e-05
879,-0.0052827657
880,0.007536479
881,-0.010993111
882,-0.0004691976
883,-0.012923123
884,0.0003548082
885,0.0042269137
886,0.006710469
887,0.01570212
888,-0.0007880804
889,0.0053472635
890,0.006514789
891,-0.005875721
892,-0.0063107526
893,-0.013250273
894,0.012598054
895,0.0013498127
896,-0.006460583
897,0.0043264683
898,0.00037486842
899,-0.009389351
900,-0.0067230514
901,0.008046885
902,-0.012248985
903,0.009177853
904,-0.003427724
905,0.0036952433
906,0.016740669
907,-0.017073862
908,0.004027468
909,-0.0042270976
910,5.6923298e-05
911,0.0044556186
912,0.017189354
913,-0.001888299
914,-0.015522171
915,-0.012450116
916,0.0008603765
917,-0.004856721
918,-0.009345547
919,-0.010665837
920,-0.004546682
921,0.0008561066
922,0.013107874
923,0.011408721
924,-0.0041488456
925,0.0058553373
926,-0.0007058946
927,0.010865174
928,-0.0035153434
929,-0.0059049022
930,0.008732409
931,0.003157249
932,0.00048774324
933,-0.011162707
934,0.004394484
935,0.0049821422
936,-0.006489313
937,0.0077912654
938,0.0053543057
939,-0.013852935
940,0.002368075
941,-0.0019471177
942,-0.0094072325
943,-0.0025408631
944,0.017523417
945,0.000759205
946,0.00013754312
947,0.005791798
948,0.00051113777
949,-0.0100775035
950,-0.0062512457
951,-0.0009269542
952,-0.011683296
953,0.013930752
954,0.005820811
955,-0.0007955431
956,0.0012590177
957,-0.014510829
958,0.0018362872
959,0.0007685336
960,0.015296524
961,-0.01531008
962,0.0117956195
963,0.0023773643
964,-0.004244226
965,-0.00742756
966,0.006053048
967,0.017566247
968,0.0018094825
969,0.00539622
970,0.0005834478
971,0.011718214
972,-0.0043667126
973,-0.009958646
974,0.005364866
975,-0.000115429895
976,0.007882883
977,0.0038591719
978,-0.019271303
979,-0.0028259717
980,0.0035045804
981,-0.010445697
982,-0.014607564
983,0.007439892
984,-0.013232428
985,0.015780488
986,-0.0017524457
987,0.0101304855
988,-0.015157778
989,-0.012733248
990,0.0038167825
991,0.0047268905
992,-0.00616944
993,0.0007295748
994,0.009651425
995,0.001420466
996,-0.0021815572
997,0.0080024535
998,0.004122069
999,0.0013503133
1000,0.016227502
1001,-8.18628e-05
1002,0.011331095
1003,-0.0037210155
1004,0.011611952
1005,0.008414647
1006,0.008069245
1007,0.011792489
1008,-0.0048020077
1009,0.012112632
1010,0.0031370693
1011,0.010438536
1012,-0.01750837
1013,-0.002948829
1014,-0.0035585095
1015,0.00119523
1016,0.007857623
1017,-0.0010877532
1018,-0.008565471
1019,-0.0046615144
1020,0.018978078
1021,0.01463285
1022,-0.012891618
1023,-0.01101826
1024,-0.004238242
1025,0.008443686
1026,0.013281544
1027,0.01807121
1028,0.01055703
1029,-0.01359037
1030,-0.009265808
1031,-0.0012873226
1032,-0.0063397335
1033,0.0073600886
1034,0.0064597274
1035,-0.00084867846
1036,0.01758038
1037,0.004177974
1038,0.004492888
1039,0.00426075
1040,-0.0042064986
1041,0.004915463
1042,0.0073637697
1043,-0.010842947
1044,-0.010767386
1045,-0.0011790955
1046,0.005165678
1047,0.012141363
1048,0.011171091
1049,0.005361012
1050,-0.018965261
1051,0.013797738
1052,-0.009945706
1053,0.01753457
1054,0.010796703
1055,0.0035860403
1056,0.0027988886
1057,-0.001427856
1058,-0.00908195
1059,-0.00822066
1060,-0.008493207
1061,0.0044194995
1062,-0.00023487293
1063,-0.007308034
1064,0.002940678
1065,-0.0077366144
1066,-0.0009699778
1067,-0.008070105
1068,0.003008879
1069,-0.0008297943
1070,0.013615818
1071,0.0046675606
1072,0.005482984
1073,0.002047771
1074,-0.017264728
1075,-0.008311052
1076,-0.006196867
1077,0.015870878
1078,0.0018342119
1079,0.00149498
1080,-0.0012006488
1081,-0.010705713
1082,0.0025692892
1083,-0.017740719
1084,0.019214658
1085,0.010250107
1086,-0.006660794
1087,-0.008633693
1088,-0.013584589
1089,0.014190433
1090,0.005860435
1091,0.009091688
1092,0.0040528257
1093,0.017953442
1094,0.0064115487
1095,0.012443401
1096,-0.0014315967
1097,-0.0032191817
1098,-0.0020887642
1099,0.010185742
1100,-0.002855622
1101,0.013371139
1102,-0.0005207314
1103,-0.004331468
1104,-0.008804619
1105,0.018230943
1106,-0.00946125
1107,0.0067799976
1108,-0.0022363919
1109,-0.0064786794
1110,0.005366078
1111,0.014383473
1112,0.010689824
1113,-0.0024991743
1114,0.0072896844
1115,-0.0075624282
1116,0.004532532
1117,-0.017232876
1118,0.00060550834
1119,-0.009528312
1120,0.0030542132
1121,0.009864658
1122,-0.0063882177
1123,-0.009617589
1124,-0.017183684
1125,0.010791148
1126,0.006586794
1127,0.00343157
1128,0.017466536
1129,-0.013052386
1130,0.0064391736
1131,0.0012945802
1132,-0.0052384324
1133,-0.012440762
1134,-0.001501583
1135,0.00014367803
1136,-0.0011474399
1137,-0.0023184665
1138,-0.0010615082
1139,0.00058410945
1140,0.0058663986
1141,-0.0054850224
1142,0.009547042
1143,0.009963069
1144,-0.007515393
1145,0.015937615
1146,0.0179614
1147,0.0063917055
1148,-0.0023160188
1149,0.0011170676
1150,-0.0030132676
1151,-0.009789379
1152,-0.004649985
1153,-0.0047216555
1154,-0.011129972
1155,0.0064066164
1156,0.005902431
1157,0.0005126012
1158,-0.013047092
1159,-0.005613042
1160,-0.0018348262
1161,0.017923247
1162,-0.0030655079
1163,-0.010878187
1164,-0.013397379
1165,-0.0059580705
1166,-0.007852073
1167,-0.013342127
1168,0.00985002
1169,0.0081007155
1170,-0.009998774
1171,-0.0017232246
1172,0.0034998
1173,-0.0069618523
1174,-0.006064909
1175,-0.019877698
1176,-0.010894594
1177,0.00022021233
1178,0.012340206
1179,-0.008959619
1180,-0.00033784995
1181,0.0068442086
1182,0.01592437
1183,-2.8018785e-05
1184,0.0023134788
1185,0.002025396
1186,-0.001296285
1187,0.007437076
1188,-0.010508451
1189,0.011261165
1190,-0.005717901
1191,0.0012540366
1192,-0.01914185
1193,0.002970434
1194,-0.004725183
1195,-0.0018352116
1196,0.019476157
1197,0.0035193297
1198,0.0076567484
1199,-0.013724325
1200,0.0035093382
1201,-0.00086507166
1202,-0.0057289447
1203,-0.0093985135
1204,-0.0011409108
1205,0.0005219023
1206,-0.0027515045
1207,0.0058621806
1208,-0.002466043
1209,0.00014159412
1210,0.010273243
1211,0.011507665
1212,0.0016634967
1213,0.006250283
1214,-0.00021653855
1215,0.0066397903
1216,0.0051190476
1217,-0.012720389
1218,-0.012337091
1219,-0.008303359
1220,0.00030549272
1221,0.0078024473
1222,0.014114193
1223,-0.006474335
1224,0.00402672
1225,-0.0067365947
1226,0.00635243
1227,-0.002804224
1228,0.0046491483
1229,0.002889589
1230,-0.0043705082
1231,-0.00310439
1232,-0.013419563
1233,-0.016194547
1234,0.006252139
1235,-0.0013386472
1236,-0.003934301
1237,-0.0018324814
1238,-0.0041505503
1239,-0.018459061
1240,0.002088101
1241,0.01781874
1242,0.008487764
1243,-0.008122779
1244,0.006786807
1245,0.0069431816
1246,-0.010860307
1247,0.015946617
1248,-0.016921334
1249,-0.011349327
1250,-0.014003828
1251,0.00808005
1252,0.010699283
1253,0.0029330251
1254,-0.0026564978
1255,0.0011200815
1256,0.00942796
1257,0.0025031571
1258,-0.0034700106
1259,0.0018574242
1260,-0.0006365427
1261,-0.0025399425
1262,0.00030607864
1263,-0.007031971
1264,-0.0029211587
1265,-0.0047665387
1266,0.0036460976
1267,-0.013358616
1268,0.000592049
1269,0.018286314
1270,0.014479344
1271,0.0059665283
1272,0.006052729
1273,-0.004850996
1274,-0.0071126344
1275,0.0022970806
1276,0.00886157
1277,-0.002012627
1278,-0.008483861
1279,-0.016878635
1280,0.014438675
1281,-0.015372256
1282,0.011703456
1283,-0.0044404175
1284,0.0013486907
1285,-0.009837184
1286,0.002080546
1287,-0.0050045513
1288,0.0048948205
1289,0.005880009
1290,-0.012018906
1291,-0.0059913765
1292,-0.0031838526
1293,0.012319419
1294,-0.009739975
1295,-0.0106853405
1296,-0.0043408023
1297,0.006726655
1298,-0.014813778
1299,0.009836268
1300,0.0038383326
1301,0.003371856
1302,-0.015680237
1303,0.0041657696
1304,0.007827885
1305,0.01350939
1306,-0.0013818461
1307,-0.0044706664
1308,-0.017744988
1309,-0.0151175065
1310,-0.010477871
1311,0.009095249
1312,-0.009148904
1313,-0.005062258
1314,0.0053344574
1315,0.012601099
1316,-0.0018937554
1317,0.0052573066
1318,-0.0010505739
1319,-0.008248431
1320,0.0049844556
1321,0.009418325
1322,0.018436953
1323,-0.0055236444
1324,-0.0026262696
1325,0.002535503
1326,-0.008204259
1327,0.007199533
1328,0.0071960804
1329,-0.008587002
1330,-0.0061524278
1331,0.004535748
1332,0.017729083
1333,0.0045772456
1334,-0.010816922
1335,-0.01492023
1336,0.017153408
1337,-0.0023101536
1338,0.0027836226
1339,-0.009297794
1340,-0.0051420205
1341,0.018438403
1342,-0.01483263
1343,0.00213259
1344,0.0032580858
1345,0.01246098
1346,-0.007643678
1347,-0.0046414677
1348,0.0043843132
1349,0.005109182
1350,0.0058519747
1351,0.005255338
1352,-0.010953073
1353,-0.0077487393
1354,-0.008870267
1355,0.016933732
1356,-0.01712276
1357,0.0083338395
1358,-0.012937337
1359,-0.017224811
1360,-0.0010079739
1361,0.0011894036
1362,-0.01028622
1363,-0.0006968411
1364,-0.0062501514
1365,0.0016330642
1366,-0.010012429
1367,0.011489209
1368,0.010648528
1369,-0.0016345903
1370,0.012122948
1371,-0.0072100186
1372,-0.006827944
1373,-0.0084170345
1374,-0.004655507
1375,0.0020983838
1376,-0.014600703
1377,0.004526153
1378,-0.0026952166
1379,0.003562799
1380,-0.00094145286
1381,-0.015592587
1382,-0.006215799
1383,-0.004844426
1384,-0.002295678
1385,0.01695491
1386,0.0013233431
1387,0.011907859
1388,0.018953316
1389,0.006482315
1390,0.010920945
1391,-0.013829998
1392,0.011061044
1393,-0.016840903
1394,-0.0031968076
1395,-0.005052664
1396,-0.011936646
1397,0.00955636
1398,-0.0028169006
1399,0.011955458
1400,-0.009104491
1401,0.007903354
1402,0.011016385
1403,0.0008953677
1404,-0.005876607
1405,-0.019640379
1406,0.0015268944
1407,0.0046634395
1408,0.008114306
1409,0.0058685546
1410,4.9219256e-05
1411,9.626375e-05
1412,-0.01680795
1413,0.01290824
1414,-0.011563822
1415,0.009548858
1416,0.01412965
1417,-0.0070407884
1418,0.013237537
1419,0.007972131
1420,-0.019364472
1421,-0.0041319705
1422,-0.00096461596
1423,0.0064101876
1424,0.015221009
1425,-0.012133269
1426,-0.0022930952
1427,-0.009807928
1428,-0.001395059
1429,-0.017367862
1430,0.007337967
1431,0.011428392
1432,-0.007944638
1433,0.010226655
1434,0.0070114117
1435,0.0031624506
1436,0.012173849
1437,0.0064958064
1438,-0.0027401412
1439,0.005760792
1440,-0.0004002884
1441,0.013380681
1442,0.014436773
1443,0.0080199335
1444,-0.005778852
1445,-0.0062038796
1446,-0.0124709485
1447,0.01446136
1448,0.003205492
1449,0.012093032
1450,0.018755063
1451,-0.017824557
1452,-0.004835422
1453,-0.011895727
1454,-0.0026295134
1455,0.014016226
1456,0.0029503433
1457,0.0047622207
1458,0.0058356645
1459,-0.014628333
1460,-0.0065493085
1461,0.016765032
1462,-0.010464479
1463,-0.018612066
1464,0.01432376
1465,-0.0032500885
1466,-0.016697608
1467,0.004548886
1468,-0.0044383314
1469,-0.009950449
1470,0.00060932484
1471,-0.0039533456
1472,0.0003631191
1473,-0.0052654278
1474,-0.0069670635
1475,-0.004864542
1476,-0.00038365924
1477,0.019644339
1478,0.010393722
1479,-0.009580298
1480,-0.006522874
1481,-0.007719255
1482,-0.001002278
1483,0.0009038456
1484,-0.0045491005
1485,0.006818707
1486,-0.0012693359
1487,0.0050627165
1488,0.0015590731
1489,0.008521595
1490,-0.0039817668
1491,0.008701324
1492,-0.005868188
1493,0.0077842637
1494,-0.011845542
1495,0.004662144
1496,0.007050477
1497,0.006784587
1498,0.004903484
1499,-0.0073061693
1500,-0.004468674
1501,0.013507399
1502,0.0144970035
1503,0.010872996
1504,-0.0031390649
1505,-0.0066836476
1506,0.01040822
1507,-0.0026115943
1508,-0.0019991908
1509,-0.0062380545
1510,0.006875107
1511,-0.008177823
1512,-0.0022235992
1513,-0.0055676703
1514,0.010421398
1515,-0.0045022485
1516,0.006190583
1517,-0.0016395526
1518,0.0071242917
1519,-0.001017106
1520,-0.0077245324
1521,-0.008893729
1522,-0.013361866
1523,0.0004308437
1524,-0.011473516
1525,0.0027586967
1526,-0.004814707
1527,0.0032847598
1528,-0.0013070103
1529,-0.016447587
1530,-0.0074753803
1531,0.009017776
1532,-0.005804459
1533,-0.0009555583
1534,-0.013348546
1535,0.0061436733
1536,0.002805105
1537,-0.011411594
1538,0.013891919
1539,0.018769769
1540,0.00052408886
1541,-0.00044978393
1542,0.0032486827
1543,-0.00086083304
1544,-0.0006733927
1545,0.005469085
1546,-0.012606686
1547,-0.007860363
1548,0.00032819845
1549,0.0012113439
1550,0.00023397025
1551,-0.0075522666
1552,0.0008683004
1553,-0.0020018532
1554,0.016474897
1555,-0.0031284988
1556,0.002089988
1557,0.0012525668
1558,0.004255281
1559,-0.008130621
1560,0.019916344
1561,-0.011567261
1562,-0.01326848
1563,-0.007360342
1564,0.003615542
1565,-0.0019524732
1566,-0.012096972
1567,0.0008044151
1568,-0.0031564485
1569,-0.008885648
1570,0.0095753195
1571,-0.006610843
1572,-0.017696543
1573,-0.00791357
1574,-0.011426049
1575,-0.0037291758
1576,-0.0046796226
1577,-0.013201999
1578,0.012705509
1579,0.006776284
1580,-0.0024391874
1581,-0.0057602413
1582,-0.012679227
1583,0.0056327265
1584,0.007971854
1585,-0.0027370288
1586,0.0035378386
1587,-0.005130571
1588,0.008764083
1589,0.0026944166
1590,0.0077861585
1591,-0.0018618454
1592,0.0023079638
1593,0.0001385863
1594,-0.002110932
1595,-0.0041346885
1596,0.0009158674
1597,0.004174489
1598,-0.0030365915
1599,0.012271565
1600,0.006115804
1601,-0.005713646
1602,-0.0006293797
1603,-0.010053389
1604,0.0056097903
1605,0.008867011
1606,-0.00363642
1607,0.014557179
1608,-0.005528432
1609,0.0025962775
1610,-0.007788187
1611,0.0057825176
1612,0.017294414
1613,-0.00067953515
1614,0.017849544
1615,0.0049775825
1616,-0.005620078
1617,-0.008113703
1618,0.006606657
1619,-0.0029791011
1620,0.014415234
1621,0.0014036053
1622,-0.0046930695
1623,0.0062364466
1624,-0.0064677205
1625,-0.0118037695
1626,0.007574385
1627,-0.012808918
1628,-0.010394491
1629,0.010264698
1630,0.010977538
1631,-0.0026880407
1632,-0.0032237526
1633,0.000444367
1634,-0.004064142
1635,-0.002648951
1636,-0.01241671
1637,-0.0038376136
1638,-0.009320895
1639,-0.0130098965
1640,0.002140939
1641,0.006717157
1642,-0.00023059676
1643,-0.013605482
1644,-0.005489675
1645,0.013787092
1646,0.010145527
1647,0.0076732878
1648,0.020017788
1649,0.015164157
1650,-0.011939394
1651,-0.012568983
1652,0.014352912
1653,0.015513456
1654,0.009214785
1655,-0.008981234
1656,-0.011432111
1657,0.017327242
1658,-0.00047321373
1659,-0.012513906
1660,0.0040319194
1661,-0.00608146
1662,0.0027035517
1663,0.011318066
1664,-0.0065818382
1665,0.018396176
1666,-0.0070537156
1667,0.0072047766
1668,-0.0022368466
1669,-0.007303552
1670,0.0038133953
1671,-0.010564925
1672,-0.0071141603
1673,-0.0148534635
1674,-0.0056595765
1675,0.0024771255
1676,0.010685648
1677,0.00817486
1678,-0.0028909897
1679,-0.0016305434
1680,-0.007023509
1681,0.0049292133
1682,-0.0016474024
1683,0.009491824
1684,-0.019327689
1685,-0.0063315616
1686,0.008299028
1687,0.012189775
1688,-0.0018435796
1689,0.0084155165
1690,-0.00013281133
1691,-0.0068916623
1692,0.00574434
1693,-0.00850278
1694,0.013786292
1695,0.0016524468
1696,-0.005158132
1697,0.009085857
1698,0.0009318113
1699,-0.014663602
1700,-0.0030314345
1701,0.0019673374
1702,-0.0014048914
1703,0.00037677673
1704,-0.008975112
1705,-0.01571189
1706,-0.010743445
1707,-0.0011602754
1708,0.0056921667
1709,0.00641037
1710,-0.0091282595
1711,-0.007805744
1712,-0.011075656
1713,-0.0014150294
1714,0.0023091952
1715,-0.005339183
1716,0.0071992716
1717,-0.017509189
1718,-0.006526934
1719,-0.0053115995
1720,0.010455297
1721,0.0009277624
1722,0.002672421
1723,-0.0014626889
1724,0.012717427
1725,0.0010070404
1726,0.0020694819
1727,-0.0027415706
1728,-9.716317e-06
1729,-0.0005543424
1730,0.004631133
1731,-0.0015314652
1732,-0.0076753087
1733,0.016507747
1734,-0.00027785264
1735,0.010688028
1736,-0.00032058175
1737,-0.007946359
1738,-0.0021604144
1739,0.003694887
1740,-0.010035349
1741,-0.0006292853
1742,-0.0070858723
1743,-0.008294015
1744,0.012445016
1745,-0.0142796645
1746,0.0036624307
1747,-0.0017934327
1748,-0.005812021
1749,0.014767634
1750,0.0017031252
1751,0.0089496905
1752,-0.0029913546
1753,-0.006004154
1754,0.012043864
1755,-0.006892629
1756,0.001591389
1757,-0.00038922566
1758,-0.0049773026
1759,0.008201447
1760,-0.0073343883
1761,-0.0018546737
1762,-0.0134182945
1763,-0.0028265542
1764,-0.0012852852
1765,0.010958077
1766,-0.0031899882
1767,-0.0021866856
1768,-0.0071193483
1769,-0.014183547
1770,-0.0008441515
1771,0.019275222
1772,0.004035813
1773,0.01047831
1774,-0.0065286453
1775,-0.010616337
1776,-0.01858927
1777,0.003401442
1778,-0.004271109
1779,0.00035682967
1780,-0.010677649
1781,0.006467388
1782,0.0014507521
1783,-0.011542224
1784,0.0051040715
1785,-0.0031433385
1786,0.0038739734
1787,-0.01987592
1788,-0.011707894
1789,0.003274747
1790,-0.007497363
1791,0.010869977
1792,-0.01820622
1793,0.0018580279
1794,-0.019742595
1795,-0.015477543
1796,0.01285278
1797,0.0007734407
1798,0.0038723683
1799,0.0021793246
1800,-0.009259521
1801,-0.013107086
1802,0.016592631
1803,-0.00024517745
1804,0.0035066083
1805,0.008752037
1806,0.008261629
1807,0.005179399
1808,-0.004725921
1809,-0.011736517
1810,-0.0043641734
1811,0.007324935
1812,0.004407866
1813,0.008467423
1814,0.013834762
1815,0.000386299
1816,0.010698838
1817,-0.0035318944
1818,-0.015076087
1819,-0.009815845
1820,0.011072692
1821,0.010692237
1822,0.019093597
1823,-0.0132656135
1824,0.009658466
1825,0.0023665745
1826,0.010634339
1827,0.008462052
1828,0.015996646
1829,-0.004615947
1830,0.00944849
1831,-0.00087647786
1832,-0.001307444
1833,0.0049156495
1834,-0.014279923
1835,-0.009484365
1836,-0.016788093
1837,0.007831899
1838,-0.009115735
1839,0.0033744497
1840,-0.0067657586
1841,0.0032688687
1842,-0.009001718
1843,-0.00050375547
1844,0.0040830667
1845,0.0035151786
1846,-0.005872511
1847,-0.008636167
1848,0.0041736094
1849,0.006711182
1850,0.00812758
1851,0.00565537
1852,0.002528822
1853,-0.0032247943
1854,-0.0075578867
1855,0.012637561
1856,0.0034316524
1857,0.0048097493
1858,-0.008027002
1859,-0.016392997
1860,0.0020494745
1861,0.007469788
1862,-0.0026343947
1863,0.013751378
1864,0.0045544854
1865,0.004996892
1866,0.010142122
1867,-0.0018719268
1868,0.016197065
1869,-0.016168492
1870,0.0025556409
1871,0.008800155
1872,-0.014819965
1873,-0.010749808
1874,0.0012059473
1875,-0.004540529
1876,-0.0067611597
1877,0.013600133
1878,0.0022377034
1879,0.013810765
1880,0.0022155144
1881,0.013907867
1882,-0.005532843
1883,-0.00903283
1884,0.008028031
1885,-0.013766419
1886,0.012895255
1887,-0.00999444
1888,-0.00073913793
1889,-0.0021802038
1890,0.0061674775
1891,-0.011244746
1892,0.013934077
1893,0.010888531
1894,-7.1697395e-06
1895,0.0041460795
1896,0.0004801034
1897,-0.004301491
1898,0.0046124076
1899,0.0029371101
1900,-0.009518593
1901,-0.0026609413
1902,-0.0034925845
1903,0.0024570746
1904,-0.0038058641
1905,0.013919029
1906,0.0036643336
1907,-0.004383562
1908,0.0037423014
1909,0.0009899719
1910,-0.0058499277
1911,0.009519723
1912,0.0019426062
1913,0.009616141
1914,0.018573532
1915,0.004532841
1916,0.00078313187
1917,-0.00052348967
1918,-0.0043091434
1919,0.007805992
1920,0.0065856352
1921,-0.011447468
1922,0.0070759864
1923,-0.012726823
1924,0.011428891
1925,-0.013840517
1926,-0.005368381
1927,-0.0031091024
1928,0.008671566
1929,-0.016986404
1930,-0.0030322517
1931,-0.018410362
1932,0.0049781855
1933,0.0075091957
1934,0.012601581
1935,-0.0065742857
1936,-0.008063626
1937,-0.0035686977
1938,0.0112351775
1939,-0.010683755
1940,0.0035208482
1941,0.006373734
1942,0.0047413283
1943,-0.006704786
1944,0.0082277525
1945,-0.0147147095
1946,0.008414373
1947,0.008023546
1948,-0.0038212289
1949,-0.017853927
1950,9.297033e-05
1951,0.019136652
1952,0.016364625
1953,0.01444526
1954,-0.014101028
1955,-0.013286495
1956,-0.0028162824
1957,-0.0045966413
1958,-0.004727011
1959,0.0065918216
1960,-0.008000971
1961,0.0036081993
1962,0.008215619
1963,0.008578354
1964,0.01325574
1965,-0.017042276
1966,0.018788645
1967,-0.017205173
1968,0.0028538802
1969,0.0012591154
1970,-0.014864893
1971,0.004401228
1972,-0.0028472675
1973,-0.002842029
1974,-0.0072015505
1975,0.013123003
1976,-0.005060669
1977,-0.005108912
1978,0.0005750512
1979,-0.015333905
1980,-0.0027428903
1981,0.01318662
1982,0.010436876
1983,-0.0049124886
1984,-0.0010926883
1985,-0.006483381
1986,0.0039954013
1987,-0.0016056768
1988,0.007013743
1989,0.0067645116
1990,-0.0025272043
1991,-0.0013847698
1992,0.010552268
1993,-0.004779567
1994,-0.005897879
1995,0.005243084
1996,0.0053018243
1997,-0.0013005303
1998,-0.0028354083
1999,-0.0032985986
2000,0.009436359
2001,-0.008612445
2002,0.0076442007
2003,-0.017024932
2004,-0.0019179895
2005,-0.007699762
2006,-0.0065456643
2007,-0.011523216
2008,-0.0051393025
2009,-0.014834122
2010,0.004250078
2011,-0.009055099
2012,0.006295976
2013,-0.0043631494
2014,0.010060612
2015,0.008071313
2016,-0.016915746
2017,0.013789172
2018,0.007604655
2019,-0.003181139
2020,-0.0090045165
2021,0.00017312306
2022,-0.012297189
2023,0.004104077
2024,0.0006131277
2025,-0.0037356284
2026,0.0035869179
2027,-0.009010685
2028,0.0008552994
2029,0.0070251115
2030,0.001653532
2031,3.890841e-05
2032,-0.007586996
2033,-0.011081102
2034,0.006595045
2035,-0.008094648
2036,0.003316571
2037,0.0057543926
2038,0.0018620044
2039,0.000103788145
2040,-0.005226514
2041,0.0023815273
2042,0.0033464907
2043,0.0014341199
2044,-0.010404501
2045,0.002267827
2046,0.0061678817
2047,0.0060166502
2048,-0.0073581855
2049,0.0019963111
2050,-0.015097925
2051,0.0068255845
2052,-0.0011970329
2053,0.0043592216
2054,-0.0014068261
2055,-0.007742094
2056,-0.0058712903
2057,-0.0017719058
2058,-0.009368511
2059,-0.0009590514
2060,0.01350127
2061,0.01639006
2062,-0.0071973144
2063,0.009045937
2064,0.0038194386
2065,-0.0036230332
2066,-0.0010722998
2067,-0.008070871
2068,0.0017713062
2069,7.391332e-05
2070,0.006317154
2071,0.007914819
2072,-0.011173241
2073,-0.015166366
2074,0.00033975017
2075,-0.017506668
2076,0.004583969
2077,0.0015422032
2078,0.0055975514
2079,0.007075449
2080,0.0012735203
2081,0.0007226745
2082,-0.006299897
2083,-0.0006586171
2084,-0.010463972
2085,0.017149195
2086,0.0007249755
2087,0.016027378
2088,-3.6157453e-05
2089,-0.0034947074
2090,-0.0112060625
2091,-0.008282853
2092,-0.0021103679
2093,-0.015988536
2094,-0.009718402
2095,0.009149331
2096,0.01772117
2097,-0.0041277
2098,0.018758569
2099,-0.00654907
2100,-0.0048437263
2101,-0.016890353
2102,5.1316634e-05
2103,-0.006881435
2104,-0.013341127
2105,-0.0013686861
2106,0.0066524073
2107,0.0054840236
2108,0.0032576472
2109,-0.0016165124
2110,0.012064636
2111,-0.0026222295
2112,0.003209008
2113,0.013188701
2114,-0.006609267
2115,0.0029430792
2116,-0.005831172
2117,0.002126279
2118,0.0072669946
2119,-0.00658355
2120,-0.0015391166
2121,-0.009756522
2122,-0.011198282
2123,0.013399191
2124,-0.012794373
2125,0.014655904
2126,0.0035480524
2127,-0.002560434
2128,-0.0061464026
2129,0.017420331
2130,-0.00030573076
2131,0.0064486456
2132,-0.009343854
2133,0.018769719
2134,-0.007474793
2135,0.0015444164
2136,-0.013441703
2137,-0.001010857
2138,0.003931989
2139,0.0049805823
2140,-0.017731467
2141,0.0055583077
2142,0.0056079775
2143,-0.014587883
2144,-0.0031088605
2145,0.010335488
2146,-0.018885268
2147,0.004285949
2148,0.0019442354
2149,-0.016291646
2150,-0.004011691
2151,0.013033793
2152,0.0032297638
2153,0.006366441
2154,-0.018374767
2155,-0.006183924
2156,-0.013865568
2157,0.007397327
2158,0.001332751
2159,-0.0010538496
2160,-0.01433497
2161,0.005318204
2162,0.015045587
2163,-0.0041931355
2164,0.0049772467
2165,-0.013517988
2166,-0.0030685966
2167,0.017542968
2168,0.004033049
2169,0.0050532734
2170,0.007950917
2171,-0.005547871
2172,0.010047575
2173,-0.013102724
2174,0.0013641459
2175,-0.012349538
2176,-0.01128239
2177,-0.007295464
2178,-0.0018443263
2179,-0.0037040915
2180,0.014511928
2181,0.0003808022
2182,-0.00025981668
2183,0.00804578
2184,0.0063804397
2185,-0.010248841
2186,0.0077301264
2187,0.016068723
2188,-0.0015207347
2189,0.003213297
2190,-0.0099762585
2191,0.0015279063
2192,0.003417996
2193,0.0088923015
2194,0.012541334
2195,-0.004495568
2196,-0.0041320054
2197,0.01687363
2198,-0.015217409
2199,0.015787886
2200,0.01695721
2201,-0.011903671
2202,0.007933761
2203,0.0040703425
2204,-0.011928883
2205,0.00096396066
2206,-0.0043916465
2207,0.001863664
2208,0.0019290803
2209,0.00790554
2210,-0.0033014305
2211,0.0009629937
2212,7.269294e-05
2213,-0.0073203156
2214,-0.009365191
2215,-0.015674198
2216,-0.0034578596
2217,0.0019347436
2218,-0.008876617
2219,-0.0015430033
2220,-0.016439406
2221,-0.0025468597
2222,0.011027005
2223,-0.0006364295
2224,0.011497195
2225,0.006516193
2226,-0.015514794
2227,-0.0031307302
2228,-0.0017637333
2229,0.0025340319
2230,-0.0010399708
2231,0.009894358
2232,-0.0006309539
2233,0.0038068814
2234,-0.00020395509
2235,-0.004102665
2236,-0.0006308911
2237,-0.009876672
2238,0.009784788
2239,-0.0053131967
2240,0.008178349
2241,-0.007885375
2242,-0.0069739437
2243,0.008914986
2244,-0.010570751
2245,-0.0015077774
2246,-0.008297165
2247,-0.009838722
2248,-0.0039222566
2249,-0.0013087727
2250,0.01413746
2251,0.01656402
2252,0.0019947812
2253,0.0092804
2254,-0.009153733
2255,0.019936929
2256,0.0027095585
2257,0.009836379
2258,-0.004252838
2259,-0.0028614465
2260,-0.0063609756
2261,-0.0023299272
2262,-0.01512385
2263,0.00081557455
2264,0.0080298055
2265,-0.0031584876
2266,-0.0019815562
2267,-0.0043570544
2268,0.0014991466
2269,-0.0054429835
2270,0.008000046
2271,-0.007398442
2272,-0.0066210898
2273,0.011764969
2274,0.0054138056
2275,0.011929506
2276,0.014362916
2277,-0.012727868
2278,0.0055610365
2279,0.0027793138
2280,0.0007817313
2281,-0.0026177657
2282,0.0011271938
2283,-0.0029964647
2284,0.016382093
2285,-0.0036118128
2286,-0.0047447607
2287,-0.008231866
2288,-0.014135659
2289,0.003571072
2290,-0.014934775
2291,0.015815703
2292,-0.015363641
2293,-0.006848932
2294,0.005659495
2295,0.0036532718
2296,-0.004675308
2297,-9.8216195e-05
2298,-0.00030310082
2299,0.009995571
2300,-0.0003444998
2301,0.009372342
2302,0.016473908
2303,-0.013585562
2304,0.016161527
2305,-0.005563138
2306,0.0116911605
2307,-0.012865267
2308,-0.005088492
2309,0.0021584532
2310,-0.016266407
2311,-0.004863237
2312,-0.005298968
2313,-0.006630641
2314,-0.005105872
2315,-0.008679741
2316,0.008693684
2317,0.009637317
2318,-0.0042016865
2319,-0.002245502
2320,0.0025208686
2321,-0.018924957
2322,0.010946816
2323,-0.013202583
2324,-0.009864684
2325,-0.0036227196
2326,-0.011465149
2327,0.001753951
2328,0.01041052
2329,-0.0013323952
2330,-0.0018476265
2331,0.007865534
2332,0.015872754
2333,0.010280576
2334,0.002097868
2335,-0.0049889134
2336,-0.0029423207
2337,-0.0047887615
2338,-0.00022260043
2339,-0.0059803743
2340,-0.01895144
2341,-0.00037045873
2342,0.0028855384
2343,-0.008501252
2344,-0.0064564524
2345,0.0025220064
2346,-0.0022528258
2347,-0.010073706
2348,0.004905342
2349,0.0066834404
2350,0.0006170732
2351,-0.0014889986
2352,-0.0027912452
2353,0.016212817
2354,0.007525946
2355,-0.002019207
2356,-0.013325136
2357,0.0046655894
2358,0.011406598
2359,0.002119387
2360,-0.007392039
2361,0.01299363
2362,-0.017257646
2363,-0.008005062
2364,0.00087596267
2365,0.0020311684
2366,0.004668844
2367,-0.007129384
2368,-0.014628292
2369,-0.018771345
2370,0.014412776
2371,-0.0020680546
2372,0.01028092
2373,0.0061222236
2374,-0.0012445413
2375,-0.009267768
2376,-0.0030894964
2377,-0.017165562
2378,-0.0059136692
2379,-0.0026392436
2380,-0.008941461
2381,0.011970616
2382,-0.0022973893
2383,-0.008073686
2384,7.2494666e-05
2385,0.010397954
2386,-0.015986124
2387,0.007820504
2388,0.0069741206
2389,-0.005333857
2390,0.0094273435
2391,-0.00010442359
2392,-0.00053851976
2393,0.005608126
2394,0.0002217707
2395,0.007716585
2396,-0.008146085
2397,0.0038968832
2398,0.008674371
2399,-0.0017520601
2400,-0.019513598
2401,-0.014674974
2402,-0.0090252
2403,0.009299695
2404,0.015695963
2405,0.011037221
2406,0.002907678
2407,0.002195706
2408,0.01608038
2409,0.000130115
2410,0.0064344723
2411,-0.0036832634
2412,0.010654875
2413,0.009609118
2414,0.004343813
2415,-0.015819522
2416,-0.011787496
2417,-0.0027038031
2418,-0.0057589933
2419,0.0044518705
2420,-0.018534454
2421,0.006093004
2422,0.0029049807
2423,-0.016419856
2424,-0.0075401994
2425,-0.0056485687
2426,0.007874233
2427,0.003920662
2428,-0.009802739
2429,-0.0011228636
2430,-0.006432497
2431,-0.007012472
2432,0.0012919429
2433,0.018442767
2434,-0.012834718
2435,-0.015111235
2436,0.012623791
2437,-0.01764092
2438,-0.008328967
2439,-0.011426763
2440,-0.005367338
2441,0.007217633
2442,-0.0039361585
2443,-0.006620306
2444,-0.0020203923
2445,0.014811981
2446,0.011462891
2447,-0.013710629
2448,0.004307071
2449,-0.00894325
2450,-0.004923151
2451,-0.012483429
2452,0.0027195588
2453,0.001285785
2454,-0.0005716585
2455,-0.00012864983
2456,-0.0032822473
2457,0.009388783
2458,0.008116499
2459,0.017718218
2460,-0.01741875
2461,-0.0057402137
2462,0.0020683936
2463,0.0033472015
2464,-0.011339078
2465,0.019333858
2466,-0.0014276167
2467,-0.01698326
2468,-0.011178631
2469,0.0076415516
2470,-0.010285387
2471,-0.0116813565
2472,-0.003507713
2473,-0.0111752795
2474,0.0012417733
2475,-0.00591444
2476,0.010274664
2477,5.0333754e-05
2478,0.0031312897
2479,0.0118399225
2480,-0.0092127295
2481,-0.0136652365
2482,0.0047033457
2483,0.0008792364
2484,-0.0058020186
2485,0.0030591975
2486,-0.012184618
2487,-0.009976823
2488,-0.0036528397
2489,-0.004876693
2490,0.0062341522
2491,-0.0010272234
2492,-0.0049708253
2493,-0.005011865
2494,-0.006908434
2495,0.0043780445
2496,0.0031821514
2497,0.0021312644
2498,0.015076276
2499,-0.0020432726
2500,0.00041015772
2501,0.0017916479
2502,0.0016287966
2503,-0.0033334796
2504,0.016340999
2505,-0.01017029
2506,-0.00051056733
2507,-0.0009059981
2508,-0.0009402016
2509,0.0052441666
2510,0.004784552
2511,-0.0074140755
2512,0.010422825
2513,0.006969921
2514,0.005221019
2515,0.0091602905
2516,-0.0022889976
2517,-0.001502901
2518,5.561734e-05
2519,0.012140324
2520,-0.005157919
2521,-0.0039665457
2522,-0.0010298091
2523,0.010103905
2524,-0.009312304
2525,-0.0075241853
2526,0.00847494
2527,-0.014834178
2528,0.0012172762
2529,-0.006821751
2530,0.0048802323
2531,0.010308687
2532,0.0022161822
2533,0.0021065671
2534,-0.008120967
2535,-0.0005046555
2536,-0.009712057
2537,-0.009151344
2538,0.014481224
2539,0.010370623
2540,-0.0069500864
2541,-0.0020195495
2542,-0.01750269
2543,0.013527514
2544,-0.015700212
2545,0.008150515
2546,-0.016154243
2547,0.011358798
2548,-0.013862752
2549,-0.005646435
2550,0.004821913
2551,-0.0036873436
2552,0.008839681
2553,-0.008758917
2554,0.009145956
2555,0.008543567
2556,0.0038770973
2557,-0.00030482817
2558,0.0019339696
2559,0.0072320243
2560,0.009021691
2561,0.004907892
2562,-0.0057272553
2563,0.01028046
2564,-0.0031704074
2565,0.0009673321
2566,-0.0043832078
2567,0.0030001267
2568,0.0049030534
2569,0.017024213
2570,-0.008833959
2571,0.018136969
2572,-0.0028692177
2573,-0.0075631295
2574,-0.0056939335
2575,-0.0023407761
2576,0.0005052434
2577,7.540345e-05
2578,-0.0006001596
2579,-0.019607073
2580,-0.0031392947
2581,-0.00046721846
2582,-0.0026615085
2583,-0.010765338
2584,0.0049399417
2585,-0.013422317
2586,0.00067827187
2587,-0.00089853315
2588,-0.00011646046
2589,0.003105774
2590,-0.00062940625
2591,-0.0094032595
2592,-0.0011421276
2593,0.0051202797
2594,-0.0022726927
2595,-0.004203734
2596,0.0071640667
2597,0.008483189
2598,0.005908941
2599,-0.010366227
2600,0.0028454126
2601,0.00036309767
2602,-0.00013333987
2603,0.013625188
2604,-0.0069622616
2605,-0.010096283
2606,0.004881414
2607,-0.014605088
2608,-0.008603808
2609,0.003262118
2610,-0.005784813
2611,-0.014804761
2612,-0.005153767
2613,-0.0033204975
2614,-0.00072520674
2615,-0.00023328282
2616,0.013908745
2617,-0.017090766
2618,-0.011415316
2619,-0.0067768367
2620,0.0032780583
2621,0.005750831
2622,0.00047290145
2623,-0.012504753
2624,0.0078095556
2625,-0.009393229
2626,-0.013294912
2627,-0.004142716
2628,0.0050685713
2629,0.01956139
2630,0.004394075
2631,0.009439364
2632,0.006434823
2633,0.004345864
2634,-0.001623072
2635,0.01651156
2636,0.017892746
2637,0.009268426
2638,-0.0041158423
2639,-0.00826823
2640,-0.0010196732
2641,0.011193569
2642,0.0027418179
2643,-0.0031203402
2644,-0.0020423408
2645,-0.0051448834
2646,-0.0036602076
2647,0.002085757
2648,0.008557635
2649,0.010646423
2650,0.007639874
2651,0.009818716
2652,0.012435391
2653,0.0068543726
2654,-0.0013112617
2655,0.010412754
2656,0.014510136
2657,0.018818974
2658,-0.003291038
2659,-0.009759336
2660,-0.010561744
2661,0.0018751606
2662,-0.004930765
2663,0.0038173697
2664,-0.004185797
2665,0.005469472
2666,0.0032935194
2667,0.0114013245
2668,0.017320419
2669,-0.00327412
2670,0.0020909843
2671,0.0010922021
2672,0.00808586
2673,-0.010631202
2674,-0.0014998709
2675,-0.00047529902
2676,-0.0105121285
2677,-0.00980834
2678,-0.0099153025
2679,0.009329739
2680,0.018760193
2681,-0.0055919103
2682,-0.0049936473
2683,-0.0052802083
2684,-0.015211153
2685,0.0033380494
2686,0.00094538234
2687,-0.011564409
2688,0.003594709
2689,-0.012905113
2690,-0.0043891207
2691,0.015872188
2692,-0.015110557
2693,0.0035667536
2694,-0.01129077
2695,0.0030872324
2696,0.015440903
2697,-0.01945958
2698,-0.0105457
2699,0.010979867
2700,0.01562812
2701,0.012974447
2702,-0.011887312
2703,-0.0016068049
2704,-0.006396306
2705,-0.0087631615
2706,-0.018169848
2707,-0.005594464
2708,0.0039499155
2709,-0.010680352
2710,-0.0176846
2711,0.014579476
2712,0.014613444
2713,0.011498781
2714,0.006058165
2715,-0.016616143
2716,-0.002504593
2717,-0.00019207939
2718,0.0141093675
2719,-0.009644597
2720,0.004237081
2721,0.011558087
2722,-0.0028738503
2723,0.018416064
2724,0.0040556113
2725,-0.0035554443
2726,-0.008984297
2727,0.01194667
2728,0.0037517555
2729,0.0031816585
2730,0.00089291873
2731,-0.0026887257
2732,0.010906675
2733,0.007801567
2734,0.013355416
2735,-0.016613776
2736,-0.0021583068
2737,-0.0004907798
2738,0.0126375295
2739,-0.019407947
2740,0.008573228
2741,-0.008853491
2742,-0.008269139
2743,0.01061879
2744,0.009922419
2745,0.005143675
2746,0.014941602
2747,-0.007521369
2748,0.008029166
2749,0.010696391
2750,0.002569976
2751,0.019285284
2752,0.011731149
2753,0.01297535
2754,-0.008661235
2755,-0.0034401729
2756,-0.014997999
2757,-0.004651928
2758,-0.010567026
2759,0.016046818
2760,-0.01655046
2761,0.008465387
2762,-0.0128436
2763,-0.00021145231
2764,-0.01481176
2765,0.015302183
2766,-0.004407258
2767,0.0002040026
2768,0.006380131
2769,-0.0051256698
2770,-0.017592125
2771,0.00046327102
2772,-0.0045804293
2773,-0.006484549
2774,-0.009044443
2775,0.0013213406
2776,-0.0043352554
2777,-0.00906816
2778,0.00883542
2779,0.010448429
2780,0.010504964
2781,0.0011085373
2782,-0.00050473056
2783,-0.014929418
2784,-0.0024120212
2785,-0.0065860446
2786,0.006794023
2787,-0.012711595
2788,0.0062720943
2789,-0.003623141
2790,-0.002218052
2791,-0.016238103
2792,0.001199049
2793,0.004549091
2794,-0.0045760106
2795,0.013819528
2796,0.0049633794
2797,-0.00031882926
2798,-0.0071612713
2799,0.0101213
2800,0.014572191
2801,0.011584299
2802,-0.009204884
2803,0.003826242
2804,-0.008909739
2805,0.015575161
2806,0.0008080749
2807,-0.0031279437
2808,0.008600688
2809,-0.0023725913
2810,-0.012884163
2811,0.0011896185
2812,3.9393854e-05
2813,-0.0018911895
2814,0.015488296
2815,-0.0047391537
2816,0.0015772688
2817,-0.008864525
2818,-0.00781342
2819,0.006928342
2820,-0.019122139
2821,0.004764366
2822,-5.1271425e-05
2823,-0.009612441
2824,0.004267286
2825,0.010515596
2826,0.014685862
2827,0.010461553
2828,-0.0003710875
2829,-0.0019512603
2830,-0.0076419283
2831,0.0019247464
2832,0.0017292213
2833,-0.0017347127
2834,0.0009727544
2835,0.012943596
2836,-0.016581716
2837,-0.017066162
2838,-0.0025787607
2839,-0.0037541522
2840,-0.0064085997
2841,0.011467522
2842,-0.0051113376
2843,0.008846349
2844,-0.0028204357
2845,-0.0041583837
2846,0.016189035
2847,0.011430877
2848,0.008927137
2849,0.0016912993
2850,-0.0013221313
2851,0.007137687
2852,0.0077897594
2853,0.014303784
2854,0.006449996
2855,0.007650695
2856,-0.0059695547
2857,-0.01606456
2858,-0.0005699318
2859,-0.017946763
2860,0.013167445
2861,0.0010952848
2862,-0.0012557139
2863,0.013086376
2864,0.0098017575
2865,0.003010239
2866,0.019110417
2867,0.0058967886
2868,-0.008564632
2869,-0.0047901953
2870,0.013599422
2871,-0.0005135898
2872,-0.013064801
2873,0.011559777
2874,-0.0064518643
2875,0.0020386653
2876,-0.0077629434
2877,-0.001816584
2878,-0.0017424951
2879,-0.009963581
2880,0.01367202
2881,0.014237917
2882,-0.0037753398
2883,0.0001511035
2884,-0.015178705
2885,0.0016909357
2886,-0.0071881376
2887,-0.006283081
2888,0.0011739155
2889,-0.014712746
2890,-0.012351286
2891,0.004366117
2892,0.0011596569
2893,-0.0073980833
2894,-0.004953477
2895,-0.01220693
2896,0.002379977
2897,-0.003135131
2898,-0.01467754
2899,-0.0009046746
2900,0.008083603
2901,0.0111576235
2902,-0.019466743
2903,0.003014859
2904,0.0033706715
2905,0.013345455
2906,0.0108341975
2907,0.00017741983
2908,0.01905639
2909,0.0019901441
2910,-0.009834258
2911,-0.00054144947
2912,-0.0057377988
2913,-0.009432463
2914,0.00034391356
2915,0.004361057
2916,0.012652428
2917,0.00664043
2918,-0.0017376271
2919,-0.0038217397
2920,-0.0010077993
2921,0.012090272
2922,-0.018669276
2923,0.012478127
2924,-0.00028880825
2925,-0.008399996
2926,-0.004659759
2927,0.003926528
2928,0.0077114543
2929,-0.006549423
2930,-0.0034071412
2931,-0.0016988795
2932,-0.006959231
2933,0.0112819765
2934,0.00537827
2935,0.0034741927
2936,0.00114225
2937,0.004230713
2938,-0.0002970703
2939,0.0025737607
2940,-0.0058747036
2941,-0.009270159
2942,0.011795796
2943,-0.016714772
2944,0.002114705
2945,0.012932778
2946,-0.00809538
2947,0.014052055
2948,-0.008959874
2949,-0.0037777775
2950,-0.017648045
2951,0.0033746273
2952,-0.012466714
2953,0.010599927
2954,-0.012733142
2955,0.0023012925
2956,-0.010663504
2957,0.004825858
2958,0.0077130687
2959,0.0012839176
2960,-0.015642857
2961,-0.009824512
2962,0.0061725294
2963,0.0086057
2964,0.010720505
2965,0.009756558
2966,0.006158793
2967,0.012765667
2968,-0.019989364
2969,-0.010720634
2970,0.00577345
2971,-0.0074069877
2972,0.01520156
2973,-0.0037050422
2974,0.0055454355
2975,-0.016369443
2976,-0.00077450066
2977,-0.008284827
2978,-0.000569433
2979,0.00089614483
2980,0.00023140993
2981,-0.0014009203
2982,0.002559275
2983,0.005274462
2984,0.0024068689
2985,-0.0063601304
2986,-0.008921972
2987,-0.016141275
2988,-0.0058423844
2989,0.0064025586
2990,0.007285189
2991,-0.0006599719
2992,0.013270051
2993,-0.0014185605
2994,0.0069838213
2995,0.0068978025
2996,0.0037602047
2997,0.012790166
2998,0.0075025046
2999,-0.008707699
3000,0.0014927672
3001,0.0035661398
3002,0.0055248537
3003,0.0030000666
3004,-0.006003279
3005,0.0055305986
3006,0.003565652
3007,0.0060241926
3008,-0.0052955323
3009,-0.008912684
3010,-0.009000247
3011,-0.018091336
3012,0.0034943458
3013,0.00219691
3014,0.004677751
3015,0.0012296013
3016,-0.018347783
3017,-0.01707815
3018,0.005214158
3019,-0.0027340588
3020,-0.006545602
3021,0.005394
3022,0.0029961956
3023,0.010684647
3024,0.01295853
3025,0.004669385
3026,-0.0018295265
3027,-0.014849499
3028,0.0035876448
3029,0.006278707
3030,0.017341234
3031,-0.0018983738
3032,0.0019488212
3033,0.007484165
3034,0.013196102
3035,-0.0088091465
3036,-0.0069751223
3037,-0.0072076875
3038,0.00035137028
3039,0.0134328855
3040,0.0039042584
3041,-0.0035448016
3042,-0.0037133072
3043,0.011750875
3044,-0.002185086
3045,-0.0029250083
3046,-0.0013112865
3047,-0.0024102456
3048,0.0065556117
3049,0.0029840223
3050,-0.0031370332
3051,-0.0057740686
3052,-0.0020209937
3053,0.0033240044
3054,0.0022661267
3055,0.011162924
3056,0.009763431
3057,-0.004933463
3058,0.0067417603
3059,-0.000120899065
3060,-0.004639315
3061,0.014796555
3062,0.0019609078
3063,0.018806156
3064,-0.013518816
3065,0.010068717
3066,0.011742604
3067,-0.0068186456
3068,-0.005079426
3069,0.013497825
3070,0.006656055
3071,0.013258899
3072,0.005752555
3073,0.01085435
3074,-0.0100653
3075,-0.0044500697
3076,-0.009326691
3077,-0.0012875121
3078,-0.004439974
3079,-0.0051414594
3080,-0.010380686
3081,0.0026026291
3082,0.014904278
3083,0.010792771
3084,-0.004511617
3085,-0.017256849
3086,0.007780687
3087,-0.0031895973
3088,-0.005351981
3089,-0.0045978683
3090,-0.0076450915
3091,-0.004888017
3092,0.0026724641
3093,-0.00021270188
3094,0.0008699317
3095,0.013144847
3096,0.001975446
3097,0.009567938
3098,-0.0033969516
3099,0.01954812
3100,-0.013792926
3101,0.0066578216
3102,-0.012672741
3103,0.003212873
3104,-0.0046599023
3105,-0.004709266
3106,-0.0024561568
3107,0.004505429
3108,-0.0062627434
3109,-0.016260445
3110,-0.0074812546
3111,0.008905666
3112,-0.0037594258
3113,0.009280221
3114,-0.0019039166
3115,0.0056145694
3116,-0.0018115307
3117,-0.008419198
3118,-0.0052828076
3119,-0.0044359174
3120,0.00319543
3121,0.010536975
3122,0.0025025671
3123,-0.019552594
3124,-0.004108729
3125,-0.0017687063
3126,0.0033741805
3127,0.005587907
3128,-0.01883825
3129,0.009528435
3130,0.01024919
3131,-0.002627453
3132,0.017035073
3133,-0.005737183
3134,-0.007079285
3135,0.0022793643
3136,-0.013067685
3137,-0.0032902125
3138,0.005670296
3139,-3.7291196e-05
3140,0.0074883574
3141,-0.004864451
3142,0.004438989
3143,0.019777907
3144,-0.002159287
3145,-0.01120426
3146,-0.0016936255
3147,0.00384835
3148,-0.008119494
3149,-0.0012142152
3150,-0.005000929
3151,-0.007821347
3152,0.0070278277
3153,0.0003399597
3154,-0.0065384097
3155,-0.010879454
3156,-0.0048871567
3157,0.0039510154
3158,0.0030406325
3159,0.0043659145
3160,-0.0005073282
3161,-0.0036513566
3162,0.0061906762
3163,0.018244352
3164,0.0010574528
3165,-0.008149776
3166,0.016798507
3167,0.0061708177
3168,-0.00080288446
3169,0.008293954
3170,0.0071514808
3171,-0.008519815
3172,-0.014026062
3173,0.0032434966
3174,0.015410857
3175,0.0095704105
3176,0.011248869
3177,-0.004679287
3178,-0.008171916
3179,-0.0121626025
3180,-0.00061098393
3181,-0.0028967194
3182,0.0043606423
3183,0.008561979
3184,-0.008989082
3185,0.013273626
3186,0.008597
3187,-0.011442265
3188,-0.003105274
3189,-0.0043433956
3190,-0.0034666683
3191,0.012561697
3192,-0.00077175465
3193,0.004148296
3194,0.013189576
3195,0.0064971396
3196,0.0031725594
3197,0.0060233055
3198,-0.016570607
3199,-0.0045346017
3200,0.0019283405
3201,0.006696967
3202,0.011921825
3203,0.01839376
3204,0.0064816303
3205,0.001683722
3206,-0.012538651
3207,0.009962394
3208,0.0029062638
3209,-0.010267141
3210,0.0062704985
3211,0.0037631425
3212,0.000656485
3213,-0.007752871
3214,-0.0102116605
3215,0.0014697806
3216,0.016200863
3217,-0.0023070772
3218,-0.003980777
3219,0.0039206725
3220,0.008745133
3221,0.0046233167
3222,-0.006673174
3223,-0.0035326562
3224,-0.0060384967
3225,-0.002181576
3226,-0.0044088834
3227,0.0052730804
3228,0.00252328
3229,-0.0010976504
3230,0.007049896
3231,-0.0040631727
3232,0.0042295074
3233,-0.004441708
3234,0.012976039
3235,0.004253788
3236,-0.0054085706
3237,-0.010131918
3238,-0.0136477
3239,-0.0007729237
3240,0.003941085
3241,0.006889892
3242,-0.006977458
3243,-0.011901589
3244,-0.003605691
3245,-0.0022601327
3246,0.0017142084
3247,-0.0044158273
3248,0.00012570898
3249,-0.006925555
3250,0.0195173
3251,-0.0037367013
3252,-0.002073804
3253,-0.0024016309
3254,0.011344741
3255,-0.009573496
3256,-0.0034064807
3257,0.0033805652
3258,-0.019987661
3259,0.01965846
3260,0.0081663355
3261,-0.015032063
3262,0.0037142579
3263,-0.007712302
3264,-0.008077505
3265,0.0060941535
3266,0.011345209
3267,0.015097352
3268,0.011469315
3269,-0.0026113992
3270,-0.01779911
3271,-0.015016799
3272,-0.00633413
3273,-0.0035702868
3274,0.00020326488
3275,0.007379752
3276,-0.0054334644
3277,-0.005442172
3278,-0.00017455996
3279,-0.018489905
3280,0.00736089
3281,-0.0069344286
3282,0.0011937172
3283,0.0039885687
3284,-0.00048895285
3285,-0.005526668
3286,-0.01096661
3287,0.0029493815
3288,-0.00011852681
3289,0.013524351
3290,0.010131608
3291,0.016580587
3292,-0.00068931363
3293,-0.0016502969
3294,0.0052833254
3295,0.011441737
3296,-0.0031967026
3297,-0.008527258
3298,-0.0057386733
3299,-0.008925051
3300,-0.012807493
3301,-0.009857852
3302,0.002380891
3303,0.00931043
3304,-0.0010091506
3305,0.007828283
3306,0.017483238
3307,-0.014039312
3308,0.011082244
3309,0.004216196
3310,0.0015088277
3311,-0.008646535
3312,0.0050824233
3313,0.0077635576
3314,-0.0008121977
3315,0.017036643
3316,0.018680314
3317,0.0027033405
3318,0.007590827
3319,0.013913601
3320,-0.0033115025
3321,0.006693575
3322,0.019394448
3323,0.00021757915
3324,-0.009346565
3325,0.0018451969
3326,0.009994271
3327,-0.012712455
3328,-0.005331619
3329,0.01111199
3330,0.0105553735
3331,0.0018822075
3332,-0.011238372
3333,0.0013505766
3334,-0.012977507
3335,-0.0011373227
3336,-0.0050423765
3337,0.016678378
3338,0.006935432
3339,0.016684188
3340,0.0016959149
3341,0.0048507177
3342,0.00146266
3343,0.01717906
3344,-0.002476509
3345,0.0024939831
3346,-0.0140102655
3347,-0.0054637673
3348,-0.0024156442
3349,-0.01843081
3350,-0.011561664
3351,0.0074189184
3352,0.0033307231
3353,0.0036552497
3354,0.002951177
3355,0.008974157
3356,-0.009422337
3357,-0.004490423
3358,-0.007702633
3359,0.0036043602
3360,-0.011637521
3361,0.00387274
3362,-0.0037500246
3363,0.003942804
3364,0.0042457553
3365,0.0015263722
3366,0.016718285
3367,-0.01118033
3368,-0.0008376865
3369,0.004115851
3370,-0.018627478
3371,-0.0072146617
3372,0.0063856854
3373,-0.010477624
3374,-0.0069529046
3375,0.0057204585
3376,-0.01675646
3377,-0.016073858
3378,-0.01865548
3379,-0.00450543
3380,-0.015557651
3381,-0.0013765038
3382,0.016441766
3383,-0.008987591
3384,-0.010202635
3385,-0.016041733
3386,0.00991965
3387,0.007876723
3388,0.013469619
3389,-0.00090307416
3390,-0.0052645095
3391,0.006416668
3392,0.0042106747
3393,-1.0058107e-05
3394,0.0030258396
3395,-0.0056689805
3396,0.0042025372
3397,0.013909661
3398,-0.0029665
3399,0.015963068
3400,-0.0064132507
3401,-0.0028092682
3402,-5.8825037e-05
3403,0.0010298428
3404,0.0010513408
3405,-0.016200649
3406,-0.002573133
3407,0.003656092
3408,-0.01221797
3409,-0.0064038173
3410,-0.010434108
3411,-0.0058381977
3412,-0.0070313476
3413,-0.0025049734
3414,-0.00033370542
3415,-0.00921511
3416,-0.0055564567
3417,0.006796568
3418,-0.0028221274
3419,-0.009798506
3420,-0.0012726624
3421,0.0032846779
3422,-0.0039034956
3423,0.009335967
3424,-0.0034358446
3425,0.009035815
3426,-0.009585182
3427,-0.00423912
3428,0.008797214
3429,-0.018549588
3430,-0.012912069
3431,-0.0043644146
3432,0.013891435
3433,0.007349922
3434,0.00026618838
3435,-0.0051164753
3436,0.0034942813
3437,-0.0008210597
3438,-0.0038270492
3439,-0.006006617
3440,0.0155106755
3441,0.006027063
3442,-0.009028388
3443,0.010006396
3444,0.0098349145
3445,0.015684964
3446,0.005941323
3447,-0.016083105
3448,0.019527476
3449,-0.010865875
3450,0.005373386
3451,-0.013921936
3452,-0.0005710182
3453,-0.014314679
3454,-0.0106923515
3455,-0.004307043
3456,-0.0048255455
3457,-0.0022193452
3458,0.009340654
3459,0.015566701
3460,0.010896206
3461,0.0019814966
3462,-0.011987869
3463,0.012672765
3464,0.006306831
3465,-0.008341163
3466,0.0049340464
3467,-0.0043325345
3468,-0.0053268
3469,0.009274951
3470,-0.0019316261
3471,0.007964404
3472,-0.0030578156
3473,-0.0023984215
3474,-0.018998468
3475,0.0031806116
3476,0.012940528
3477,-0.0028215041
3478,0.0023092793
3479,0.0037993365
3480,0.0073183444
3481,0.0041426783
3482,-0.004341574
3483,0.0023889947
3484,-0.0035035834
3485,-0.012048504
3486,-0.005463732
3487,-0.015139904
3488,-0.010719327
3489,0.0032555705
3490,0.006989276
3491,-0.015241748
3492,0.009591107
3493,-0.00849724
3494,0.0055328785
3495,0.0050250986
3496,0.0057998733
3497,-0.007447004
3498,0.006608814
3499,0.004948183
3500,-0.0045903116
3501,0.0074026976
3502,-0.0017786712
3503,-0.002715492
3504,0.017755618
3505,-0.008602339
3506,-0.010966518
3507,-0.0032119818
3508,0.006508429
3509,-0.003441658
3510,0.0137322135
3511,0.0005752178
3512,0.007709246
3513,-0.0060510347
3514,0.0022893196
3515,-0.00801701
3516,0.0037641253
3517,-0.011322931
3518,-0.008560873
3519,0.0183026
3520,-0.016203675
3521,-0.016706608
3522,-0.0002731763
3523,0.0028032283
3524,0.013323219
3525,-0.0037272216
3526,-0.0016374348
3527,-0.0018771219
3528,-0.00019101753
3529,-0.009749965
3530,-0.010403777
3531,8.227451e-05
3532,0.0072193206
3533,0.009064579
3534,-0.00071142893
3535,-0.00086591416
3536,-0.0050262227
3537,0.008348906
3538,-0.00762912
3539,0.002146588
3540,0.00073720055
3541,0.0053080767
3542,0.005522418
3543,0.006267159
3544,0.009282278
3545,0.0032604395
3546,0.018093256
3547,0.0049087657
3548,0.006298535
3549,0.0034223816
3550,-0.015657743
3551,0.016582148
3552,-0.0013643424
3553,0.010281673
3554,-0.0023351035
3555,-0.0022941332
3556,0.0129322335
3557,0.0068706167
3558,-0.006941592
3559,0.0047037676
3560,-0.0042693433
3561,0.010099343
3562,-0.0056545436
3563,-0.011378206
3564,-0.000197598
3565,-0.0026954722
3566,0.003935267
3567,0.012607251
3568,-0.008788102
3569,0.0014493922
3570,0.0011330604
3571,-0.008089301
3572,0.0046470393
3573,0.0032163141
3574,-0.0041646506
3575,-0.0011853249
3576,-0.0012397231
3577,0.002857047
3578,-0.013921339
3579,0.0028978325
3580,0.0005738957
3581,0.0051773796
3582,-0.012433198
3583,0.008824882
3584,0.0037429603
3585,-0.0024729464
3586,-0.008542869
3587,-0.006797009
3588,-0.003821839
3589,-0.019844865
3590,0.00876523
3591,-0.0066037984
3592,0.00022656536
3593,-0.0039245007
3594,-0.011023845
3595,0.0051324493
3596,0.0010497969
3597,0.01038741
3598,-0.015381877
3599,0.0015754909
3600,0.014062525
3601,0.0035165786
3602,0.014742759
3603,-0.0039896797
3604,0.018342225
3605,-0.0041985502
3606,-0.002718207
3607,-0.011195798
3608,0.0052768304
3609,0.013499928
3610,-0.0029764841
3611,-0.009301795
3612,-0.018766755
3613,-0.0105611915
3614,0.015894774
3615,0.0051058703
3616,0.014899199
3617,-0.012379636
3618,-0.007195232
3619,-0.0063595083
3620,-0.0038895276
3621,0.0030617972
3622,0.011315446
3623,0.0038488824
3624,-0.014615022
3625,-0.008652433
3626,-0.0004901331
3627,0.0011630622
3628,-0.0031420174
3629,0.011099629
3630,0.0141258985
3631,-0.0032932889
3632,0.007981498
3633,0.0084067155
3634,0.015377881
3635,-0.006989678
3636,-0.00711525
3637,-0.006972664
3638,-0.001351132
3639,-0.0048813107
3640,-0.00075279945
3641,0.00014208618
3642,-0.016810069
3643,-0.0047958433
3644,-0.014220933
3645,0.0037199769
3646,0.0044527943
3647,-0.0166219
3648,-0.0017288117
3649,-0.005704717
3650,-0.011585289
3651,-0.01441219
3652,-0.0075747627
3653,0.011005127
3654,-0.0055859154
3655,-0.013300362
3656,0.0011350774
3657,0.00431022
3658,-0.0014171891
3659,-0.010972217
3660,0.0070135067
3661,-0.0029696068
3662,-0.005437871
3663,0.0007534491
3664,0.010499934
3665,0.010720016
3666,-0.008959153
3667,0.012676485
3668,0.017422073
3669,-0.011062014
3670,-0.0021643648
3671,0.012391508
3672,0.010547346
3673,-0.0022021048
3674,0.008145383
3675,-0.013551362
3676,-0.009539553
3677,0.0043536033
3678,-0.007052082
3679,-0.0009491618
3680,0.008272689
3681,0.005385703
3682,0.009262382
3683,-0.002226521
3684,-0.0032540043
3685,-0.006827357
3686,-0.007941701
3687,0.007587366
3688,-0.0170167
3689,0.011336629
3690,0.017207805
3691,-0.004843853
3692,0.0012050763
3693,6.2134684e-05
3694,0.0051931166
3695,0.0043102205
3696,-0.0010555112
3697,-0.0067686667
3698,-0.006818271
3699,0.0020265754
3700,-0.004386508
3701,-0.008332135
3702,0.011852046
3703,-0.004835312
3704,0.00078346214
3705,0.014026252
3706,-0.016941829
3707,0.00597383
3708,0.0011642888
3709,-0.0050392486
3710,-0.006405562
3711,-0.010200554
3712,0.009105091
3713,-0.0036630856
3714,0.004383373
3715,-0.0061893733
3716,0.006466798
3717,5.556269e-05
3718,0.0071963337
3719,-0.0049365857
3720,9.7505326e-05
3721,-0.0049642604
3722,0.013556856
3723,-0.016789535
3724,-0.01045106
3725,0.008448408
3726,-0.018485088
3727,0.013467205
3728,0.009048315
3729,-0.010754327
3730,-0.0015414777
3731,-0.003289714
3732,0.0004688187
3733,-0.018872391
3734,0.010662354
3735,0.010372526
3736,0.0036394112
3737,0.0014074792
3738,-0.010571438
3739,0.0075710937
3740,0.015064586
3741,-0.011428539
3742,0.00026911963
3743,-0.0012333067
3744,-0.009258176
3745,-0.010862108
3746,0.013107205
3747,0.017979927
3748,0.011755338
3749,0.0039631953
3750,0.0070476606
3751,0.009523495
3752,-0.017077848
3753,-0.0065467046
3754,0.011102736
3755,0.0036857023
3756,-0.01280361
3757,0.008874454
3758,-0.0007155346
3759,-0.0014300505
3760,-0.019426998
3761,0.011324928
3762,-0.014198334
3763,-0.00065538904
3764,0.01808387
3765,0.010831988
3766,0.00021039898
3767,-0.012398224
3768,-0.001937364
3769,-0.011097994
3770,-0.012492761
3771,0.0052757543
3772,-0.0039235624
3773,-0.004685297
3774,0.0048558637
3775,0.01864944
3776,-0.017217258
3777,-0.0052779834
3778,-0.004348415
3779,0.0050969524
3780,0.014061039
3781,-0.0023810416
3782,0.008461949
3783,0.018813988
3784,-0.0020209479
3785,0.00028082542
3786,0.006367886
3787,0.007844241
3788,0.0044743535
3789,-0.004739004
3790,0.006740641
3791,-0.0041062827
3792,0.009076671
3793,-0.011927207
3794,-0.0015580087
3795,-0.0026034317
3796,0.011203323
3797,-0.0030187306
3798,0.016484097
3799,0.0017272617
3800,0.006376716
3801,-9.5661235e-05
3802,0.00518981
3803,0.009512629
3804,0.0011558761
3805,0.0039735483
3806,-0.0025665225
3807,-0.009126009
3808,0.007253229
3809,0.0039326497
3810,-0.015942033
3811,0.0064175487
3812,-0.009371622
3813,0.009113046
3814,-0.01102518
3815,-0.0021666947
3816,0.017756492
3817,-0.0076710926
3818,0.006494204
3819,0.0042058798
3820,0.00085913826
3821,0.007042675
3822,-0.0043433807
3823,1.6027168e-05
3824,0.01978626
3825,-0.0037480844
3826,0.016303662
3827,-0.0090669
3828,0.009338292
3829,0.0007726726
3830,-0.01260401
3831,-0.0062604453
3832,-0.019354573
3833,0.006195443
3834,-0.0030536419
3835,-0.0054786885
3836,0.012476415
3837,0.0005820376
3838,0.010711342
3839,-0.0036964873
3840,-0.008404223
3841,-0.0102749
3842,-0.0051555643
3843,-0.016498182
3844,-0.0124844685
3845,0.00710855
3846,-0.0029905962
3847,0.015336361
3848,-0.009373321
3849,0.017013973
3850,-0.008510875
3851,-0.013669192
3852,-0.006310386
3853,0.004394436
3854,-8.477614e-05
3855,-0.01660018
3856,0.005844657
3857,-0.0019319743
3858,0.014078172
3859,-0.005420798
3860,0.010329262
3861,0.0043235174
3862,-0.013162291
3863,-0.0015870822
3864,-0.0068784477
3865,-0.0063703232
3866,0.01415835
3867,0.0080762645
3868,0.012388889
3869,-0.008527604
3870,0.00051690836
3871,-0.00273757
3872,0.006260793
3873,0.0030287947
3874,-0.003879833
3875,0.0032407157
3876,-0.003481028
3877,0.008166792
3878,-0.0005636789
3879,-0.013735668
3880,0.018282682
3881,0.008132088
3882,-0.0013181646
3883,0.010784892
3884,-0.018136395
3885,-0.007967907
3886,-0.0065369513
3887,-0.00088908843
3888,-0.0023244405
3889,-0.002801028
3890,0.0017311207
3891,0.004568036
3892,0.018570779
3893,-0.009544387
3894,0.0050852126
3895,-0.017146055
3896,-0.008210689
3897,0.01282019
3898,-0.007803438
3899,0.0016304196
3900,0.012908041
3901,0.015274212
3902,-0.0068398877
3903,0.004311433
3904,-0.00085839175
3905,-0.0050297766
3906,0.010132541
3907,0.008155362
3908,0.012509151
3909,-0.0042878017
3910,-0.0022186833
3911,0.00944434
3912,0.007390484
3913,-0.0014191044
3914,0.0090854615
3915,0.00041546096
3916,-0.0020075985
3917,-0.007292883
3918,0.008184266
3919,-0.0037357034
3920,-0.00036921972
3921,-0.00047652496
3922,-0.0044436273
3923,-0.006947701
3924,0.014947665
3925,-0.00770297
3926,-0.0004653194
3927,0.009014722
3928,0.0005280315
3929,0.0131452065
3930,0.0063727302
3931,-0.008876457
3932,0.005714102
3933,-0.004732423
3934,0.010486561
3935,0.00243248
3936,0.0023524768
3937,0.0051221196
3938,0.0067917192
3939,-0.006425557
3940,0.0014385929
3941,0.016963976
3942,-0.013828532
3943,0.013461551
3944,0.006991272
3945,-0.0027338557
3946,-7.805629e-05
3947,-0.011448602
3948,0.006112684
3949,0.0031701312
3950,0.0020842971
3951,0.001344161
3952,0.0055593764
3953,0.0031693904
3954,0.009954581
3955,0.00806319
3956,-0.010803517
3957,0.007884496
3958,0.0063737254
3959,-0.015145984
3960,0.0039945967
3961,0.002647464
3962,-0.0015122145
3963,-0.001108281
3964,0.019583315
3965,-0.0038706714
3966,-0.007031729
3967,0.0024478491
3968,0.011950315
3969,0.0006281096
3970,0.005790816
3971,-0.0114750145
3972,-0.00052413734
3973,-0.015907902
3974,-0.005801441
3975,0.017386409
3976,0.016432457
3977,-0.0067203864
3978,-0.018562473
3979,-0.014423686
3980,0.0001160572
3981,-0.013364484
3982,-0.015528424
3983,0.0025286947
3984,-0.008245027
3985,0.0059900265
3986,0.002397257
3987,-0.0061663
3988,-0.0027290012
3989,-0.005174228
3990,0.00028988047
3991,0.000962796
3992,0.004547027
3993,0.000151464
3994,-0.0033386536
3995,-0.0066089826
3996,0.0067716753
3997,-5.153403e-05
3998,-0.0017423059
3999,0.0010867419
4000,0.01837602
4001,0.00073540944
4002,0.008803572
4003,0.005875276
4004,-0.0042848745
4005,-0.0062204767
4006,-0.008672636
4007,0.013179795
4008,0.01679365
4009,-0.0011709913
4010,0.016717402
4011,0.008927515
4012,-0.010228546
4013,-0.004095806
4014,0.00702815
4015,-0.0169606
4016,0.0068297577
4017,0.0027798356
4018,0.018267957
4019,-0.003754823
4020,0.0024551237
4021,0.008206727
4022,-0.008749011
4023,0.012974752
4024,-0.009649069
4025,-0.0063642003
4026,0.0062076296
4027,0.011683981
4028,0.0047753635
4029,-0.015677944
4030,-0.0061961687
4031,-0.005670845
4032,-0.001688228
4033,-0.010798584
4034,0.0100626135
4035,-0.0015221072
4036,-0.0049414253
4037,-0.0043403525
4038,-0.006277671
4039,-0.00507444
4040,-0.0048538935
4041,-0.010950148
4042,-0.0033217538
4043,-0.0054604234
4044,0.0048303697
4045,-0.009114186
4046,0.0018675519
4047,0.0013658907
4048,-0.004050064
4049,0.0024693392
4050,-0.002406312
4051,0.010596841
4052,-0.006232399
4053,-0.0036297834
4054,0.0018798208
4055,-0.0030990306
4056,-0.003573827
4057,-0.007440173
4058,0.0068591335
4059,0.0030043432
4060,-0.019991597
4061,-0.007987524
4062,-0.001729618
4063,-0.0022626186
4064,-0.0037405577
4065,0.0011764056
4066,0.0066080564
4067,0.0055815224
4068,-0.0050773374
4069,0.0005578868
4070,0.01293801
4071,-0.018408466
4072,0.014151057
4073,-0.0060386313
4074,0.011343116
4075,-0.009283373
4076,-0.012454792
4077,0.0114571275
4078,-0.00452738
4079,-0.0012276563
4080,-0.008463767
4081,0.009708659
4082,-0.0026867064
4083,-0.00029114672
4084,0.0006870799
4085,0.013491249
4086,-0.008433155
4087,0.00020171209
4088,0.012104461
4089,-0.015824027
4090,0.012379873
4091,-0.008232236
4092,0.010610755
4093,0.0011163143
4094,0.005520957
4095,-0.00063801196
4096,-0.004382767
4097,0.018999133
4098,0.01339186
4099,-0.015340629
4100,0.0039137183
4101,-0.00078049296
4102,-0.0027380304
4103,-0.0021893217
4104,1.2331344e-05
4105,0.010639065
4106,-0.0034947738
4107,-0.005910722
4108,0.0014437704
4109,-0.003815846
4110,0.010366887
4111,-0.002704661
4112,-0.006898133
4113,-0.000630601
4114,0.0025332386
4115,-0.012666982
4116,0.005381463
4117,-0.0014819269
4118,-0.011265668
4119,0.00032709833
4120,-0.00019231135
4121,0.011331153
4122,0.0033506742
4123,0.0009023941
4124,-0.00012711067
4125,-0.011211641
4126,-0.009683632
4127,0.0034106937
4128,0.0064726304
4129,-0.00025020965
4130,-0.01818951
4131,-0.002716828
4132,0.003713575
4133,0.016063878
4134,-0.0052312464
4135,0.008515909
4136,0.000149197
4137,0.0045558256
4138,0.016772507
4139,0.003744754
4140,0.004509012
4141,0.019741943
4142,0.002357895
4143,-0.0033969085
4144,0.012151313
4145,-0.013501735
4146,-0.018232549
4147,0.0076228282
4148,-0.00618643
4149,0.008367629
4150,-0.0037396783
4151,0.007870868
4152,0.0009553326
4153,0.01789719
4154,0.0011839767
4155,-0.008347097
4156,-0.0011411333
4157,0.0064121955
4158,0.0036873552
4159,-0.00024085371
4160,-0.007888614
4161,-0.009126983
4162,0.0038196843
4163,-0.019422488
4164,0.0069561764
4165,-0.015907532
4166,0.0007560386
4167,0.007227817
4168,0.005971454
4169,-0.0023934955
4170,0.015302112
4171,-0.007243172
4172,0.015089971
4173,0.016121933
4174,-0.007254097
4175,0.0016746338
4176,-0.01416559
4177,-0.0072530233
4178,0.01771923
4179,-0.0058220057
4180,-0.015705373
4181,0.008350376
4182,0.0011736607
4183,0.0037305646
4184,0.0048210304
4185,-0.014645251
4186,-0.010672937
4187,0.002693413
4188,-0.0064966516
4189,-0.0056697903
4190,0.0005076182
4191,0.007216156
4192,-0.0120080495
4193,-0.0046766656
4194,0.0030037728
4195,-0.010091766
4196,0.0031058253
4197,0.01829565
4198,0.008914359
4199,0.0016584852
4200,0.007922716
4201,0.003535009
4202,-0.0027151792
4203,-0.0149072725
4204,0.005682915
4205,0.0010667943
4206,0.0048587667
4207,-0.0030147696
4208,-0.0017646193
4209,-0.010642992
4210,-0.010775126
4211,-0.016552683
4212,0.0033089505
4213,-0.014439909
4214,0.009559156
4215,-0.0071451557
4216,0.008915407
4217,-0.0016522962
4218,-0.011255849
4219,-0.0034189902
4220,-0.0011089373
4221,0.003546706
4222,0.009550493
4223,-0.018178042
4224,0.016358366
4225,-0.0019864943
4226,0.0047169607
4227,-0.008053251
4228,0.009011585
4229,0.0060791895
4230,-0.005666027
4231,-0.0060593355
4232,-0.0072865146
4233,0.014978514
4234,0.017502332
4235,0.0064210882
4236,0.0012805514
4237,0.010024228
4238,-0.0058611417
4239,0.016826617
4240,0.001869864
4241,-0.014674331
4242,0.0025497344
4243,0.0129004605
4244,0.0075818473
4245,-0.00061199296
4246,0.014708861
4247,-0.0061723534
4248,0.01047053
4249,-0.0015684218
4250,0.015366302
4251,-0.010360448
4252,-0.0014557595
4253,0.019655352
4254,-0.003335518
4255,0.012298854
4256,0.001118015
4257,-0.009697604
4258,6.026221e-05
4259,-0.003696479
4260,-0.01850738
4261,0.0036251594
4262,0.0015085302
4263,-0.004548539
4264,0.0064377515
4265,-0.010557306
4266,-0.010436464
4267,0.006440332
4268,0.01144751
4269,0.0035654912
4270,0.0063919965
4271,-0.010230863
4272,0.018731488
4273,-0.0075301225
4274,-0.004117221
4275,0.0074062403
4276,-0.004957775
4277,-0.013955942
4278,-0.011575894
4279,-0.0004889819
4280,-0.0057574334
4281,0.003058889
4282,-0.0005414409
4283,-0.0007493237
4284,-0.003514383
4285,-0.01009207
4286,0.004779135
4287,-0.006983665
4288,0.0005915924
4289,0.0048332135
4290,0.0053092367
4291,-0.004970625
4292,-0.016105669
4293,0.014063446
4294,-0.0034540568
4295,-0.012695295
4296,0.0037149256
4297,0.014241178
4298,-0.003370434
4299,0.0021524946
4300,-0.0041530426
4301,-0.008246111
4302,-0.0050595556
4303,0.0015729803
4304,0.011164367
4305,0.008489519
4306,-0.0056689414
4307,0.012169396
4308,-0.0037384834
4309,-0.016723996
4310,-0.010644742
4311,0.0071124528
4312,0.012310875
4313,0.0031859726
4314,0.010118231
4315,-0.0114318635
4316,0.0021131553
4317,-0.009394788
4318,-0.004458451
4319,-0.0031986427
4320,0.004718194
4321,-0.011470547
4322,0.01284231
4323,-0.009557543
4324,-0.012444378
4325,-0.0036104822
4326,-0.0056893695
4327,-0.0077183717
4328,-0.010666986
4329,-0.010345184
4330,0.0058375387
4331,0.0006350177
4332,0.009238857
4333,-0.0064037684
4334,-0.0061674435
4335,0.01035837
4336,0.0028096375
4337,0.010508093
4338,0.019893976
4339,0.00488294
4340,0.0016022959
4341,-0.0056740735
4342,0.0024310972
4343,-0.015473545
4344,-0.0037957665
4345,-0.006371379
4346,-0.006176847
4347,-0.014379563
4348,-0.004563642
4349,0.009910204
4350,-0.0058971383
4351,0.006261997
4352,0.0074270573
4353,0.001171621
4354,-0.00036429832
4355,-0.0015063188
4356,-0.0012105819
4357,0.00048628438
4358,0.008346913
4359,0.011729015
4360,-0.002354479
4361,-0.006002591
4362,0.017922254
4363,-0.014393043
4364,-0.013339527
4365,-0.011388475
4366,0.0019448978
4367,0.009557824
4368,0.009614217
4369,0.005078249
4370,0.0027907602
4371,-0.010753548
4372,-0.0034689712
4373,0.0041050315
4374,0.0022338678
4375,-0.00026553657
4376,0.0021840313
4377,-0.008002402
4378,-0.012758208
4379,-0.009271495
4380,0.0034961957
4381,0.017934958
4382,-0.011136922
4383,-0.0018242327
4384,-0.015016263
4385,-0.003388979
4386,-0.009357452
4387,0.0038003165
4388,0.005056046
4389,-0.0018898066
4390,-0.00011075043
4391,-0.0033051227
4392,-0.0063581355
4393,-0.00084278797
4394,-0.00021615216
4395,0.0030744348
4396,0.011155839
4397,-0.0030362923
4398,-0.0064623742
4399,0.004656072
4400,0.005581334
4401,0.006128871
4402,0.0024751737
4403,0.010344623
4404,-0.013855919
4405,0.0048903828
4406,0.005087951
4407,0.0055111633
4408,-0.0054288795
4409,0.0047980687
4410,0.008153044
4411,-0.00883919
4412,0.008476692
4413,0.011543794
4414,0.008978774
4415,-0.011651224
4416,-0.0011870612
4417,-0.0044952654
4418,-0.010666008
4419,-0.002691585
4420,-0.00255664
4421,0.016808163
4422,-0.0068677785
4423,-0.0045806207
4424,-0.00045710104
4425,-0.007918408
4426,-0.0024906292
4427,-0.008051811
4428,-0.004154589
4429,-0.008226583
4430,-0.01394108
4431,0.008747436
4432,-0.0004719941
4433,0.010011492
4434,0.0151845
4435,0.0066237543
4436,0.0084488345
4437,-0.008247267
4438,0.0005183643
4439,0.004109482
4440,-0.010358973
4441,-0.011745042
4442,-0.0040982156
4443,-0.005767313
4444,-0.011976969
4445,0.007942371
4446,-0.0044002584
4447,0.007431751
4448,0.009278194
4449,-0.0035566448
4450,0.009800675
4451,-0.006040474
4452,-0.009509496
4453,0.0036960768
4454,-0.0089618955
4455,-0.007724361
4456,0.008218174
4457,0.002171576
4458,-0.012706176
4459,-0.012522651
4460,-0.010754518
4461,0.0060656895
4462,-0.0060851895
4463,0.0031937498
4464,-0.0004823677
4465,-0.011507616
4466,-0.00076467555
4467,-0.0127876615
4468,-0.0031427823
4469,0.018909885
4470,0.0077648214
4471,-0.006323511
4472,-0.004554266
4473,-0.004193157
4474,0.0009659308
4475,-0.00045859045
4476,-0.004792168
4477,0.0017209676
4478,0.012905178
4479,0.0123235965
4480,-0.0034904375
4481,-0.01280273
4482,0.0108155385
4483,0.0032109
4484,0.0015977429
4485,-0.007720246
4486,-0.00199024
4487,-0.011857851
4488,-0.013399272
4489,0.008033473
4490,0.0027195397
4491,-0.0066062342
4492,-0.014345105
4493,0.0022694967
4494,0.0010238759
4495,0.011241422
4496,-0.014438567
4497,0.009010869
4498,0.0010178663
4499,0.0005145859
4500,-0.004284131
4501,-0.011373154
4502,-0.0072057312
4503,0.003542189
4504,0.0046772943
4505,0.0012556157
4506,-0.0010223516
4507,-3.518613e-05
4508,0.0013667113
4509,-0.0038970318
4510,-0.012606923
4511,-0.011560557
4512,-0.0029744257
4513,-0.004261729
4514,-0.00084954256
4515,0.0076573724
4516,0.014857547
4517,-0.0037496802
4518,0.009914856
4519,-0.0043319184
4520,-0.018223638
4521,-0.002179617
4522,-0.0077016586
4523,0.017181354
4524,0.0003295673
4525,0.0059142006
4526,0.002394457
4527,-0.014023986
4528,0.0064579695
4529,0.002021027
4530,0.0008093732
4531,0.0021700407
4532,0.012925636
4533,0.005572078
4534,0.0019880212
4535,0.010822285
4536,-0.01169339
4537,0.019616857
4538,-0.0007084967
4539,0.012072448
4540,0.006513987
4541,-0.00669094
4542,0.009361823
4543,-0.0057398085
4544,0.0040962175
4545,0.007778904
4546,-0.0014322106
4547,-0.00416609
4548,0.0037380706
4549,-0.0017302773
4550,0.0079264315
4551,-0.012403269
4552,0.0023574415
4553,-0.012366137
4554,-0.003240217
4555,-0.0030224086
4556,0.006566905
4557,0.0008750109
4558,0.0007727002
4559,-0.0003734922
4560,-0.0023541173
4561,0.005899223
4562,0.009680845
4563,0.010955781
4564,0.002506138
4565,0.00054428435
4566,0.017315665
4567,0.00026930953
4568,0.0007652727
4569,-0.0037569776
4570,-0.01218275
4571,0.013881546
4572,-0.0044269017
4573,0.008209444
4574,-0.010802984
4575,0.0039898446
4576,-0.006920278
4577,-0.009995363
4578,-0.010469393
4579,-0.0047188606
4580,-0.013326351
4581,-0.013825039
4582,0.000575303
4583,0.016118424
4584,0.0022095677
4585,0.0035769755
4586,0.008102777
4587,0.0060318415
4588,0.008227681
4589,0.011362703
4590,0.0016694473
4591,-0.0075050327
4592,0.002952291
4593,-0.007521288
4594,0.0011942915
4595,-0.006870671
4596,0.002263742
4597,0.002448601
4598,-0.009329908
4599,6.722124e-05
4600,-0.0035848995
4601,-0.014285074
4602,-0.0021792285
4603,-0.014699791
4604,-0.0012004531
4605,-0.0027360911
4606,0.0010192564
4607,0.0011337814
4608,0.015721617
4609,-0.009684228
4610,0.0052867485
4611,0.0022120096
4612,0.004825249
4613,-0.0073222383
4614,-0.008755638
4615,-0.00024777616
4616,-0.0073576327
4617,-0.0020197218
4618,0.0027804133
4619,-0.009849462
4620,0.0055044997
4621,-0.018699111
4622,0.007665806
4623,0.0071448577
4624,-0.0037949672
4625,-0.0062192422
4626,-0.0058529163
4627,-0.008583287
4628,0.0012985289
4629,0.0022835569
4630,0.0017287433
4631,-0.0156447
4632,-0.00040458282
4633,-0.0099694235
4634,-0.012653184
4635,0.0018910217
4636,0.007941108
4637,-0.016922377
4638,-0.002809325
4639,0.0006867462
4640,-0.011120203
4641,0.00483679
4642,0.014659429
4643,0.0069166785
4644,0.010351589
4645,0.009754625
4646,0.010561538
4647,-0.014133503
4648,0.004158848
4649,0.006511184
4650,-0.012466756
4651,-0.005342624
4652,-0.00846914
4653,0.004983082
4654,-0.004995596
4655,-0.0011207743
4656,0.0028761926
4657,0.012204566
4658,-0.005171027
4659,0.00043935623
4660,0.017662697
4661,0.0005811376
4662,-0.007964198
4663,0.0014896309
4664,-0.008878877
4665,0.013179569
4666,-0.005289534
4667,0.00462378
4668,-5.596594e-05
4669,0.0035321682
4670,0.0013157622
4671,-0.0065578218
4672,-0.0017843781
4673,0.00025394943
4674,-0.00050294155
4675,0.006095892
4676,0.0025519815
4677,0.0060681384
4678,0.01681583
4679,0.004621708
4680,-0.00047505437
4681,-0.0031404449
4682,0.0035657554
4683,0.004964313
4684,0.007058549
4685,-0.010088427
4686,0.0032586611
4687,0.0033709952
4688,-0.007389007
4689,-0.015821643
4690,-0.0027055098
4691,0.0029006838
4692,0.014840194
4693,0.0024353287
4694,0.016703863
4695,-0.009627505
4696,-0.014775796
4697,0.0005736133
4698,0.019994017
4699,0.0053880694
4700,0.004229055
4701,-0.010773999
4702,0.017337931
4703,-0.012016367
4704,-0.009474167
4705,-0.009804102
4706,0.0015689387
4707,0.002116169
4708,-0.000510101
4709,0.00484402
4710,0.018033281
4711,0.004807387
4712,-0.0019218279
4713,-0.00087933644
4714,-0.0069686426
4715,-6.221931e-05
4716,0.007084171
4717,-0.013434893
4718,-0.002771103
4719,0.0017870191
4720,-0.0016954417
4721,-0.003148957
4722,0.012279337
4723,-0.011645157
4724,-0.008641254
4725,0.0051878556
4726,-0.0017240702
4727,0.015144764
4728,0.015654622
4729,0.0031683298
4730,-0.0066788928
4731,0.005090732
4732,-0.010284744
4733,0.011179661
4734,-0.0062127314
4735,-0.006791501
4736,-0.011574911
4737,-0.005980334
4738,0.0066430634
4739,-0.014533526
4740,-0.006299081
4741,-0.0032367238
4742,-0.003928056
4743,-0.01932403
4744,-0.0032170813
4745,0.015883684
4746,-0.0013582311
4747,-0.008994928
4748,-0.0061005964
4749,-0.008412251
4750,0.0036101243
4751,0.0036026293
4752,-0.008939136
4753,-0.003003398
4754,-0.011712624
4755,-0.0004127241
4756,-0.012773476
4757,0.017345084
4758,-0.009960113
4759,-0.009122426
4760,-0.013530045
4761,0.009546617
4762,-0.003503722
4763,0.00056333403
4764,-0.0065459097
4765,-0.0016452805
4766,-0.012901793
4767,0.007357836
4768,-0.0021920598
4769,0.009518354
4770,0.00049985136
4771,0.009851165
4772,0.012817341
4773,-0.008053323
4774,-0.012356741
4775,0.0018106394
4776,-0.009229274
4777,-0.0075858748
4778,0.0005244497
4779,0.003897442
4780,-0.00052498997
4781,-0.010660165
4782,0.0023112257
4783,-0.013247742
4784,0.015343264
4785,0.004077041
4786,-0.0050189337
4787,-0.0007143594
4788,0.0052360506
4789,-0.007169416
4790,-0.0042466884
4791,0.011826209
4792,-0.0011718691
4793,0.005360138
4794,0.0024048798
4795,0.017301906
4796,0.001877002
4797,0.012682947
4798,0.017223647
4799,0.0099536795
4800,0.014863319
4801,0.003268473
4802,0.0030748073
4803,-0.008367797
4804,-0.006035533
4805,-0.0038419606
4806,-0.0071537183
4807,-0.005431992
4808,0.00810215
4809,0.0041427114
4810,0.009505412
4811,0.017024076
4812,-0.017381866
4813,0.004147674
4814,-0.0010569851
4815,-0.011645363
4816,0.011812244
4817,-0.008361525
4818,-0.013985868
4819,-0.011738657
4820,-0.0048342575
4821,-0.01671034
4822,0.00471689
4823,-0.0017196182
4824,-0.014088674
4825,0.0074316626
4826,0.0075381044
4827,-0.0012119577
4828,-0.0027292022
4829,-0.0032107919
4830,-0.0036405066
4831,-0.0008992684
4832,-0.0024453334
4833,-0.0022643618
4834,-0.003938878
4835,0.006563297
4836,-0.0033756206
4837,-0.00666494
4838,-0.0010568993
4839,-0.01543346
4840,-0.008137223
4841,0.0051899105
4842,-0.018508071
4843,0.013071139
4844,-0.0018417482
4845,-0.01485342
4846,-0.0015615198
4847,-0.014771997
4848,0.0036139805
4849,-0.011206366
4850,0.0029548372
4851,-0.011300997
4852,-0.0026316259
4853,0.004312147
4854,0.006786467
4855,0.007241336
4856,0.008298352
4857,0.007455789
4858,-0.0002010517
4859,-0.0055310205
4860,-3.456346e-05
4861,0.008933533
4862,0.007004415
4863,0.000403164
4864,0.0020573612
4865,0.0051465365
4866,-0.006334997
4867,-0.018339736
4868,-0.0038120642
4869,-0.015887123
4870,-0.011939965
4871,-0.010501637
4872,-0.002113873
4873,0.010137131
4874,-0.007669448
4875,-0.00438699
4876,-0.007738138
4877,0.01321929
4878,-0.008684935
4879,-0.011820298
4880,-0.002076589
4881,-0.0017132527
4882,-0.0053256075
4883,-0.013228176
4884,-0.0040318314
4885,0.0026316105
4886,0.018985447
4887,0.0020052583
4888,0.010706422
4889,-0.005466183
4890,-0.00881974
4891,-0.010596073
4892,-0.015161298
4893,-0.004078678
4894,0.006504103
4895,-0.0025108496
4896,-0.0050134626
4897,0.00167966
4898,0.0072326236
4899,-0.00029473068
4900,-0.004845791
4901,-0.0014924041
4902,-0.0031477248
4903,0.0049065268
4904,0.00023895781
4905,0.0052569453
4906,-0.006388156
4907,0.005781806
4908,-0.0032117008
4909,-0.010591699
4910,4.7728667e-05
4911,0.009017367
4912,0.007168318
4913,-0.010848816
4914,-0.00043397906
4915,0.019502787
4916,-0.0036437612
4917,-0.0008078411
4918,-0.00716617
4919,-0.004326835
4920,0.0095760785
4921,0.0009902269
4922,0.0026139473
4923,-0.015225837
4924,-0.0032345797
4925,0.0037403977
4926,-0.0129834665
4927,0.006419402
4928,-0.014323278
4929,-0.0034760567
4930,-0.0041614114
4931,0.0008220132
4932,0.0109952735
4933,-0.006554822
4934,0.00018135234
4935,-0.003974365
4936,-0.017059604
4937,0.009632772
4938,0.009933218
4939,-0.011357913
4940,0.009600642
4941,0.005507884
4942,0.009802468
4943,-0.019170731
4944,0.0028286036
4945,0.008120945
4946,-0.0024176221
4947,0.012174715
4948,-0.0075553623
4949,0.0038320809
4950,-0.00066867855
4951,-0.014860973
4952,-0.000364307
4953,0.009766086
4954,0.009703159
4955,-0.012787455
4956,0.012194427
4957,0.0028916812
4958,0.0040352466
4959,0.008236473
4960,0.001283496
4961,0.0073432513
4962,-0.0029554362
4963,-0.009983831
4964,0.0045027575
4965,0.0137168085
4966,-0.0059475615
4967,0.0008154137
4968,0.01521753
4969,0.000118720855
4970,0.010993679
4971,-0.002880639
4972,-0.013174431
4973,0.00959041
4974,-0.0015665488
4975,-0.004426321
4976,-0.011942144
4977,-0.0067883753
4978,-0.014884024
4979,-0.0014785734
4980,-0.0084115565
4981,-0.019005284
4982,0.0025085525
4983,0.002366061
4984,-0.002140979
4985,0.0014684071
4986,0.0042690537
4987,-0.0009752359
4988,-0.009615301
4989,0.016063347
4990,4.480559e-06
4991,0.0019836267
4992,0.015271018
4993,-0.007486443
4994,0.010209076
4995,-0.0021625464
4996,-0.0077510676
4997,0.009009964
4998,0.005202044
4999,-0.00041060912
5000,0.0022042873
5001,0.005235843
5002,0.0017679534
5003,0.00020005583
5004,0.006274923
5005,-0.0011604597
5006,-0.01438491
5007,-0.011872958
5008,-0.004030377
5009,-0.00787818
5010,-0.0017633591
5011,-0.013494633
5012,0.005872817
5013,0.016706694
5014,-0.0020089666
5015,-0.016298566
5016,0.0042342884
5017,0.0010644363
5018,-0.008653069
5019,0.018560147
5020,-0.016581798
5021,0.012762863
5022,0.0064112404
5023,-0.012098034
5024,-0.010267024
5025,0.0024113215
5026,-0.00574255
5027,0.010385918
5028,0.00029040157
5029,-0.006432687
5030,0.0021903065
5031,-0.0049560745
5032,-0.010642548
5033,-0.007600118
5034,-0.004367293
5035,0.0073163006
5036,0.0020688176
5037,0.010299605
5038,-0.0057356786
5039,-0.0060308306
5040,-0.00845515
5041,-0.0055219345
5042,-0.003400229
5043,-0.0015129826
5044,0.002186521
5045,-0.0029317266
5046,-0.013831027
5047,0.019018713
5048,-0.006597476
5049,0.0075811823
5050,-0.0032886981
5051,-0.009169375
5052,0.012869866
5053,0.0114531005
5054,0.012858788
5055,0.011688507
5056,0.006507157
5057,-0.013246861
5058,-0.01541406
5059,0.011398689
5060,0.002614531
5061,0.0018674238
5062,-0.018468844
5063,-0.0018461043
5064,-0.011571253
5065,0.008425658
5066,-0.0034872682
5067,0.0080406545
5068,0.0046739234
5069,0.012210431
5070,-0.0024356623
5071,0.0015602106
5072,-0.0007572938
5073,0.0019333186
5074,0.010389809
5075,-0.0005258627
5076,0.013865547
5077,-0.003250768
5078,0.0019341792
5079,0.0019164226
5080,-0.010369508
5081,0.005121748
5082,0.00895341
5083,-0.012764514
5084,-0.0066470383
5085,0.010571443
5086,-0.0038989305
5087,-0.000711828
5088,0.0051579615
5089,-0.00525206
5090,0.010151458
5091,0.010419784
5092,0.013157542
5093,-0.005367555
5094,0.008823071
5095,0.008948062
5096,0.0013947627
5097,0.0056520086
5098,0.013902365
5099,0.007427761
5100,-0.0007783416
5101,-0.0027868832
5102,-0.011727042
5103,0.018276712
5104,0.007444186
5105,-0.010610005
5106,-0.008600284
5107,-0.0019667333
5108,-0.014893669
5109,-0.010128914
5110,-0.00665373
5111,0.015789581
5112,0.017892342
5113,-0.010828701
5114,-0.017346593
5115,-0.0056740684
5116,-0.015736133
5117,-0.011645697
5118,-0.006979673
5119,0.013287738
5120,-0.0076643266
5121,-0.002105019
5122,-0.0027379766
5123,-0.0047163977
5124,-0.00798201
5125,0.011383291
5126,-0.0045167925
5127,-0.010626415
5128,0.00024389075
5129,-0.0076552536
5130,-0.009540383
5131,-0.0058796816
5132,0.013989753
5133,0.009554209
5134,-0.008798024
5135,0.011848448
5136,-0.0021455642
5137,0.005861991
5138,0.007473606
5139,-0.008439506
5140,-0.01644533
5141,-0.0027011484
5142,-0.00021300104
5143,0.0015565726
5144,-0.011121392
5145,-0.017008847
5146,-0.01963515
5147,-0.009033967
5148,-0.0049069915
5149,-0.0014935496
5150,-0.00596281
5151,-0.0036021045
5152,-0.0073575787
5153,-0.007442323
5154,-0.005245894
5155,0.0037550237
5156,-0.00827036
5157,0.008836645
5158,-0.0014567235
5159,-0.006722002
5160,-0.00026592848
5161,0.005533516
5162,0.007207958
5163,0.00018816859
5164,-0.00056792836
5165,0.015945362
5166,-0.0016034371
5167,0.011874752
5168,0.009662604
5169,0.0011615199
5170,-0.013317682
5171,-0.004862614
5172,0.0154415555
5173,-0.009047292
5174,0.010005544
5175,0.010630898
5176,0.0026794728
5177,0.0020669599
5178,0.018209629
5179,-0.013114569
5180,-0.012663188
5181,-0.00336435
5182,0.0052800938
5183,-0.014263944
5184,-0.0047269138
5185,0.008978063
5186,0.00939984
5187,0.0019592112
5188,0.005597652
5189,0.016650047
5190,0.015126861
5191,0.014303632
5192,0.01607351
5193,0.0043818154
5194,0.008896459
5195,0.0026274943
5196,0.017045733
5197,0.010358468
5198,0.0027144481
5199,0.014436453
5200,-0.0039645154
5201,-0.018770235
5202,-0.0026867553
5203,0.0071695345
5204,-0.019321334
5205,0.0028549056
5206,-0.01048914
5207,0.009942878
5208,-0.012418893
5209,-0.013977367
5210,0.0029184192
5211,0.0039274697
5212,-0.012887549
5213,-0.0022657563
5214,0.0038325272
5215,-0.0011247393
5216,-0.0024465495
5217,-0.013500803
5218,0.011742768
5219,-0.00042741653
5220,0.010364759
5221,0.009755108
5222,-0.015325216
5223,-0.007316316
5224,-0.0016196583
5225,0.00083098124
5226,0.0013371293
5227,0.007002636
5228,0.010960036
5229,0.0011718578
5230,0.004160066
5231,-0.0035956297
5232,-0.014339472
5233,0.018074926
5234,-0.0053418707
5235,-0.0009483997
5236,0.0056552733
5237,0.0061983345
5238,0.004200896
5239,0.0093564475
5240,-0.004882402
5241,0.004655902
5242,-0.0071918583
5243,-0.017584778
5244,-0.013764427
5245,-0.0011616588
5246,0.0057480126
5247,-0.0043248106
5248,-0.0027023817
5249,-0.0004850764
5250,-0.007914783
5251,0.0040311827
5252,-0.009680181
5253,0.008058089
5254,0.0094574345
5255,0.0039570015
5256,-0.0023476293
5257,0.0007193778
5258,0.0030737147
5259,-0.0008247927
5260,0.006590445
5261,-0.009165071
5262,0.0196453
5263,-0.008524908
5264,0.0029965271
5265,0.005721191
5266,-0.012923321
5267,0.00733363
5268,-0.0032116536
5269,-0.0071276748
5270,0.008220834
5271,-0.0035123879
5272,0.016375264
5273,-0.0047371876
5274,-0.0015065384
5275,0.008881109
5276,0.0014238686
5277,0.0014615625
5278,0.0151400985
5279,-0.011778392
5280,-0.0149852075
5281,0.005557133
5282,0.019286687
5283,-0.011699279
5284,-0.018905805
5285,-0.016414903
5286,-0.0010391104
5287,0.0050256574
5288,-0.0032995064
5289,0.002322795
5290,0.0056850454
5291,0.0042281765
5292,-0.012009094
5293,0.0011580064
5294,0.0075846678
5295,-0.0039822767
5296,-0.009411193
5297,-0.0040236837
5298,-0.005576563
5299,-0.0044114576
5300,0.01999007
5301,-0.0059097554
5302,-0.0022737763
5303,0.0014265354
5304,0.019029332
5305,-0.00073600333
5306,-0.00058204256
5307,0.005285414
5308,-0.0014935476
5309,0.0013391294
5310,-0.0054316763
5311,-0.015106482
5312,-0.012326613
5313,0.000113348775
5314,-0.005016914
5315,0.0069140606
5316,0.0011760916
5317,-0.006360106
5318,0.0069353306
5319,0.0048440066
5320,-0.0011442393
5321,0.016213063
5322,0.0010661588
5323,-0.010699685
5324,-0.005826642
5325,0.010425822
5326,-0.0062872632
5327,0.0076373783
5328,0.0033456357
5329,0.014297498
5330,-0.00394073
5331,-0.00067487976
5332,-0.0049482356
5333,-0.009641706
5334,-0.00064435427
5335,-0.0031634953
5336,-0.0076492983
5337,0.003992306
5338,0.00557053
5339,-0.008477053
5340,0.003025161
5341,0.018866817
5342,-4.1544055e-05
5343,0.009325361
5344,0.0037301253
5345,-0.0040029967
5346,0.017077016
5347,-0.009894922
5348,0.013263407
5349,0.016531514
5350,-0.01312921
5351,-0.0032537547
5352,-0.012214611
5353,0.00484679
5354,-0.008285537
5355,0.006346034
5356,-8.0115664e-05
5357,-0.0010276741
5358,-0.017080957
5359,0.008673257
5360,0.011796255
5361,-0.010456125
5362,-0.0064061587
5363,-0.005692224
5364,-0.00070973195
5365,-0.0074121263
5366,-0.018913794
5367,0.010837275
5368,-0.00018428278
5369,0.0077618756
5370,-0.0025718694
5371,0.002219622
5372,0.0067439624
5373,-0.006969234
5374,-0.0077490653
5375,0.002921569
5376,-0.0047548222
5377,0.0033462036
5378,-0.0028618556
5379,0.0068496717
5380,-0.00096507475
5381,0.004931859
5382,0.015474713
5383,0.0003580392
5384,-0.0032693509
5385,-0.004710337
5386,0.0007306323
5387,0.008517102
5388,-0.0075717955
5389,0.003863687
5390,0.0022640815
5391,0.0040564765
5392,-0.009771636
5393,0.014184172
5394,0.010949994
5395,-0.005865033
5396,0.005190639
5397,-0.01003501
5398,0.0011114998
5399,0.0056388644
5400,0.0043632723
5401,-0.0028517463
5402,0.015568337
5403,0.008459895
5404,-0.0009231927
5405,0.019260585
5406,-0.009451347
5407,0.0031969345
5408,-0.011571944
5409,-0.006351579
5410,0.0062100217
5411,-0.012327449
5412,0.0010483448
5413,-0.0042212666
5414,-0.007054201
5415,-0.0010409481
5416,0.009315917
5417,-0.006506772
5418,-0.007698898
5419,0.0028531938
5420,-0.00022777535
5421,-0.0051785763
5422,-0.012977911
5423,-0.0021710352
5424,0.007908948
5425,0.0018175376
5426,-0.010091827
5427,-0.005220296
5428,-0.0049042883
5429,0.007276158
5430,0.004993406
5431,-0.0036981695
5432,-0.016099855
5433,0.0011093067
5434,-0.0040106787
5435,-0.005417424
5436,-0.011874984
5437,-0.004689952
5438,0.016699104
5439,-0.0079532
5440,0.00015822613
5441,-0.0055062403
5442,0.016646778
5443,-0.017131152
5444,-0.0024255752
5445,0.013129862
5446,-0.011806154
5447,-0.0002825142
5448,-0.0058008325
5449,-0.014017323
5450,0.011364347
5451,0.014488328
5452,3.5016477e-05
5453,0.00089752855
5454,-0.0026437743
5455,-0.007835033
5456,0.009969403
5457,0.0056373035
5458,-0.012871465
5459,-0.009414389
5460,-0.016912071
5461,0.013698153
5462,0.008374781
5463,-0.0065572034
5464,-0.008148151
5465,-0.0040521687
5466,-0.0010236711
5467,0.019227223
5468,-0.00097611087
5469,-0.014351891
5470,0.0015849703
5471,0.013169612
5472,-0.0003704985
5473,0.01952495
5474,-0.011099211
5475,0.004663117
5476,-0.008127286
5477,0.016492972
5478,0.00019275487
5479,-0.004553712
5480,-0.0032984188
5481,0.014332694
5482,0.0095783
5483,-0.008401881
5484,-0.004243224
5485,0.0046600956
5486,0.01178263
5487,-0.0049825306
5488,0.0016077309
5489,-0.0017919424
5490,-0.005318843
5491,-0.017096108
5492,-0.0015233802
5493,-0.0042286557
5494,0.010427958
5495,0.004490838
5496,-0.0064862133
5497,-0.003372559
5498,0.019599792
5499,-0.007913579
5500,-0.0102814445
5501,0.016500482
5502,-0.007813738
5503,0.004467179
5504,0.006139941
5505,-0.011318818
5506,0.014674565
5507,0.005149954
5508,-0.0018516913
5509,-0.008629378
5510,0.0045700027
5511,0.011065235
5512,-0.0050941543
5513,-0.015881503
5514,0.00044719857
5515,0.0090680765
5516,0.008811251
5517,0.0037758271
5518,0.010005698
5519,0.0038061044
5520,0.0057786442
5521,0.012181531
5522,-0.011189031
5523,0.010136703
5524,-0.010563827
5525,-0.015022877
5526,-0.0071354234
5527,0.007615022
5528,-0.0018187949
5529,0.004819659
5530,-0.00474249
5531,-0.00670619
5532,-0.010264918
5533,-0.008299979
5534,0.0077010766
5535,-0.0016816631
5536,-0.0049872897
5537,0.00011408558
5538,0.0018866686
5539,0.008066269
5540,0.01622477
5541,0.0046444046
5542,0.011796856
5543,-0.012817959
5544,0.011652142
5545,0.0042700577
5546,-0.0043957257
5547,0.01439485
5548,-0.00067072565
5549,0.010101227
5550,-0.0045344103
5551,0.007852848
5552,-0.009108156
5553,-0.008529311
5554,-0.0030940296
5555,-0.0027260412
5556,-0.00465671
5557,0.00866923
5558,0.0010850104
5559,-0.0141558675
5560,0.005398611
5561,0.002432193
5562,0.0072375466
5563,0.016050497
5564,0.0019174537
5565,-0.0063042874
5566,-0.0046418123
5567,0.00960166
5568,0.018003594
5569,-0.01584112
5570,-0.005797736
5571,-0.008567699
5572,-0.0029644966
5573,-0.00066251715
5574,-0.0022412715
5575,-0.00211826
5576,0.0038692935
5577,0.0003384765
5578,0.009005326
5579,0.01268037
5580,-0.00031163084
5581,0.008377345
5582,-0.0012298194
5583,-0.007202549
5584,0.0012083388
5585,-0.009022196
5586,0.0028567123
5587,-0.0018883573
5588,0.014755829
5589,-0.00057977636
5590,-0.019983595
5591,0.0020648453
5592,0.01980736
5593,0.011469759
5594,-0.0010848279
5595,0.002381976
5596,-0.011001564
5597,0.003811382
5598,0.0022127423
5599,-0.0012709765
5600,-0.0015862313
5601,-0.0036405511
5602,-0.0045691887
5603,-0.0071967654
5604,0.0024727052
5605,-0.0168776
5606,0.003904752
5607,-0.0018101804
5608,0.009218531
5609,0.00014733242
5610,0.011823559
5611,-0.01162433
5612,0.01685768
5613,0.0035333293
5614,-0.008093582
5615,-0.0010897125
5616,-0.017848896
5617,4.684062e-05
5618,0.0023987314
5619,0.0033893022
5620,-0.013128274
5621,0.0053517027
5622,4.4549444e-05
5623,-0.008909487
5624,-0.000849165
5625,-0.013329672
5626,-0.011563541
5627,-0.012896266
5628,-0.007195674
5629,-0.0029108445
5630,0.009045392
5631,0.008234794
5632,-0.010163849
5633,-0.002229051
5634,0.012427858
5635,-0.013375898
5636,-0.009671524
5637,-0.007899569
5638,-0.00018603072
5639,-0.003727197
5640,-0.006403251
